437 100
surface -1.53219986  0.18888371 -0.42815262 -1.15855777 -0.61420703 -0.00902801 -1.42922783  1.70765042  0.33453989  0.2542583  -0.82419205 -0.55735809 -0.00999253  1.37213683 -0.28469342  0.39201155 -0.30555168  0.8633073   0.94709885 -1.834041    0.9171564  -1.19831789 -1.12684584  0.02453549  0.14376076 -0.91326118 -2.77923918  1.23777115 -0.41799051  1.53294003  0.22675629 -0.6953491  -0.57774204 -1.31553292 -0.6543045  -0.75526166  0.2909607   0.47918186  2.64573646 -1.3665998   0.79669076 -0.01878686 -1.79959452  0.77290815 -3.15978861 -1.32505155 -0.688281    0.82029951 -0.48394442 -0.84735423 -1.2296145   0.62813598 -0.50838602 -0.96639472  0.14880344 -1.84359741  0.98886263  0.89598715 -0.87325561  0.69705313 -1.15944397  0.35967657 -1.88152516 -2.01990151  0.1307572  -1.25789285  2.28049183 -3.02794743  0.00797673  0.43687683  0.71462071 -1.46194398 -1.9556998  -1.23133624 -0.75206071 -1.02258635 -0.31167537 -0.92290902 -0.30018684 -1.02012479 -0.19159494  0.31807655 -0.7003842  -2.68836761 -0.19653946 -0.25829881  0.46303111  1.23513675  0.0450466  -0.15606509 -0.38558951 -0.34312415  2.19615817 -0.49158564  2.50348496 -1.9153868  -0.60818809 -2.16876888 -2.42571044  1.82823253
galaxy  0.29278937  0.40676996  0.05854275 -0.07760586 -0.0753734   0.13918144 -0.28858787  0.5031513   0.05129794  0.05639346  0.35523179 -0.40005878 -0.51060671  0.04408032 -0.22890651  0.19900714  0.19355159  0.1689169  -0.51776582 -0.36305693  0.34468287  0.00817702  0.0489689   0.24068409  0.24539344  0.10361896 -0.53082287  0.09405705 -0.23667619 -0.02776399 -0.29502404  0.34870127 -0.04079467 -0.3733584   0.07389347  0.05575329 -0.12959622  0.02705607  0.60422826 -0.54315954  0.15743764  0.19647774 -0.32987741 -0.22161454 -0.54791081 -0.3445611   0.0943254   0.0442372   0.02073304 -0.32026005  0.19794971  0.06171652  0.29896066 -0.06612469 -0.17647745 -0.21688065 -0.0641311  -0.08294331 -0.16000248 -0.07565773 -0.04386958  0.5219453  -0.0475272  -0.63340199  0.05832147 -0.61493635  0.32539371 -0.41074046  0.40442449  0.03303764 -0.46087581  0.16140789 -0.18914874  0.16861188 -0.22229825  0.08335939  0.02927154 -0.38776135  0.11636012  0.28233188 -0.08041142 -0.08745202 -0.17303884 -0.2571083   0.04838041 -0.28709596 -0.18012567 -0.05719716  0.10752512 -0.2990928  -0.33989224 -0.29489249  0.31802154  0.09327483  0.07205676 -0.38248807 -0.11261678 -0.1159104  -0.41399574 -0.00076384
type  1.7869066   0.01952972  1.21408534  1.26940012 -0.81451404  1.71876729 -0.82102978  0.643875   -0.02112332 -0.03426319 -0.55041492 -1.25912642  0.19832414 -0.56333095  0.13703284  1.249143    1.75959086 -0.85695362  0.45816389 -1.29601848  0.10983687 -2.55175376  0.35149583 -1.95208144  4.25406408 -0.94688421 -1.48645604  0.20620331 -0.05579137 -0.47490111 -0.1911018   1.11691666  2.20652008 -0.67163396 -0.43204719 -0.11374789  2.05499148 -0.05733325  0.67008698 -0.95049447 -0.985255    0.88356191 -0.14991881 -0.63516927 -1.09363377 -0.79935372 -0.24506781  2.18519258 -1.07079744  1.2128036   1.60825396 -1.30243504 -3.7382803  -1.51658535 -0.28682142  0.02213458  0.59385043  1.71871686  0.11641071 -0.99888098  1.53458714 -0.11839214 -0.76958829 -0.01029397 -0.86394262 -0.08337756  0.89050376 -2.71405101  1.06955433 -0.06003867  2.02874517 -1.10584819  0.99057883 -0.88917375 -1.77040696 -1.82670677 -1.54829943 -1.83104956 -1.10232246 -2.00676441 -0.63715285  0.01754723 -1.9448303  -2.53891325 -0.36264977  1.41327536  0.0268842   0.85277522 -1.27845788  0.69945335  2.0340662   2.32329941  1.3690064   1.02919912  1.12036872 -0.03931965  0.75472039 -0.38195741 -1.47695434  0.33443391
baby -1.86590564 -0.52830923  1.07733369 -1.24855876  1.98613846  0.62382787  0.14857732  0.44209686  2.04764295  1.89225674 -0.29629815 -3.72032666 -2.01707816  1.25535011  0.0023538   1.1894722  -0.09314416  0.66232634  0.17902738  0.34964094 -1.07599723 -1.82826257  1.7846458   2.03127241  3.08912134 -0.93292201 -0.94431788 -1.6707561  -0.87848908 -0.79807413 -2.43118334 -1.61933637 -0.38800988  1.53671634 -0.77020258  0.25036326 -0.80291301 -1.49449074  2.90329909 -0.68240464 -0.99986368  1.16386139  0.67717028 -0.455145    1.95615816 -0.90764683 -0.26676667  1.14406979 -1.08242488  1.66866839  0.0165802   1.18724298  0.3964307   0.96540147  2.11975813 -1.34619486  1.22522509  0.73093301  0.45458096  1.57901657 -0.18292961  1.570678    0.86781132 -1.86237323 -0.23729533  1.48408747  2.40368199 -2.08933568 -0.10167103 -0.28172371  0.64924943  0.15890878  2.62275934  0.97935879 -1.04695058 -1.45178854  3.22394919 -0.78234416 -1.16414452  1.15682375  0.33880627 -0.00412806  1.38688779 -1.90051436 -0.62841982 -0.10089945 -3.11984038  1.40250134 -1.75144911  0.66966045 -2.08184838  0.75965244  1.77450919  1.26698339  3.59267473 -1.12110066 -0.11640692 -1.21382523 -1.0614351   1.95074999
boxing  0.52115124 -0.23316699 -0.27469188 -0.10686687 -0.52198929 -0.87583303 -0.17630529  0.02205376 -0.2851077  -0.16647953  0.48222211 -0.16904594 -0.71975911  0.75208187  0.15466803 -0.32081002  0.40621662 -0.67593175 -0.22445092 -0.31229627 -0.60391122  0.18724248  0.69511032  0.71906745  1.23393548 -0.15930045  0.34002575 -0.47445405 -0.18114075  0.09397166  0.01390771  0.50174904 -0.33639759 -0.53945452 -0.24486502  0.16129561  0.13828121 -0.17710336 -0.39612335  0.02127506 -0.24319434 -0.41339287  0.49086753 -0.33103034 -0.13130546 -0.12385402  0.24286808  0.32419008 -0.15603361  0.08260089 -0.47711241  0.63267922  0.28982678  0.02945527  0.14627494 -0.08694994 -0.23187357 -0.02159246  0.71208751  0.0908816  -0.72099799  0.37953937  0.79569453 -0.38825801 -0.82030308 -0.3096115   0.00277012  0.13419484  0.84807122 -0.59961963 -0.3228679  -0.16593848  0.54544312  0.00088854  0.50159609 -0.68722773 -0.58189279 -0.24819592  0.35506496  0.36417875  0.41830143  0.03401938 -0.12558909 -0.17685317  0.15028413  0.15241194  0.08623514 -0.37069634  0.01300228 -1.07150757 -0.47622296 -0.68744582 -0.06747926 -0.45818445  0.00025367  0.02149218 -0.03614358  0.14400907 -0.37989753 -0.59463269
professor  2.51720262  3.72298217 -5.50475979 -1.90217543  0.71596372  1.90888941  2.18655276 -1.6003952   2.19504714 -0.62130678 -1.26155758 -0.06770508 -1.85167491 -3.06693029  0.74258202 -2.61427546  3.44020152 -3.29100823 -1.4972012  -0.66467273 -1.07011235 -3.0221386   4.51827097 -0.50483137  1.78848302  1.68789542  0.91082799  0.75288337 -1.44358623  0.3729566  -2.90448332  5.29157639  1.92441726 -0.57470405 -0.23946519 -1.26059127  1.28112876  0.83086479  0.53961414  0.76847196 -0.62041402 -1.00509655  1.62902164  1.64616799 -1.64374292  1.61387324  2.29695034  4.87453842  0.02099724 -3.28325415  1.79763103 -0.46258873 -0.35998464 -0.15943676 -0.12549834 -1.46879053 -1.03989947 -1.73177803  0.66129202 -1.63109422  0.19321778 -0.01254008  2.84165287  0.48574314 -0.42048839  2.23471951  0.64356226 -0.32121474  1.87755585  3.51861811 -1.1286664   3.66443276  5.28815031  1.09074473  0.65831703  1.59976923 -3.5433147  -0.3860293  -0.29103324 -0.24154539 -1.76684558 -1.70962882 -3.66938233  0.07060745 -6.27223778  1.29458249  1.20646405 -4.13344574 -2.11100006 -1.35243309 -3.37518644 -1.39630389 -1.56600273  1.07278895 -0.49404007  1.6663276   2.05741405  0.9459033   1.00553441  0.4515329 
keyboard -0.03307315 -0.1567374  -0.47643012 -0.0464606  -0.6455456   0.28981486 -1.12649751  0.44896176  0.15412864  0.68031722  0.53529102 -0.71045613 -0.3923856   0.60361373  0.68388486  0.14670166  0.6851598  -0.23600237 -0.17944461 -0.09116357 -0.36605287 -0.85520643  0.92971748  0.3231332   0.00879018  0.43048963 -0.80106032 -0.38333711 -1.41224933  0.28026965 -0.42294517  0.04991288  0.33718404  0.32476205 -0.22228988 -0.31373051  0.45468077 -0.47692817  0.51781356 -1.49966049 -0.63029307 -0.25906864  0.17632046  0.71665967 -0.73372525 -0.47321731 -0.58116329  0.6606409   0.49849385 -0.14000939 -0.80743831 -0.25691023 -0.44380116 -0.58932942 -0.16624899 -0.20914537  0.52810472  0.64297181 -0.22904092  0.42508733 -0.09968816  0.3197194   0.10912939 -0.66924882 -0.26312497 -0.09421403  0.68856698 -1.12300122  0.68679512 -0.15473649  0.13861288  0.40389201 -0.06280543 -0.15028936 -0.49120468 -0.63929647  0.22917917 -1.00588727  0.7337833   0.44036052 -0.0321951   0.20988797 -0.44693369 -1.40750563 -0.52771813  0.57011068  0.09238838 -0.11210219  0.21559502 -0.62625623  0.32564321  0.24331479  0.3258208   0.28863183  0.27140716  0.0074749   0.16398223 -0.25674796 -1.6102953  -0.35994744
gain  1.2708751  -1.8950634  -0.67652154 -1.80681419 -1.00074208  0.28865266 -1.37637699 -0.70266348 -0.25035325 -0.37837821  1.17011058  2.73951364  0.58399045 -1.07070494  0.65445811  0.35530698 -0.94577533  1.45220649  2.33610201 -0.18004395 -1.46615398  0.16533981 -1.38303638 -1.51038408  0.41944796 -0.98376584 -2.90869117 -2.66926289  0.52665162  0.68959111  0.30969247  1.29111683  0.23223491 -0.05368083  1.39668512  0.5384053   1.29681671 -0.25384992 -1.4131968  -0.30359042 -0.59960586 -0.15852404 -0.6265859   1.01720858 -0.07059431 -0.47134772 -0.88923764 -0.41168484 -1.1327287   1.07884395 -0.16405354  0.78756309 -0.18688604 -1.33905447  1.99804318 -1.65598691  0.50493789 -0.94333178  1.18229771  1.25736332  1.68372667 -0.41856146  1.30919683 -1.10575628 -3.6763761  -0.33266151  2.11370015 -3.86750293 -2.42733598  0.57938039  0.51389116  1.81609964 -2.42763758  0.51656842  2.08161759  1.08503926 -1.63725495 -2.74005461  0.92076308 -0.87224585 -0.99432039 -0.86243069 -0.20404467 -0.83062404 -0.1797187  -0.93023354 -1.24069214  0.19319542 -0.51766986  1.23405337  3.82072258 -0.66466898 -1.40459919  2.44310308  0.58404422  3.48182631 -0.47924262 -0.68037015 -0.71396202  0.36647227
challenge -0.59932637 -0.40634963  1.07169616 -3.99052477 -0.98035192 -0.13460356 -0.98121041 -0.39634135 -0.21620917  0.05512817  0.14361498  0.96233201  0.97843546  1.94375253 -0.6397934  -0.59096473 -0.6705634   0.01460895 -0.32664838 -0.05698745 -0.7192921  -0.92825854  1.62452412 -0.90873939  0.55006325 -1.52871835 -0.64247763  0.151305    2.46447563  2.3078227  -0.06879559 -0.06930206  0.92710984  1.37711704 -1.16340733  0.19237716  0.94505358  0.45788959  0.09428753  1.46532953 -0.16529304  0.23124309  1.44755638 -0.23444071  1.31679833 -2.55543709  0.62818348  0.95033842 -1.8010143  -1.68451297  3.13180947  0.2859197   0.58137536 -0.46603924 -0.29879457 -2.17488456  1.25320494  0.49336082  0.71413636  0.89843816 -1.45670033 -0.1809736   1.63175416  1.90364563 -1.48920262 -0.58389044  0.79620743 -0.71283722 -0.85193551 -0.15971294  1.23548317  1.86035573  0.91739076 -0.74409235  0.18084674  1.19294822 -2.28526306 -1.3966167   2.0731411  -1.16444719 -1.13567388  1.37513018 -1.63476026 -1.67871535  1.86260772 -1.42111683 -0.23063278 -0.17847107  0.3157095   0.39038846  2.21956253 -2.95316172  0.31350693  0.59151888  0.54678315  0.98051399  0.52512503 -2.22425461 -1.20747089 -1.70409524
airport -0.70623142 -3.0848968  -3.1924777  -1.45514035 -0.62510848  1.57348228 -1.12359726 -1.5281744   0.78616297 -2.78249598 -1.38476145 -1.25009835  2.75579238  0.42690083 -1.83723009 -0.91848373 -1.03849089 -2.02175975 -1.57901835 -2.07243729  0.21339473  0.03334554 -0.01796572 -1.13361716 -3.1819613   0.59074581 -1.41309714 -2.45585752 -1.74941611  2.93144441  1.86389816 -0.4765287  -0.78973716 -1.00607431 -0.09415852 -0.50986445 -2.00635386  0.02726497  2.9797914  -0.7460767   2.93803596 -1.00447559 -1.5259341  -0.24406706 -0.60160875 -2.67344165 -0.08736193 -1.83092558  0.05665037 -1.83756495  0.63001859  2.59836507 -0.59414434 -0.02813947  0.33493379 -1.07377839  0.29063958 -0.54434347 -0.72660089 -1.25415695 -3.0431807  -0.28519818 -1.28059971 -1.33595896  0.17385335  1.69436181 -1.58677149 -0.71809804 -1.99648726  0.20074673  0.9077158   2.05698872  1.97710264 -0.42987666  0.21824728 -0.36629689  2.06081223 -0.60461605 -0.21836233  0.83196467  0.70068443  0.8600834   1.35987651 -1.26186562  0.81451875  1.97069788  0.13717     1.84521627 -1.40091133 -0.74396569 -0.93243068  0.62510753 -2.46427798  2.06838894  0.50373703 -1.93332589 -1.64891815 -2.58849669 -0.99381614  0.75197566
arrival -0.82222944 -2.82804441 -0.44511917 -1.0624001  -0.8163271  -1.11192417 -1.28346133  1.22718692 -1.14960158 -1.68014491 -1.65159845 -2.02147627  0.35000548  0.91721702 -0.64247054 -2.09767199 -1.30876112 -0.35804579 -0.42298156  0.04015359 -0.20464046  1.25921881  0.41337347 -0.01587457 -1.39119828  0.20090745 -1.82293904 -0.51024377 -0.64118671  0.15715674 -0.44743147 -2.06846046 -2.04533839 -0.38465869 -1.67314458 -1.05871737  0.2582877   0.00045387  1.94077063 -0.01459951  0.47469586  0.31692418 -1.09612799 -0.08053605 -0.42385134 -1.86690199  0.52624494  1.55472696  0.54687715 -0.78049332  2.33117795  1.68194139  1.30312145 -0.63678753  0.08562567 -0.44983312 -1.60224307  0.5173673   0.67255783 -0.65889943  0.29836696 -0.55414724 -0.26227891  1.01405966 -0.85735816 -0.81888336 -0.26764765  0.17647219  0.18455026  0.22168373 -0.9752332   0.51530915  1.55439985  0.38883871  0.11362807  0.70396161  0.30540028 -0.72197926 -0.53218997  0.67292076  0.20506123 -0.39756966 -0.4596428  -0.6886701  -0.46762362 -0.1379253  -0.12083981 -0.07465951  0.48547611  0.24480996 -0.64398086 -0.57892245  0.62643474  0.157855    0.40515786 -1.24267423 -0.98974758 -1.38874817 -0.30333185 -0.32085553
Mars  0.71993321  0.02327574  0.05942406 -0.69237506 -0.46456614 -0.00532168 -0.43221313  1.13871217  0.07774831  0.10953376 -1.02679253  0.71736896  0.16716343  0.46290091 -0.27109614  0.77673244 -0.31005627  0.25318384  0.7586866   0.21919355  1.40489817  0.75302041  0.05096182 -0.54748094 -0.7375145   0.93809664 -2.15793419 -0.50983852 -0.84948778  0.60500222 -0.06576346  0.91442221 -0.67996424 -0.8715077  -0.46537769 -0.31318203  0.11893272  0.5310058   1.64412248 -1.51375723  0.76472223  0.44109616 -1.17717826 -0.00170991 -0.58928943 -1.29917514 -0.86202466  1.100263    0.13541536 -0.36027586 -1.09132135  0.0063662   1.00699365  0.1222766   0.45403543  0.11218004 -0.66601819  1.27942967  0.2508952  -0.07801746 -1.10867822  1.0458945  -0.94259417 -0.6514464   0.11453939 -0.04142652  0.1834774   0.05022426  1.5920738   0.16926245  0.14282356 -0.57756078 -0.6492089  -0.29948157 -0.38583249 -1.10434723  0.4761146   0.06671531  0.33460003 -0.16008413 -0.17330278  0.65778065 -0.5138489  -0.67596704 -0.38034901 -0.07455909 -0.35487479  0.9661622   0.74165589 -0.45425171 -1.80106592 -0.54799658  0.84834075 -0.07729436  0.68332869 -0.6388514  -0.34275761  0.4721674  -1.27338791  0.25690719
media  0.51838076 -0.51837981 -4.44309855  0.65789032 -1.83960545  2.20769477 -1.43766165  0.68082196 -1.84580588  0.87782425 -0.76847756  0.15640871  0.90367383 -0.68183285  0.0282448   1.44018185 -0.96384174 -1.53143895 -0.45839006  1.14641345 -1.14635921 -3.09565091  0.68263024  2.7480607   1.445804    2.21175838  1.20897841 -0.40375397  1.00681305  3.0803709  -0.99219984 -0.12438584  0.50972116 -0.6764372  -1.3061806   2.17331505  0.19982517  1.35806704  0.74392176  2.09474206  0.13774069  0.75952542  0.99993563  0.08729417  0.33396602  0.45735836  0.37198129 -0.48507106  2.58596969 -0.34189582  0.54574919 -2.09455895  1.24701333  0.54915243  0.7524001  -2.58263636  0.05970456 -1.6403724   0.69788826  2.05793571  0.94708681 -0.30153763 -0.8757509   1.19752634  0.42788157 -0.1569763  -0.0515357  -1.96958864 -0.49813622  1.64487886  1.43620622  1.33396554 -0.8625415  -1.38103938  0.15256208  1.54869199  0.92366731 -0.80929661  1.16831934  0.10496306  3.41599798 -1.70005774 -2.55587077  3.6465807   1.01582193  0.71054333 -0.44243404  0.89856154 -0.40518266 -3.5971508   1.85224545  0.2509374  -1.72839224 -0.82118142  0.63217235  1.11062741 -2.8306334  -1.49303842 -3.52781987 -2.81155944
feline  0.15207577  0.17614858 -0.01669019  0.08632672 -0.06427578  0.02213384  0.04730222 -0.13697539  0.0547999   0.02830561 -0.0185505  -0.22202314 -0.31816718  0.04465028  0.04508592 -0.043124    0.13057739 -0.01554713 -0.0558909  -0.02002595  0.02902001  0.00116979  0.2456059   0.19134527  0.23704511 -0.00124347 -0.02059132 -0.13747087 -0.31456837 -0.14388523 -0.12012816  0.1866574   0.07167295 -0.00910459 -0.05992895  0.02722735  0.03988881  0.06082797  0.02537226 -0.07249802 -0.15248452  0.21396814  0.00179536 -0.11157646 -0.03183771 -0.10309181 -0.01535769  0.021016   -0.05826144  0.05473138 -0.0071464  -0.01981178 -0.13852212 -0.1334115   0.02149354  0.03540651  0.16857301  0.00883772 -0.16745663  0.0109954  -0.02955135 -0.03138828 -0.01841612 -0.03098236 -0.04317767 -0.05386536 -0.02642375 -0.17968242  0.1771123   0.09642814  0.02989877 -0.11972154 -0.01965323  0.15531759 -0.09895676 -0.07448087 -0.03319426  0.01420599  0.15829256  0.03436087 -0.04936614  0.00579874 -0.13710965 -0.12450378 -0.12205692 -0.13416481 -0.22407745 -0.08073106  0.08612189 -0.07005293 -0.23476163 -0.02914279 -0.18043594  0.02162521  0.08509064 -0.18653098 -0.00985961  0.17994572 -0.02543149 -0.06304319
lobster  0.50939345  0.44507045 -0.22769792  0.25476566 -0.252258   -0.24392733  0.07685103  0.23806426  0.36504969  0.27475196 -0.02395112 -0.71260762 -0.82964301  0.34633303  0.30751136  0.08331846  0.44892865 -0.04206179 -0.057313   -0.3928526  -0.52569503 -0.4338783   0.35754889  0.1196641   0.4955537  -0.06208493 -0.48765638 -0.07056748 -0.425062    0.15046367 -0.36912802  0.03038264 -0.16925623  0.08409092 -0.30010989 -0.22835188  0.06449646 -0.05022059  0.47510299 -0.97002518 -0.26880538 -0.30208984 -0.51194382  0.06946217 -0.16884835 -0.20221449  0.23032266 -0.43108577  0.18334846  0.44928294 -0.79900974  0.04850864 -0.26701227 -0.23585948 -0.08571783 -0.18905857  0.21369082  0.14784633 -0.22337322  0.41817489 -0.25423115  0.22265399 -0.1232577  -0.52026445 -0.11801486 -0.15844759  0.15305603 -0.18570744  0.39615771 -0.33368877 -0.53711468 -0.16425622  0.09218088 -0.00547579 -0.27289629 -0.61518013  0.28303295  0.01722967  0.29622999  0.38489762 -0.16987771 -0.11433991 -0.11221503 -0.57496023  0.1388074  -0.00849531 -0.1398796  -0.08703109 -0.09957904 -0.16667202 -0.10806536 -0.01449315 -0.08806197  0.13138406  0.3028594  -0.26757768 -0.2398843  -0.02733122 -0.57524616  0.15739061
terror  0.28458413  0.46038699 -2.83207083 -0.40452573  0.47607067  0.70656437 -2.697088   -0.54077584 -0.34378159 -0.23849905 -0.29030401  0.85102421  1.67730558 -0.67193705 -0.93148279  0.21446808 -4.56143284  0.60102063 -0.28415325  1.02367818 -0.01383164  0.67179781  0.35576835  1.15804982  3.33909583 -0.46765226 -1.45752645  1.62287903  0.91917741  0.88050646 -0.71719271  0.41474313  0.15447669 -1.82225013  0.06354357  0.89913195 -0.41187209 -0.42278963  2.01638532  1.82313979  0.31124705 -1.5181756   0.57554018  0.77866405  0.35770425 -1.3510617  -0.30935946  0.22590116  0.01238311  1.37639201  3.22405887 -1.76225793  2.08588386  0.51674432 -0.23245023  1.84911096  1.03739214  0.14400525  1.63450348  1.01807046  0.20407553 -1.00571263 -3.54929805 -0.79927766 -0.1158034  -1.11145842  0.08872217 -0.12011062  0.94261014  0.58387381  1.72553992  1.95062149 -0.28622425 -0.61735684 -2.01255488 -0.81787962 -0.58639371 -1.48410058 -1.88629985 -3.12394953 -0.23487088  1.88440549  1.14818025  0.14684904  1.68690503  1.61407793  1.50986469  0.72337556  0.38308635 -1.53171515  0.60998881 -0.16726232 -1.09193563 -0.36446387 -0.27667105 -0.41530553 -0.1792156  -0.56294084  0.05986363 -0.38594592
defeating  0.89053118  0.17822205 -0.12363283  0.11357097 -1.00261867 -1.0309217   0.45865315  0.20890138 -0.28652972 -0.73467439  0.32156563  0.12281494 -0.30976388  0.41881612 -0.46432221 -1.21034014 -0.49844772 -0.30102703 -0.23654544  0.13673007 -1.00627732  0.49696147 -0.63948864  0.58500838 -0.04160576 -0.47703406 -0.12108542 -0.30515331  0.24472921 -0.21986002 -0.11863453  0.96833688 -0.08429668 -0.28077969 -0.42450243 -0.64515525 -0.22154109 -0.02883446 -0.42869782  0.4857541  -0.222192   -0.59281552 -0.12414653  0.04178344 -0.38442877 -0.45962283 -0.06406741 -0.0164357  -0.73110139  0.44828632 -0.38940674  0.62129557  1.04383361 -0.01112122 -0.02578025 -0.07992379 -0.26498413 -0.08490217  0.62151092  0.58378255 -0.29339823 -0.132615    0.07619871 -0.69233799 -0.47975105 -0.52774817 -0.41637281  0.42797914  0.74060923  0.31118944  0.12495414  0.27179843  0.89812315  0.1490483   1.72074318  0.5164361  -1.07375908 -0.18568213  0.4400804  -0.71449775 -0.42096159 -0.00158458  0.09436214  0.26076606  0.37611777 -0.79981375  0.10038914 -0.81369317  0.85940754  0.27745166 -0.00440379 -0.84989625 -1.71053553 -0.94131809 -0.55331659 -0.56756777  0.11964814  0.37562069 -0.0968972  -0.32886675
record -0.18392406 -0.87570626 -1.1630739  -2.03881788 -2.12879324 -2.15880394 -2.4262073   0.80339628  2.90460038 -1.69778454  1.56699324 -1.44902718  0.97214967  1.31473184 -1.01638675 -0.87748498 -2.20562792 -0.61906803 -2.81513786 -0.45121828 -2.63704467 -0.60687637  1.32756078 -0.22913162 -1.25945461 -0.33373511 -2.00356126  0.83281827 -0.74343789 -2.23707676 -1.3804729  -1.69140041 -1.97612691 -1.62926197  0.12843992  1.61476922  0.04623712  0.11007953 -4.35750294 -0.9061414  -1.38913023  0.01018109  1.79850793 -2.6492002  -2.14503145  0.80254948  1.04374099 -2.61074853 -1.23457348  3.2254765  -0.89496344  0.66516316  1.91529059 -3.45588899  0.32064849 -1.26594937  1.37594068  2.40055919  2.31820154 -0.33632925  0.56033599  1.20946395  0.23924167  2.76624036 -1.78528798 -1.38709223  2.70747924 -2.68909836 -1.08014786 -1.39277697  2.57765388  1.87645352 -0.98616201 -1.1529566   0.36994505  0.92213804 -1.85179496 -1.07105136  0.87132442  1.65566564 -0.9218598  -1.80074573  1.14759159 -1.11241305  0.42900199  0.07064449  0.27606779  2.64820266 -0.09849586  1.02190983  2.53342175 -3.45818973 -0.4587703  -0.71088511  0.16567186 -0.12707517 -2.51569319 -1.04625583 -2.35694027  0.51185   
object  0.10700458  0.7841717   0.06372348 -1.1205765   0.4375172   0.41498506 -1.41228211  0.82530797 -0.65664715  0.54829246 -0.00720737 -0.65977472 -0.27754444  0.53241807 -1.21371472 -0.86176777  1.09834337  0.23220986  0.52655721 -0.27849495  0.14792281 -0.30137324 -0.39935246 -0.52095628  0.58300138 -0.30466169 -1.04443741 -0.66374975 -0.12324924  1.02676344  0.15123521 -0.85594207  1.38272166  0.23972139 -0.1516681  -0.19704764  0.57038224  0.10226327  1.75491142 -0.83907932 -0.06244509  1.02940524  0.70554423 -0.0110659   0.5216037   0.11088367 -0.15378812  1.11088216  0.11060648 -0.8377158   0.44277203 -0.28794283 -0.91851813 -0.9067412  -0.28576982 -0.19051981  0.8166281   0.11468051  0.35069859  0.63126725  0.19078907 -0.52075326  0.07739114 -0.99459106 -0.17830142  0.09198748  0.08206385 -2.25626874  0.28227243  0.72267616  0.71358752  1.30460918  0.11576151  1.15895522 -0.1400886  -0.53568697 -0.31056857 -1.24744701  0.0117191  -0.00155483 -0.22153534  0.17465809 -1.41574407 -1.14940476  0.34585911  0.30840176 -0.63433254 -0.39610964 -0.38636717 -0.57204288  0.55933195  0.08453228  0.05666637  1.00109482  0.81303519 -0.71691012 -0.21527441 -1.47492754 -0.47226769  0.48629469
Arafat -0.03113146  0.55651814 -0.20409025  0.00294653  0.28710192  0.28777891 -0.29140458  0.10105844  0.02860648  0.19573796  0.05374289 -0.55091691 -0.4212164   0.04921525 -0.19859098 -0.19690749 -0.07740052  0.12122969  0.06799027  0.06838438 -0.43242124  0.04537957  0.06600336  0.49716207 -0.17363103 -0.28418678 -0.01271614 -0.07385435  0.15560156 -0.12098859 -0.28955486 -0.03590085 -0.31558144 -0.00023884 -0.35108113 -0.1402932  -0.36091122  0.29950318  0.3837581   0.06819063  0.32328317  0.00233946  0.02595676  0.16715375 -0.28413224 -0.60149843  0.0065374   0.17114261  0.06267563  0.16003793  0.54505831  0.1412421   0.38026831  0.23122048 -0.09562898  0.16013801  0.31852484 -0.26864374  0.49098146  0.23193087 -0.13923384 -0.36656517  0.0866363  -0.02724525  0.17028463 -0.43476513 -0.23242499  0.47040144  0.27108827  0.40049428 -0.25212368  0.5563367   0.47249943  0.35904416 -0.09119766  0.11643344 -0.08155958  0.09587231  0.0364731  -0.12951112  0.06399813 -0.04129141  0.32603657 -0.03099946 -0.35310879  0.11583655 -0.5413909  -0.89845568  0.5001598  -0.11391728 -0.37839931 -0.05900227 -0.65360779 -0.03077608 -0.18136679 -0.03792966 -0.2012068   0.2053995  -0.00152721 -0.13206092
entity  1.48631215  0.38973218 -0.15753275 -0.84862942  0.03100175  1.31577873 -1.20206571 -0.50992709  0.28196034  0.31254801  0.85711026 -0.03918264  0.61319786 -0.30773577  0.11270639 -0.44220522  0.72067404 -0.15694667 -0.41862884 -0.5620212   0.86901313 -0.68969882 -0.05287986 -0.4021199  -0.05561981 -0.22992699  0.16679701 -0.25704661 -0.97807181  1.59002709 -1.17476344  0.19987075  1.52530134  0.40590328  0.14194225 -0.80408931  0.8287698  -0.01538651  0.37850827  0.7350322   0.27838135  0.16862716 -0.16569006 -0.10515204 -0.03025635 -0.78923655 -0.07840879  1.23392618  0.29713863 -0.49979877  0.67653692 -0.38267136 -0.45830894 -0.26300362 -0.24878913 -0.46781999 -0.11336273  0.33941165  0.31663904  0.24742284 -0.22068562  0.32945198  0.22672471  0.40873134  0.43039706  0.74744081 -0.03712543 -1.43753731  0.77729875 -0.41689989  0.6150254   1.27445173  0.0403232  -0.44720826 -0.26351485  0.14014146 -0.63047284 -0.55607545  0.75759381 -0.22962569 -0.66367769 -1.05197918  0.46252981 -0.81402564  0.89181876 -0.26172942 -0.65031922  0.20905057  0.26776782 -0.33674407  0.90280789 -0.04062613 -1.13972127  0.40529895  0.03176131  0.01987427  0.30110544 -0.39487869 -0.48389423 -1.33359921
hospital -1.02062809  0.28350082 -2.34093571 -0.74781543  1.16756952  3.48894358  0.42893693 -3.48776484  1.74661791 -1.59736979 -1.20647585 -0.99200696  0.54468137  0.95083588  0.20635673  1.1048336  -0.58343369  0.13467599 -1.39292467 -0.8570919   2.17496371 -1.65819895  3.2760694  -0.98555362 -0.70609003  0.0905098   0.94886082 -3.02613616  1.35833681  0.41887957  1.18532288 -0.10667073 -1.77115893 -0.39320591  0.02367502  1.5475142  -3.12855959  0.25154051  3.73442388  0.15452133  1.27706063 -1.26985085  0.96168894 -1.25848222  1.996997   -4.47643518  2.9560945   2.20530128 -0.74015284 -0.74152368  0.18425064  4.53325033 -1.74157846 -0.16711645  3.29680371 -1.1186136   0.81812876 -2.7341063   1.34100127  0.93997324  0.8359344  -0.15128164 -1.27293622 -1.32556641 -0.37313819  2.50492573 -0.94056672 -3.24858308 -3.00522017  1.32046783 -1.57579637  1.14982188  5.06029415 -1.81776631 -2.04405546 -0.7319482   2.8673749   0.01414528 -2.66519737  3.95489669  1.51828241  1.19919229  1.57117748 -0.75387424  0.34353596  1.68308723 -2.81629872  1.12290478 -2.01700258  1.46719801 -2.37887359 -1.52860081  0.32278538  3.45380831  0.62393665 -0.86610818  0.89807212 -2.58163095 -2.55058312  2.45413947
Wednesday -0.65366358 -3.53847837 -1.5445559   0.08941777  1.6232903  -1.59069157 -0.64626867 -0.01865721 -0.62213933  1.66785526 -2.38122034  1.41940856  4.19872475  1.40298486  0.36781335 -0.97690278 -1.24644291 -1.05068874  1.01484406  1.0913825   0.29504949  1.54375696  2.27340841  2.82807493 -1.00118172  0.22652349 -1.34582472  2.03470755  2.26096702  2.3757298  -2.52883101 -4.15913439 -1.58101952 -4.42528009 -2.46115947 -1.374547   -0.83731639  4.63178968  1.14262116  0.44695419  1.30419326  0.08909182 -0.20687719  2.63093638  0.26376131 -2.02700114 -1.10127068 -0.81668109  0.76992822 -0.20539629 -0.9368915   3.18894577  3.90493679 -0.54562002  0.54283375  0.42391619  0.40505469  1.16169322 -2.44463015 -1.70694482 -0.85515517 -2.9741776  -2.71645021  0.17375219 -0.83178836  1.16029453 -1.34601617  0.6143561  -4.4787569   3.32952642  0.12743537  1.52838647  1.33210695 -1.89060593 -0.08445447  0.59749925 -1.13074613 -1.78725767  0.25426421  1.89923596  0.97096688 -0.37835029  3.21561503 -1.82297039  1.19427907  0.83486617 -0.71290183 -0.70722389  5.11838055  3.18066144 -0.14605857 -1.65797758  0.28794727  0.75923294  0.36895147  1.53753614 -1.76720726  0.19217457 -0.45472687 -1.00625479
line -1.5271039  -0.08032884 -0.14229251 -1.3024044  -1.19927871 -0.44764063 -1.14747036  0.43415353 -0.38200226 -0.66663593  0.37357336 -0.16233966  1.38828421  0.7716555   0.73438674  2.37437129 -0.55585641 -1.49225104 -0.21690907 -0.83206338 -1.75461018 -0.86691684  1.26653171 -0.15740588 -0.07951766  0.49728587 -2.36716509  0.88513082 -0.45734671  2.25374722  0.34142458 -2.3278625   0.25652096  0.03406125 -0.51795602 -1.75568593  0.57242656 -2.12244582  0.43917662  0.59784496  0.80063361  0.11425636  0.44756895 -0.71256804 -2.16136312 -2.8544488  -2.8769331  -0.6398356   0.12085417 -1.2356323  -0.35612679  0.38300121  0.97703016  0.90887684 -2.59675097 -0.50158107  4.06313181  1.53625226 -0.83467203  1.12691236 -1.41757691  2.11670375 -1.36964071 -1.81158876 -1.44684613 -0.36185086 -0.26356646 -3.76696157 -1.30422318 -0.08368555 -1.14050937 -0.20101006  0.39668402  0.40090728  0.87781441  0.92911774 -1.60083985 -0.19147214  1.28417313  0.7316888  -0.26611939  0.59448785 -0.35188287 -2.01163411 -0.46000236 -0.4769882   0.9199096   2.24848223  1.1175853  -0.11804036  1.25237203 -1.52113116  1.19852519 -0.77590013 -0.30953211 -0.05396968  0.55076033 -1.20127761 -1.73039114  1.93027961
eat -0.16554552 -0.04101574 -0.15315948 -1.17409968 -0.02856087 -0.50870013  2.08897281  0.99516588 -0.96799952  0.0818603  -0.67072153 -0.39714232 -2.03707552  2.63974619  1.12132859 -1.36729383  2.36002088  2.36953878  2.26350236  0.61074919 -2.26981568 -0.67528325 -1.35455382 -0.88162088 -0.72424036 -0.69731718 -1.20803797 -0.69135725 -1.45934999  0.97674853  1.2031889  -0.10154688 -0.07535249 -0.02616179 -1.39546144  1.07787657  1.55203855 -2.11403847  4.73292685 -0.8169384  -1.87781084  0.04154273 -1.73440433  0.78101045  0.77150309  1.68668747 -0.39210239 -0.45322853 -0.35118371  1.99211133 -2.71680355 -0.91200519 -3.63664365  0.4237437  -0.45986941 -1.7187798   0.64043736  0.13694894  0.4044891   1.62408817 -0.30892372  0.69536543  0.1454818  -2.40977526 -2.31077957  1.99410295  2.30113387 -2.28459239 -0.26871598 -0.55404013 -1.77476323 -1.12327802  0.36659184 -0.20560685 -2.85013103 -2.76439285 -0.03358393 -0.07106799 -0.18433958 -0.07355858 -0.53937739 -0.73233819 -1.38049614 -2.6174686   0.66095954 -2.43781304  0.3888754   0.28599444 -3.27781487 -1.542467   -0.13512464  1.69959557 -1.16773784  2.87047148  3.38798571  0.80588955 -0.12976103 -2.467556   -0.39007306  1.36120427
decoration  0.34185195  0.07461376 -0.05707381  0.03139815  0.01031204  0.04917515 -0.18675224  0.09148192 -0.01962706 -0.03086825  0.1531444  -0.22837396 -0.3831352   0.19829506  0.05771617  0.02948483  0.06026147  0.10331822 -0.04691875 -0.144757   -0.26920542 -0.08122807  0.29818997  0.0046605   0.17038617  0.0334103  -0.17931345 -0.09794598 -0.28825319 -0.00951093 -0.14618364  0.22950555  0.0741331   0.10601341 -0.18276264 -0.00108136 -0.01860484  0.12824276  0.17860092 -0.30875352 -0.01624157 -0.02514377 -0.21902798  0.09457914 -0.13447884 -0.34052533  0.07063457  0.12090725  0.0243623   0.16240537 -0.008475   -0.01469717 -0.0853649  -0.07784194 -0.01458245  0.03408551  0.23033118  0.03105663  0.06045711 -0.13198265 -0.08547588 -0.07711367 -0.03992446 -0.23968987 -0.15923946 -0.12250808  0.04913807 -0.08624125  0.13920791  0.09406856 -0.0819096   0.10293311 -0.07656143  0.05306414 -0.25705266 -0.21365088 -0.11110209 -0.08427247  0.13495545  0.15523428 -0.05406059 -0.0276091  -0.11070383 -0.03073042  0.07326965 -0.08263141 -0.24188854 -0.16886534  0.12046465 -0.19079204 -0.23659053 -0.06860091 -0.1549949  -0.14431016 -0.02709733 -0.03509594 -0.04226869 -0.16905034 -0.30473271  0.03991741
school  0.34575045 -0.68546396 -1.49462771 -1.62381446  2.53877378  1.78719366 -1.45137763 -1.43150711  2.63965917 -1.75364769 -0.27776554 -1.282565   -1.22475493  0.95365155 -1.16995692  1.71772099  2.33292174 -1.34679461 -2.03510761 -0.81292784 -4.52366161 -1.03158653  5.01780176 -0.83063227 -0.29064682  3.33482981 -0.73727751  0.50502485  2.85907388  1.26311982 -3.95117211  0.83510149  0.59272081  0.87439281 -0.37562406  1.28301263 -0.79530865 -2.39675689  3.43656945  2.8845098  -0.3455188  -0.72676641  0.90534079 -2.02682328  0.75118691  0.9017086   3.40800214 -0.76783496  1.0927012   0.78818655  0.32200316  4.13144398 -0.61891276 -0.25349486 -2.25901294 -3.63391113  0.4520821  -2.25645399 -0.09780504  0.04715    -0.72074258  2.41740751 -2.65538669 -0.9736616  -3.14953804  2.93338943  1.32034564 -3.01426601 -1.7181499   0.34742227  0.02922434  2.47934389  2.20709753 -4.0652442   0.74904913 -0.65664977  1.13146353  0.34896141 -0.18278664  2.07045293  2.61489105  4.85733509 -0.00517715 -0.58956271  1.36820543  0.96881694  0.28592986  0.06940472 -2.52498078 -0.49836683 -1.26804852  0.013532    2.23261213  2.78054833 -0.14454834 -0.37102944 -0.53338701 -3.19211173 -2.35201073  2.42417812
kilometer  0.23918027  0.02587833 -0.01683892 -0.05568434 -0.28659195 -0.15298718  0.13664396  0.05288877  0.18062142 -0.33995345  0.09708324 -0.32071546 -0.07895736  0.02537894 -0.22767816 -0.02291413  0.29494458  0.02934285 -0.10186456 -0.23478754 -0.0283864  -0.17654046  0.21028849  0.06605253  0.00358553 -0.08062186 -0.09338348 -0.15717356 -0.27664807  0.09213401 -0.04218379  0.32226527 -0.11790241 -0.23988512 -0.08930091  0.37610042 -0.04745812  0.11086012  0.19261225 -0.56307524 -0.27469954  0.0931218  -0.20245588 -0.0759393  -0.4042125  -0.67841542 -0.23954026 -0.24661773 -0.14967178  0.1452391  -0.41646692  0.03500408 -0.29395583 -0.09326343 -0.00206724 -0.09727927  0.06640375 -0.11712386 -0.17502125 -0.19236247  0.35341603  0.06506242 -0.20985802 -0.36230749 -0.11747935 -0.16072755  0.17881587  0.01039186 -0.00472314 -0.05772408 -0.12332173  0.11693649 -0.13054383 -0.02986564 -0.04633186 -0.00484387  0.13188335  0.09717266  0.03080648  0.03145787 -0.28448579 -0.1118556   0.25095093 -0.27426127 -0.18680999 -0.15711245 -0.26300967 -0.09105305  0.41896874  0.34621403 -0.25982377 -0.07379889 -0.09731699  0.19417275 -0.02496718 -0.10865967 -0.14712064  0.03316899 -0.40830094  0.20327491
Maradona  0.18333767 -0.1748461   0.16898771  0.00281843 -0.09280378  0.05891985  0.06651334 -0.26013219 -0.11386426 -0.47049025 -0.32470828 -0.18398871 -0.48700172  0.39742598 -0.05784493 -0.4871147   0.23482734 -0.11267396 -0.41062301 -0.2706975  -0.42892247 -0.56108552  0.12031791  0.01265938  0.19154146  0.04138832 -0.300457   -0.57684529  0.44870323 -0.14771464  0.12415584 -0.0772279  -0.1739608  -0.13176455 -0.496887    0.16999385 -0.0490422   0.22216295 -0.34865105 -0.16405883 -0.33957765  0.04295443 -0.08045409  0.09345621 -0.07398716 -0.41118014 -0.07331159  0.07663608 -0.23229294 -0.54814118 -0.06811365  0.38915753  0.35248509 -0.23450889  0.42396483  0.00846269  0.42312455  0.1256754  -0.07006229 -0.44039679 -0.55629504 -0.04890152  0.1789737  -0.53093499 -0.19245045 -0.31452477 -0.23204771  0.03738162  0.81830579  0.36755559 -0.06332278  0.25746375  0.11084673 -0.16734867  1.04491413 -0.1259317   0.00460695 -0.26192257  0.21330501  0.20375784  0.1195823  -0.08553576  0.12158579 -0.14990151  0.01355311  0.41493762 -0.14057183 -0.43376902  0.48606685 -0.18907161 -0.0129841  -0.20936213 -0.81502795 -0.27580836  0.26173991 -0.37673461 -0.39224166  0.12133846 -0.32444203 -0.23027791
organism  0.39774573  0.40673634 -0.08894189 -0.14698894 -0.08116113  0.18222794 -0.0084109  -0.10069518  0.26075324 -0.0317802  -0.1205956  -0.34710944 -0.20803629  0.1060814  -0.04621753 -0.0169348   0.21305148 -0.1838724  -0.1244897  -0.2300114   0.03075181  0.15237759  0.12715705  0.07859305  0.29821584 -0.16100498 -0.27508879 -0.0054443  -0.23589133  0.1432433  -0.20371132  0.10912409  0.05432763  0.08960029 -0.07660359  0.09356906  0.0730774   0.0329083   0.37007293 -0.46300659 -0.03603091  0.24175982 -0.17323554 -0.11519174 -0.12217796 -0.29035133  0.16349021  0.22406301  0.02304279  0.04509398  0.03992227  0.0073634  -0.33978087 -0.26356107  0.0499035  -0.00903383  0.1731914   0.30486834  0.10784821 -0.00151485 -0.16368929  0.02555076  0.07575088 -0.14733413  0.05661868 -0.02597592  0.06924779 -0.40346587  0.11964829  0.14631988 -0.04509022  0.15517037 -0.20218424  0.02338173 -0.06460004  0.0665672  -0.12317047 -0.21941049  0.1034884   0.11399441 -0.15492557 -0.00380207 -0.02073902 -0.12059721  0.02229732  0.08293827 -0.31937152 -0.30340096  0.13462663 -0.13342223 -0.16948885  0.0050898  -0.16557311  0.11206844  0.2331828  -0.12627397  0.20756742  0.00541637 -0.08075304 -0.0693626 
plan  0.57249546 -1.61494613 -0.44538769 -3.13965416 -0.61384743  2.19802928 -2.68308949 -0.40167636  1.12884343 -0.74403787  1.60320938  0.30676711  3.82211423 -0.66009253 -1.92142034  1.34862018  1.35051453  0.31883824  0.93810993 -1.10213244 -0.4935244  -0.74275339 -0.88440752 -1.51507342 -1.18935883  0.57351452 -0.53508604  1.61582565  1.42035258  0.75869542 -2.23427749 -3.50751519  0.13947937  2.81198549  0.55599004 -0.43294254 -0.79291177  0.77617097  2.9981904   1.9523896  -0.96902651  2.73629999 -0.67013586 -1.86556709  0.00614238 -1.37634456  1.74210382  1.83221591 -2.08121204 -2.36620522  1.88985181  0.89677995  1.28812778 -0.32775077 -1.80264771 -0.93399006  0.32889542  0.48361862 -1.86966658 -0.06713039 -1.80867589  0.81321323  1.89733768  0.76727468 -2.81911683  0.69314438 -0.72092766 -1.22374845 -1.56538022 -1.28912091  2.94575548  2.90233564 -2.13670516  0.40920156 -3.51412916  0.65743881 -1.66694558  0.8757838   3.42784524  0.50098574  0.21976277 -0.53076535  2.01258183  1.08229566  1.83875501  1.45461321  0.14814222  2.24911785  2.02810311  3.32321382  1.96017778  0.2083656  -0.13844612  1.86339724  1.29291391  1.35494745  1.68378055  0.18953881 -1.98592257 -1.59204805
mouth -1.62891912 -0.68086213 -1.06308067  0.53066361 -0.79812264  0.7933988  -1.62084043  1.00368214  0.04748407  0.53981274 -0.81410474 -2.1410861   0.29006225  0.88658899  0.80243629  0.17830174 -0.07672194  1.29621935  0.32283217 -0.09696135 -1.21234608 -2.03855896  0.65468651  1.42793512  0.38241956 -1.83427203 -1.47925651  0.42735437 -0.37386909  0.51068574  0.03308389 -2.56908941 -0.55366051 -0.38856855 -0.25502408 -0.2859737  -0.54245901 -1.10465097  1.87052441 -2.25417495 -0.05713828 -0.08441775 -0.06196665  0.60106659 -1.14671969 -0.78736472 -0.37054765  0.06424749  1.08307147  1.77056849  0.57954705  0.54382765 -0.73796213 -0.37552911  0.15587558 -2.17888141  1.12646377  0.42115417 -0.96183389  2.43889904  0.69339222  1.04902148  0.95795923 -1.42630291 -0.80548793 -1.14120471  2.04028463 -1.68894589  1.03876305 -0.56163228 -0.61966276  0.06341185  2.10608482  0.67148346 -1.14765298 -2.35465693  0.80768156  0.26258409  0.08470723 -0.14449783 -0.5290941   0.94730067 -1.10443151 -2.78466535 -0.13765447  0.43867564 -0.19639525 -0.72975504 -0.51487237 -0.61156595 -0.55335987 -0.24828011  1.58773363  0.95869541 -0.34758469 -1.96878672  0.23207353 -1.82661545 -1.41902876  0.51495999
Palestinian  1.46679008  3.96156096 -1.67745137 -0.42650291  0.69238132  0.64451408 -0.42326492 -0.52191287 -0.25492764 -2.28161144 -0.03351125  0.50736815  1.39667666 -2.29892898 -1.50814235  1.17442727  0.02484525  1.20374632  0.6632874  -1.43714118 -2.19986439  0.64487243 -0.49578905  0.30335572  0.8015973   0.69163316  0.60647148  0.39039579  1.97183239  3.52629209 -0.71708661 -0.95532697  2.38392448 -0.04173142  0.08834132 -0.01079476 -2.25082731  0.2383889   2.93239307  3.0286243   0.25801146 -0.73425794 -0.40859661  0.41785136 -0.75882101 -2.41803765 -0.36662444 -1.05423975 -1.51697361  1.40344274  3.26770544  1.46357358  3.15520263  1.34853184  1.10311031  0.23388517  0.61188352 -1.65628624 -0.26221216  1.63412285  1.21131957 -1.55815566 -1.86730242 -1.24412513  1.49801171 -2.08135509 -0.87934214  0.8379699  -0.30268317  2.11652088  1.31206572  2.20463252 -1.31034589 -0.03992869 -2.1313467   1.54441857  0.14839582 -2.05891085 -0.77708018 -1.52860212  1.66587198  1.47778034 -1.43988478  1.61188591  1.01023448  1.59738636  0.13509832  0.03839768  1.59530997 -0.27206349 -1.37177885 -0.43336925 -1.83219492 -0.98368996  0.44030693  1.60354733 -1.74952781 -1.36420274  0.22534223 -1.63909113
evidence -2.04101968  0.62957925  3.27540231 -0.90152633  2.24810886  1.62295401 -4.22300434 -0.5139721  -0.41387051 -0.64429992 -2.13323355  3.0200181  -0.94102615 -0.07826404  0.77458078 -0.9826768  -4.87135458 -0.25723925  2.84073567  0.87233377 -0.09872222 -2.18250489  2.9549849  -0.7287578   0.93252301  0.89737165 -2.0493176  -1.73477578  1.13804948 -0.35039076 -1.15688765 -1.15873969  3.08021116 -0.00246585 -0.89290106  0.75933427 -1.10729158  2.51719427  0.32952309  1.69236219 -0.09506861  0.69750857 -0.62909967  1.02430809 -1.66548252 -2.98987794  0.82519883  2.59078765  0.72037697 -1.2173351   5.47142553 -3.26005363 -0.64047986 -2.69995618  1.88923526 -3.6862421   4.10084724 -1.40073216  1.08300507 -1.67980325  0.25534195 -1.87974894 -0.43748042 -0.19540252  1.77454066  0.34190533 -0.64907742 -4.55697441 -2.51859879  0.28767937  2.02963305  0.30885905  1.16975188 -0.47319213 -2.86343503 -1.4690237   2.4785037  -2.42855835  0.57951838 -1.10480475  1.33965027  0.3604387  -3.54805684 -1.1066879   0.02332237  0.37917724 -0.98748529  0.53312325 -0.87342054 -0.34790698  1.06498134 -2.26043653  0.87690759 -0.33941436  2.15860963  0.15086752 -0.24319871 -0.36947316 -1.60648429 -2.66253114
competition  0.75992644 -0.88255328 -2.0168643  -1.53575337 -0.96045601 -2.90816283 -1.39483082  0.11047265 -0.3550598  -0.49174586 -0.11114343  1.05145621  0.81494719  1.81522048 -0.38947961  1.57842004 -0.68148172 -0.47261041 -1.19845343  0.72226697 -0.04538596 -2.04178143  0.88892424  0.44671577 -0.50630742 -0.04752797 -1.57530808  0.33147812  0.1299473   1.77348542 -1.72272503 -0.09833252  1.90469563  0.71071416 -2.19909525  1.05261171  1.42541587  0.64263642 -0.90336287  3.09491348  1.132967   -1.42180991 -0.48932487 -0.87401074  0.89655697 -2.08115411 -0.23863688  0.73105192 -0.38384461  0.38255081  1.00908136  2.21747541 -0.11517633  0.45753792  0.23849729 -2.25655055  1.42390013  1.30593967  1.41525733  0.19234775 -3.09232306  0.3031891   0.42572305  1.69859302 -1.72740543 -0.28321558  0.99181437 -1.22603655  0.26062235 -3.00545931  0.86753482 -0.99262446 -1.39974427 -2.00752878  1.80421126  1.19665158 -0.54034764 -0.1864749   1.00250196 -0.08468711  0.0041688   1.11515939 -1.94722426 -1.06037807  0.52431065 -0.94257182 -0.92123568  1.08933592 -0.54355031 -1.14990723  1.47485566 -0.20193405 -0.21259211 -1.21128631  1.07281411  1.65259862  0.9403007  -1.37494385 -2.83053827 -1.81883073
number -1.55658209  0.82815677 -1.73854971 -0.19601925 -0.20781551  1.03978455  2.34440804  2.77586412 -0.6479336  -2.38331509 -1.25907779 -1.51407671  2.59718704 -0.52471817 -1.9690392   1.48374474 -0.79192412 -3.05635929 -0.16519997 -1.78939486 -1.22027612 -2.8277595   2.31401658 -2.43920183  4.03084421  2.43567562 -3.35086775  1.14002013 -1.70725286 -1.19756067  0.40533563 -0.77877295 -0.27657798  0.3187297   1.02885056  3.52628541  1.49205709 -1.10298061 -1.00681233  2.57391977  1.2291013   0.59805745  0.75446522 -3.47506166 -1.34371352 -3.90536118  0.59460849 -0.51283252 -2.56113029  2.93339539 -0.75792634  0.47743893  0.50136328 -1.66378152  0.60708845 -0.26412824  0.15886483  4.14540243  2.98527551  0.04079524  1.4521426   0.91904557 -1.33751667  3.55893993  3.38654613 -0.79775918 -1.44556475 -4.0052433  -1.97306967 -1.63814151  0.83315361  0.04250012  0.11091926 -2.09480715 -2.56839848  1.34044135  1.38956571 -3.06546998 -0.37531456  0.23126684  0.89127654  1.33777344  2.110847   -1.29813969 -2.60149884 -1.67963433 -0.77860481 -0.19563222 -2.06140399  1.89852023  2.93318558 -1.4851805  -0.57529336  3.40227175  1.30740547  2.46736145 -2.33113384 -3.95757031  1.10629189  1.49582434
sprint  0.31526154 -0.65935445 -0.27512646 -0.52983421 -0.82887781 -1.10630572  0.19587955  0.67438692  0.24109298 -0.22510196  0.70701844 -0.13131975  0.13228215  1.20610344 -0.27269828 -0.79652435  0.06986189 -0.42343572 -0.41315317 -0.09908135 -0.50063759  0.27597868  0.67541593  1.14489174  0.02125765 -0.01271467 -0.34244761 -0.69925368 -0.13426216 -0.37901679  0.7630797   0.24669963 -0.43543443  0.00500152 -0.63379198  0.02410457 -0.05939889 -0.00925784 -0.30226907 -0.14265274  0.48619238 -0.3058404  -0.01595051 -0.42422616 -0.34657976 -0.54329062 -0.32484627 -0.51065308 -0.78295249  0.31746939 -0.60958737  1.11062157  0.04619446 -0.11134063  0.06904349 -0.05681947 -0.06110128 -0.05028195  0.76617467 -0.10076371 -0.42425641  0.3161177   0.36404938 -0.46780083 -0.70868546 -0.96782684 -0.09956177 -0.04862687  0.79641908 -0.53940445  0.22956666 -0.1948099   0.64774883 -0.13876928  0.88413209 -0.03579621 -0.64797747 -0.77799147  0.41832098  0.73175281 -0.08862875 -0.07181046  0.17766283 -0.51707745  0.07708134  0.20811376  0.25430807 -0.66862237  0.23170391 -0.22859287 -0.06636548 -1.17758858 -0.24587545 -0.77370822  0.58247912 -0.4335753   0.24631798  0.00479478 -0.85802406  0.06894509
payment  1.10575962 -3.97262669 -0.43570894 -1.24647629 -0.00233299 -0.01377252 -2.02427077 -0.75989902 -0.71777058 -0.14250578  2.26275754 -0.76148343  2.44569945 -0.34805501  0.54690361  2.0244205  -0.3070913   0.74771005  0.44643745  0.16919725 -1.42201412 -0.8198759   2.12357569 -2.57787418  0.03838985  0.82804269 -0.97887248 -1.17255402 -0.22683537  1.30246556 -0.72791189 -1.8680706   1.95445049  3.03596592 -0.50056487  1.0371629  -0.10072835  0.74064708 -0.96648574 -0.89750791 -0.63763469  0.19421597 -0.16386248  1.30037498 -0.69295108 -2.2928319   0.57550949  1.92657661  1.44287443  1.62684906  0.73354536  0.56944734 -1.23936045 -0.50630301 -0.09134522 -0.44061181 -0.46988314  1.09903049 -0.69203168 -1.56010163  0.71362269  0.88586622 -0.75427419  0.94895196 -1.0135237   0.82505822 -0.26901063 -2.39737725 -1.21008813 -0.98229313  1.23974228 -0.12224593 -2.62216568 -1.29997575 -1.4912535   0.52219474  0.19123001  0.83004183  1.1518774   1.26505148 -2.72804379 -0.95862347  1.34996879 -1.17568386  1.12179422  0.15026386 -1.72690308  1.41186786 -1.47905111  2.60037565  2.42732477  0.75569183  0.15921356  1.2608825   0.90018976  2.30003166 -0.14940535  0.28125715 -0.75277328 -0.10663853
discovery  0.51960456 -0.85642135 -0.47729138 -0.9194507   0.22533803  0.15200153 -0.18008165  0.94646478 -0.33212733 -1.05556703 -0.89309353 -0.99232656  0.27962077 -0.27564782 -0.83712035  0.46189502 -1.03183937  0.24952424  0.63909608 -0.78722942  1.20422029  0.07274642  1.80739594  0.04946512  0.63701016  0.04738373 -1.04030752 -1.29406941  0.08804027 -0.48354152 -0.47398841 -0.98651922  0.31129205  0.40236947  0.64830244 -0.27279991  0.91458648  1.25957668  2.12678003 -0.36745018  0.2516855   1.56422102 -0.13117345  0.05641498 -0.42560688 -1.15975451  0.7038787   2.04342294  0.48334032 -0.57791442  1.98720586 -0.29565153  0.56000966 -0.43648103  0.89795041 -1.66425514 -0.66903317  0.31572756  1.33169973 -0.99307704 -0.58971602 -0.08966966 -1.53696847  0.29503849  1.28502727 -1.06181836  0.18966188 -2.21409702  1.02270389  0.03414761  0.33470428  0.57392979 -0.01222228  0.36385989  0.19742452 -1.53300428  0.36957246 -1.59909201  0.06210688  0.5654453  -0.09502991 -1.25842905 -1.41190779 -0.83824998 -1.62859416  1.5819962  -1.37681305  0.0103443   0.27387351 -0.02388312 -0.01615269 -0.03938166  1.7477392   0.33429405  0.43359193 -0.37735042 -0.28386271 -0.93271929 -1.671471    0.32635266
woman -4.04760838  1.5306282  -0.57235837 -1.4921422   3.58448315  1.25638497  0.63106799  0.06292766  0.87373024  2.82022858 -1.75104284 -3.80250287 -1.23808682 -0.42805871 -1.05104733 -1.00749898  0.52792329  0.52160871 -2.97540522 -1.80622184 -0.28942186 -2.11980844  4.94416142  2.83960867  4.33552217 -0.86968273  0.56193405 -2.66319799  0.91595924  1.24832857 -3.06820369 -1.17786121  2.5976963   0.82350308 -4.51825809  2.78500748 -3.68722224 -1.02666557  1.76079714 -0.80814624 -0.20976998  0.82354766  1.34676099  0.10428219  0.75631368 -1.5516603  -1.14578056  0.33177245 -0.76920301  1.44251597 -0.18515906  1.35833585 -1.18659604  0.29991651 -0.19156043 -2.0706625   0.62229747 -0.39482293  3.12463021  2.74744058  1.15269828  1.35939646 -1.09733284 -4.47716618 -2.02679992  1.5350709   1.21138906 -4.03960276 -2.25029826  0.64864618  1.58289123  2.60373116  4.16006374  0.89076877  2.05157924  0.03784617  0.80903137 -2.32834625 -1.15049005  1.0287019  -0.05110516 -0.21936415  0.65737975 -1.92298269 -2.43000174  2.89518857 -2.32570982  0.83198476 -1.11168921 -1.2566824  -0.93353516 -0.31142038  1.12264299  1.84517527  2.58324051 -1.41649055 -0.94861656 -0.94262314 -0.61196095 -0.6652205 
place  0.67807519  2.88058615  0.44242945 -1.16198802  0.16909844 -0.12063305 -1.97171545  0.92696315 -2.17128015  1.08135211  1.95703244 -3.74061966  1.27009141  2.6547029  -1.78007102  2.52053285 -2.45982838 -2.57473993 -0.86311239  0.50720519  0.55244899 -1.47854102  0.26789349 -1.82732856  1.1923914  -0.56591523 -0.43017748 -3.19270587  0.05998105  1.46039975  0.4406656  -0.56051713  1.45869827 -0.32377282  0.12326729 -1.95354521 -1.9445703   0.22533856  2.05311704  0.57362014  0.81150544 -4.10201359  0.0169629  -0.06436394 -2.43329597 -3.97491837 -0.80108333  0.29257834 -1.50129199 -1.19136536  0.79287082  3.816679    0.55380756  0.01886149  2.40546656 -1.01498699  0.89442641  1.26126063  1.80438149  0.91921413 -2.3935771   2.15464544 -0.60645747 -1.06325221 -3.28472924  1.34419274  1.15233064 -3.03111815 -0.67386216 -2.50563121 -0.14825043  1.90628827  1.92781174 -0.64268267 -1.64607835  0.26758146 -0.28848493 -0.67746401 -1.44675136  2.19854069 -1.4187454   2.9640522  -1.78874707 -1.56541109  1.80473757 -2.27728105  3.3622787   0.89409435 -0.85980177  0.97751236  1.97009194 -2.02048016 -0.52501959  1.38204694  0.88474184 -0.98040205  0.4113816  -0.88292253 -0.40107325  0.28432056
medal  0.908705   -1.79774714 -0.27676463 -1.40599048 -1.29147148 -2.84578133 -0.13342121 -0.10326598 -0.14065598 -0.23749632  1.92219985 -2.42329693 -0.10428695  2.07164574 -0.9451912  -1.86928928  0.34075215 -1.51752591 -0.75610477 -0.70152926 -0.59519702  1.28759372  0.51062697  2.24637461 -0.33881208 -1.78023708 -1.60052407 -1.93357706 -1.33004832 -0.7775405   0.61193186  0.34885529  0.97171837 -1.05538273 -1.8293829   0.64468741 -0.49196842  0.00895245 -2.10165024  0.81374323 -0.00084475 -1.1539104   0.00412252 -0.97965342  0.11446086 -1.43037772 -0.70689034 -0.21386527 -1.86014926  2.99286795 -1.18211687  2.78322387  0.18973388 -1.05859864  0.93477309 -0.74159628 -0.91759372 -0.47533581  2.81137776  0.38797286 -2.09888387  0.82421005  1.60165405 -0.38379321 -2.21469498 -1.64387357 -0.26533616 -1.62406266  1.52295315 -1.94474232  0.27053434  0.54231536  1.99048281  1.0061487   1.13522148  0.25581393 -0.71375442 -2.5674777  -0.37151581  0.79685515  0.18232647 -0.37914398  0.53832799  0.25311813  1.23147166  0.46926165 -0.29499125 -0.88277793 -1.63074124  1.00870609 -0.36820304 -4.8099122   0.19882846 -0.16629688  1.93684745  1.16474426  0.78978014 -0.27817646 -2.531322    0.41164935
party  1.98375404  1.66364801 -0.45773605 -1.08032858 -0.38830632  3.36914635 -3.13924527  1.21715128 -2.28158903  3.29338408  1.80622458 -2.36500454  0.85486245  4.02891827 -0.88792562 -1.07152629  1.53330112  0.64100385  0.58263254  1.38685668 -2.39105392 -1.89139104  1.0680635   0.88097268  0.30349413 -3.10997081 -0.99442518 -1.22973979  3.00238776  3.14848614 -0.22438818 -0.45804006  1.04762757 -0.70420772 -0.68917847  0.65474582 -0.55953532 -0.75564891  0.55625618  2.06984425 -0.03859248 -1.59340215 -1.71720791 -0.48042086 -0.87504572 -1.57779181  0.77099407  2.25536299 -0.635382    1.1031009   6.0928607   2.69692945  2.72412467 -1.04450059 -2.59786344 -3.73747444  1.37854683 -1.99138153  0.55456984  4.17444324  1.17783344  0.03066956  0.54883868 -0.42891756 -0.98986447 -1.24738657 -0.03995166 -1.79128027 -2.93252254 -2.3776226  -0.66229987  2.12458062  0.79952526  1.44494772  1.95005929  3.38549972  1.71050727 -1.84271038  3.43966651 -0.07398441  2.6879046   2.90782356  0.51923078  1.07229376  1.87007225  0.12959823 -0.91277879 -0.38287771  0.01729052  0.25801584  1.41952205 -1.08063245 -0.93521625  1.2649976  -0.23862857  1.21111476 -1.61281931 -0.96848154 -1.38287747  0.196979  
crew -1.56912804 -3.00332737  0.33725804 -0.66139221  0.53294235  2.62112546  0.86975306  0.18989056  0.98767138 -0.8072868   1.07076895  0.06805705  1.25560987  2.28717566 -3.52340269  3.61498857  1.06490481 -0.68994421  1.15583694 -3.97160077  0.76609552  1.24368238 -0.47844037  0.3010627  -0.1167183   1.42111385 -1.25076163  0.22380129 -1.21592045  0.43747735  0.73320371 -3.84719253 -0.9063834   0.58704823 -0.74269915 -0.54046631 -0.29126343 -1.79758191  3.45652723 -1.41617405  0.40796086 -0.0732873  -0.71321177  0.96623743 -2.17501688 -0.48383951  0.02181819  0.06035408  1.47071207  1.5449084   1.83739555  2.87577581  1.938905   -1.27879596 -0.72357219  1.24345732  0.20160036  0.1483663   0.97440565  1.50921285 -0.08029527  0.04835078 -2.05339026 -2.11529183 -0.60604924  0.23172988 -1.57076442  1.27579641  1.84286892  1.89179456  1.82502961  0.35300192  1.46025753 -0.35330626 -0.92599863  0.0296081   3.30376673 -0.43749297 -0.64316481  1.60129035  2.58400226  0.06970886  1.26675427 -1.206146   -1.33269846  0.22063114 -2.2078073   1.7055763   1.97053361 -3.26079106 -2.08856249 -0.47934595 -0.04167972  2.71401596  0.58829933 -0.26549572 -2.63748717  0.26781315 -2.2153976  -0.33680633
motto  0.29765043 -0.0533504   0.23553686 -0.39138746  0.12420212  0.15247509 -0.8359977   0.25721276 -0.69676971  0.12126158  0.0946511  -0.82517636 -0.11666036  0.12424996 -0.03702175 -0.06252315  0.35149932 -0.17713082 -0.22682451 -0.13835172 -0.02146864  0.03965841  0.50611764  0.09961031  0.69601399 -0.0124411  -0.38585138  0.18996048 -0.45163155 -0.05714133 -0.55363417  0.20015649  0.0473882   0.02111201 -0.01919727  0.36110625 -0.22306345  0.10661795  0.91243899 -0.44514069 -0.41865897 -0.11433858 -0.33813992 -0.59995133 -0.35904914 -0.14865765 -0.00735235  0.27989599  0.23076271  0.32497177  0.45411727 -0.23804514 -0.00879199 -0.33170789 -0.26541871 -0.37198034  0.16313928  0.18465625  0.21603473 -0.3831985  -0.27958533  0.49240032  0.22984448  0.28218377 -0.4563731  -0.23980451  0.22472258 -0.11166175  0.4931283  -0.48567683  0.04928985  0.64240336  0.5572145   0.33274707 -0.17483746 -0.23587745 -0.15427186  0.06988866  0.31273088  0.18298638 -0.27246943  0.09644192 -0.12335072 -0.22033051  0.55963969 -0.19366218 -0.49468181 -0.08209674  0.28864107 -0.20164676 -0.25897825 -0.04212158  0.12188961 -0.13273315 -0.05753638  0.09114084  0.10070228 -0.33103848 -0.68253183 -0.18350261
library  1.20388186 -0.97869337 -1.49204481  0.00722011  0.06085673  1.89038444 -0.9510628   1.00710106  0.19049028  0.39807203 -0.24792056 -0.65934443 -0.50990486 -0.41466305 -0.91439766  1.42419612  0.06167851 -0.64467192 -1.23737264 -0.34862685 -0.82246184  0.20136173  1.79048741 -0.07055306 -0.06490359  1.81331408 -1.10330606 -0.43445671 -1.79262567  0.67942393 -1.06002223 -0.12736814  0.52172065 -1.4961859  -0.24014346 -0.27613798 -0.25391579 -0.92842913  1.19457161 -0.43160659 -0.28815159 -0.72869551  1.15176737 -0.6898073  -0.8804186  -0.52775061  0.53846455  1.62930715  0.63251215 -0.71448463 -0.37955564  0.36515987 -0.45508179 -0.1712724   0.56248534 -1.09836984 -0.47464111 -0.73008031 -0.43546051 -0.78249675  0.30664423  0.27245817  0.09200373  0.15025368 -0.49288514  1.08503687  0.4729473  -1.82226527 -0.18298726 -1.10494149 -0.70852816  0.17442714 -0.11830328 -0.79916924 -0.13172567 -0.85907739  0.3387922  -1.27547371  1.68527949  1.70264924  0.96514356 -0.0453849  -0.60437036 -0.56703538 -0.72233427  0.70983446  0.21754605  0.4095172  -0.46068171 -0.7371437  -0.1270048   0.46282339  0.62772918  0.48388386 -0.20174474  0.46868518 -0.1136417  -0.18821079 -1.15489805 -0.26489875
gender  0.11913682  0.65718096 -0.58737123  1.42661417 -1.33915281  0.58572608 -0.51771021  1.04388642 -0.32264099  1.29202163  1.04844403  0.06517977 -1.34309268 -0.22421846  1.15079939  1.93337333 -0.17169091 -0.74803507  1.01459002  2.09447742 -2.30184603  0.17359164  0.03902769  0.42217949  2.60963392 -0.55576718 -0.2824055   0.88131756  1.35120785 -0.1131136  -2.13838005  0.65537965  1.01331282 -0.74072301  0.9639883   1.69225419 -0.74068946  0.32024527  1.0187068   1.0407083   0.40370077  0.05477989 -1.23319244  0.94455886 -0.44086018  0.72884101  0.38438311  1.4454819  -0.75849891  0.9275226   0.81918758  0.58270192 -0.05051424 -0.48297033  0.34371674 -1.74000061 -0.97478485  0.4946692   0.36254328  1.02863336  1.41113448  0.50382668  0.04530406  0.33899924 -0.02312379 -0.50630575  0.44523576 -1.43831658  0.34843504  0.47613731  0.81579632  0.97186273 -0.42813531 -1.33215404  0.79535627  0.37574226 -0.49994719 -0.49202862  0.01985559 -0.22560245 -0.37057105  0.21650539 -1.17967832 -0.27483499  0.2595723   1.57927048 -0.75109178 -0.76442415 -1.15294969 -0.85333568  1.01982689  0.25689131  1.00549829 -1.92688656  1.46088207  0.58505446  1.24575603 -1.08828902 -0.18424782  0.09950621
scientist  0.81456369  2.47343731 -2.2270596  -1.61816061 -0.48608595  1.39119446  0.08672047 -0.39410937  0.92043626 -0.60869551 -1.06581986  1.7337997  -0.64463651 -0.85283065  0.29158378 -1.2422874   1.93740809 -1.40199041 -0.40402076  0.44624966  2.03154421 -1.37777042  1.74207354 -0.33412445  1.17056477  0.09150416  0.66393936 -0.41455111 -0.84679002 -0.01462708 -1.11591375  2.01133657  0.59445167 -0.31235048  0.30183333 -1.06466079  0.7283529   0.56891066  1.61411631  0.05824451 -0.01897494 -0.03685502  0.49810833  1.12401307 -0.82997388  0.24920772  1.17824697  1.89423501  1.15645647 -1.37932813  0.67185748 -1.16116655  0.3568123  -0.17920977 -0.1897223  -0.42444003 -1.3927691  -0.05192542  1.52178073  0.83339179  0.09085769 -1.12628329  1.4094857   0.32981944  0.38807347  0.85650128  0.26321805 -0.08401129  1.30275714  0.96546179  0.52366322  1.1667006   2.46714401  1.27825642 -0.19200844  0.263901   -1.35259128 -1.38138211  0.70835692  0.07016957  0.10114755 -0.71465886 -0.44873542 -0.38551101 -2.67361498  1.3229177   0.41793868 -1.60587227  1.2876699  -1.1189009  -2.85525608 -1.34238088 -0.69099969 -0.14646424 -0.35998425  0.86798805  0.37882805  0.2850706  -0.46487299 -0.21205626
attitude  0.03770368  0.60271227  0.36108461 -1.32634854 -1.48612881  0.04696275 -2.85972762  0.20601225 -0.83329034 -0.29365122 -1.00751936 -1.47862673 -0.01687949  0.0759064  -0.44150198  0.07010224  0.84745932  0.05403719 -0.00201793  0.37700987 -1.00703847  0.30516738 -0.88310039  0.3521997   1.43716407 -1.6394242  -1.42234039  1.11098135 -0.40108204  1.2790612  -1.89143014 -1.51518571 -0.16566665  0.85483134 -0.27233249  0.31380743 -0.98188555 -0.31046668  1.95840788  1.01092184 -0.57430023  1.02071095 -0.5215252   0.98145849  0.58649492 -0.24262452  0.21149659  1.65266597  1.20303011 -1.94913208  1.65864587  0.13426864 -0.64544415 -0.10263665 -1.52996457 -0.66746908  0.71369594  0.30873734  2.16705108  1.24887383 -0.22385971  0.63192087  1.3316319   1.4232198  -1.72400427 -0.03424752  0.55055159 -1.37104893 -0.48710147  0.47756973 -0.24718212  0.94724292  1.24142313  0.00619031  0.04902197 -0.18916301 -0.99510324 -0.34959424  0.82976747 -0.88601029 -0.2448519  -0.1855877  -2.12358451 -0.55446637  0.34923559 -0.92818326 -0.08920538 -0.43749478 -0.53660631 -0.62346989  1.16526473 -0.13087875  1.54064119  0.26954988  0.00248421 -0.34518149  0.05008215 -0.94593328 -1.73293066 -0.7010116 
avenue  0.1579676   0.15734205 -0.1572347  -0.46415114 -0.25491118  0.15582491 -0.27236196 -0.01529386  0.25781792  0.18481773  0.316901   -0.13012357  0.00338499  0.2546365  -0.41015571 -0.36828834 -0.04894526 -0.1131123  -0.34718069 -0.27282062 -0.14773315 -0.10660415 -0.1266478   0.017102   -0.01090925  0.04627584 -0.57644558  0.08409085 -0.28021207  0.27114996 -0.10330334  0.11608658  0.28910795  0.11130106 -0.24832086 -0.25656101 -0.15696229  0.17794992  0.49353066 -0.21661778 -0.06113865 -0.19675148 -0.19703105  0.02886956 -0.08917494 -0.7713511  -0.10573614 -0.09941407  0.24387495 -0.11643814  0.08792425  0.14101885 -0.29068688 -0.39686087 -0.23749787 -0.05839028  0.36502743  0.00999122 -0.24633318 -0.15677208 -0.11054179 -0.09979365 -0.27870774 -0.23565286  0.12982637 -0.30314472 -0.28488225 -0.44953889 -0.17846186 -0.21278344 -0.17744161  0.58030117  0.04011481 -0.13534768  0.18088135 -0.02505357 -0.07600977 -0.35552391  0.3984201  -0.05175122 -0.11139888 -0.07180896  0.20802163 -0.51959836  0.01251643  0.29315332 -0.13349299 -0.38858876  0.41115737 -0.50249267 -0.05655203 -0.1882713  -0.2025575   0.33093104 -0.1505485   0.02012632 -0.18592229 -0.32703939 -0.20578024  0.00112971
drought  0.72781414  1.10337663 -1.37671137  0.20335296 -0.15372983 -1.17687523 -0.77444798 -0.60599446  0.47057    -1.36364079 -0.54236984  0.00743204  0.35624892  0.45008218  0.00341583  0.34638813 -0.89178574  0.77875125 -0.27833959 -0.1368717   0.17407493 -0.81919408 -0.55194569 -0.10887084  0.53978503 -0.23967782 -1.34190977  0.23064516  0.48179269 -0.2683495  -0.7527957  -0.24653126 -0.91137969 -0.6040687  -0.36173949  0.21994251  0.96404386  1.73536837  0.206018    0.4717488   0.08534025  1.2148788  -0.15145369 -0.36229977 -0.10573432 -1.12729192  1.00163662 -0.98938334 -0.24705899  0.28480938 -0.29928911  1.26514161 -0.34071872  0.76558322  0.60622489 -1.04573143  0.6732471   1.17288494  0.54347062  0.37072521 -0.20724443  0.26204917 -0.55678225 -0.08553185 -0.30087903 -1.24271166  1.17583013 -0.6858201   0.25885209 -1.07294464  0.35298613  0.39143154 -0.62092662 -0.20635682  0.8228057   0.60628331 -0.05069536  0.44936311 -1.07566452 -0.91412997 -0.53989345 -0.68132252 -0.10717144 -0.19248016  0.90609145 -0.2002072  -0.5679546  -0.55238563  0.32456297  1.6086514  -0.61954302 -0.65440458 -0.30289209 -0.23057637  0.84928733 -0.25902134 -0.61267585 -0.56456161 -1.71460712  0.28218266
midday  0.16344115 -0.41781154 -1.17182863  0.29432505 -0.44350335 -1.99448919 -0.40238544  1.34508693  0.06038988 -0.02421285 -0.70531577  0.13180156  1.04953671 -0.43520898 -0.46764931 -0.91506982 -0.03632332 -1.45467544  0.64189827 -0.44005629 -0.48791793 -0.03002296  0.35380048  0.30855665 -1.71083117 -1.09563553 -0.96458626 -1.09694266 -0.11922184  0.64895254 -0.47465086  0.26290974 -0.76886612  0.15026069  0.35984951  0.00867943 -1.31793225  0.34510306 -0.21438846 -0.96704257  1.08796334  0.25188264 -1.22128749 -0.69439393 -0.24697185 -1.7716924  -0.19174968 -0.79097593  0.44490242  0.62702191 -0.60563225  0.44154394 -0.21986793  0.14424036 -0.0117408  -0.81825531  0.30317435 -0.74594796 -0.37943703 -0.5930891  -0.04734077 -0.85145408 -1.27841187  0.1100707  -1.0759114   0.67464048 -0.30349147  0.29809794 -1.41558063 -0.42139652 -0.16401267 -0.13344814  0.20307098 -0.08817172  0.33311725 -0.37939495  0.70683581  0.58749914 -0.01023999  0.96222842 -0.26687741 -1.01227045 -0.05137002 -0.82423162  0.47231746 -0.31078601  0.63016236 -0.35676989  0.91936171  0.09197483 -1.02072382  0.69286579 -0.15953618  0.04120249 -0.06518032 -1.9051919   0.30270401 -1.01449883 -1.41456056  0.8757295 
listing  1.1300422  -1.80118811 -1.17956161 -0.55724877 -0.48446837  0.68149346 -0.38985813 -0.00441236 -1.32310331  0.30857572 -0.05884583 -0.79154813  0.76797283 -0.77752966  0.20752627  0.38150585  0.16532409 -0.0427025  -0.16855751  0.13541418 -1.22844052  0.70204139  1.19893837 -0.1313521  -0.31474626  0.10537311 -0.75204945 -1.27070963 -1.16468859  0.47370636 -0.4537918  -0.13512166  0.94222027  0.71603042 -0.18263082 -0.45914581 -0.27975014  0.37511772 -0.38402611 -0.98411983  0.16767485 -0.64629877 -0.10823045 -0.75895548 -0.3259601  -0.45936218  0.53787464  0.88105798  0.28943574  0.91132075  0.75518298 -0.59548217  0.30872646 -0.60841483  0.9599784  -0.29476187 -0.19669452  1.24050689 -0.94716477 -0.78474498 -0.00875064  0.31182134 -0.80187196  0.46367887 -0.26371381  0.52459115  0.17407973 -1.17546129 -0.38283026  0.26370996  0.38599536 -0.42117557 -0.56567639 -0.51702791 -0.15569487  0.24787289 -0.60252535 -0.46727774  0.9103058   1.16347802 -0.19406399 -1.07182407  0.51754099 -0.66058832  0.31962639  0.13126877  0.15285301  0.6422835  -0.09098244  0.85551172  1.75620246  0.03171064 -0.71905243  0.18302126 -0.35677788  1.13353693  0.52142596 -0.62650502 -0.12903322 -0.53058088
music -0.14290951 -1.11818564 -1.79932356 -0.66937667 -0.61698431 -1.04858136 -3.00040197  3.23675394  0.60493487  1.48383427 -1.15932953 -0.95217842 -2.35573339  2.04640794 -0.49281594  1.89315498  0.41170436 -2.35022187  0.05967202  0.76733392 -1.35105062 -0.77528036  1.46576989  2.97525644  1.38421047  1.85038364 -1.64820969  1.33895326 -0.77386326  1.29086649 -1.74749172  0.030177   -0.31982544 -1.87615776  0.48710877 -0.96308857  0.21651471 -0.41191864  1.42999864 -0.04692754 -0.97841084 -2.76681709  1.95532119 -0.83407003 -2.23027539  0.71555668  0.44459388  1.86274207  0.87696809  0.94212878 -0.046006   -0.16224322 -0.75882173  0.76547384 -0.44839433 -1.40586817 -0.62115508  1.34027874  2.28530192  0.32099137 -0.72417569  0.39095858  1.44642055  0.06823974 -0.7262401  -0.82217199  1.68738782 -2.5433743   1.29558015 -2.38894725 -0.44888934  1.00815678 -1.84049404 -0.68451494  0.88079995 -2.49170995  0.1892485  -0.41993573  1.80468535  2.56334519  0.84460819 -0.963467   -3.35578251  0.00951908 -0.10685872  0.57605505 -0.01022873  1.31816208 -2.60168219 -5.257195    2.30547285  0.76632875  0.23477438 -0.06300858  1.02604032  0.08024297 -2.9919467  -0.15553826 -3.55952692 -3.50003982
phone -0.7984699  -5.15852642 -1.39686561  1.64962888 -1.73978519  2.22551703 -2.65095115  0.3977772  -1.67884147  2.60466218 -1.73743713 -1.34234345  1.31490886  0.29556406 -0.37085435  0.77861792  0.0156757  -0.32684591  1.1948024   0.06714847 -0.59210873 -2.59347081  3.27528191  2.63297105 -0.74364024  0.08882114 -0.8977145  -3.3894136  -1.44423878  2.00912285  0.91139758 -2.1256485   0.49569011 -0.07259112  0.74763972  2.07570672 -1.86758769 -0.22568794  2.44139767 -2.04422641 -1.84222424 -1.873613    1.27325058  0.40957409 -0.78408265 -1.52488887 -0.55297416  1.71881056  0.40337849 -0.27096352 -2.70772457 -2.53921366  1.7588855   0.98014307  2.21154523 -0.27354169  2.04462147  1.58912945  0.45974919  2.40294099  1.86448407 -0.82569265  1.16112888 -0.84737045  0.44049972  0.60903722  0.43685812 -2.43802714 -2.8651607   1.22192919  1.29885638  3.74447608  1.00111592  1.45746565 -2.11394095  0.83082837  3.29858756 -1.20747566  1.03583443  1.6637305   3.75308895 -0.6880247   2.18721128 -2.44582915  0.15776809  4.02133036  0.38848945  3.02453828 -0.00282145 -1.30621696  3.2446661   3.20897651 -1.77044106 -1.23575819  0.06860766  0.14593646 -1.08422613 -2.18737245 -2.4811306  -0.7758649 
paper  1.00554967 -1.24549437 -0.64936829  0.87538975  1.74319804  1.85381734 -1.01375055  1.18049562 -1.03197646  0.86060256 -0.06028594 -0.91786247 -0.45575818 -0.93248123  1.20646012  0.99446344  0.32449329 -2.01343727  1.44633019 -0.69171476  0.72014517 -1.58693123  0.97087342  1.59724712  0.13055682  0.79734159 -0.38321602  0.39601982 -0.7691744   2.1074295  -1.33975935 -0.79978997  0.92902297 -0.19176847  0.19337098  0.55102235  0.57077259  1.25898623  1.37729883 -1.90700102  0.25300458  2.0923562   0.56947762  0.88071966 -1.9990809  -0.76011318  0.57949704  0.85007572  2.76719451  1.4057852  -0.00085313 -1.17515409  0.64764726 -1.3434217  -0.32290769 -2.45631695  0.39320391 -0.01211967 -1.26802182  0.77419615  0.53248477  0.01649254 -1.01755285 -0.37285542  0.04232765  1.03489113  1.39092433 -2.26800108 -1.54847765 -0.66014254  0.48455027  0.12992886 -0.77684498 -0.26769286 -2.39450216 -0.86611414  1.15986609 -2.31622791  2.96961832  1.89235437 -0.06384403 -0.75751877  0.36556163  0.37576315 -0.40145731  1.08404326 -0.82852411  0.84356326 -0.23944643  0.99451834  0.06117219  0.03321519  1.87356758 -0.15664928  1.08124256  0.8810879  -0.78318101 -0.66613662 -1.50878584 -2.18217206
importance  0.50005549  1.30544591  1.1479845  -1.37792563 -0.80528373  1.7725116  -2.00639701  0.28390735 -0.52639252 -0.83160883 -0.59100151 -0.2251799   0.78064787 -1.11205006 -1.06478167  0.42545226 -0.62843823 -0.99635464 -0.33332428 -0.62415648 -0.4998669  -0.18497103 -1.5172236  -0.5761236   2.56096339  0.52872175 -1.28119659  1.46940351  1.50901008 -0.01685107 -0.4925265  -0.99064267  0.96040493 -1.03855419 -0.32419342 -0.79722697 -1.33285618  0.93971395  0.78898567  1.7238096   1.75495243  0.67697036 -1.57071424  0.37361729  0.68754232 -1.30900395  1.11947358  2.58597136  0.43266168  0.39907429  2.40252781 -0.27925974 -0.0124301  -0.67636138 -0.27109772 -0.32700846 -0.9077487  -0.42872551  0.65073144 -1.52833033  0.23612243  1.41573143  0.9466123   2.55825567 -0.53351206 -1.08681095 -0.64588583 -2.1441226   0.05624227  1.9796176  -0.86596334  0.83580583 -1.85121727 -0.16341127 -0.25936019  2.09070802 -1.93938518 -1.13818157 -0.00681781 -0.79032773  0.74397719  0.08549547 -3.88125682 -0.59999895 -1.18183422 -1.19403565  1.34070909 -0.75222439 -1.99245572 -0.23511358  0.67179155 -1.39120758  1.72063553 -0.49552166  1.72391021  1.57315731  0.40301087 -2.11354113 -1.33549333 -1.38718331
nature  0.48125482  1.02809608  0.44983834  1.69137907 -0.80289912  0.29165784 -2.31350112  1.37587094 -0.91309178 -0.36141312 -1.67743683 -1.10418904  0.1955754  -0.50122565 -0.87104428  1.31758368 -0.64246911 -1.13224137  1.15521359 -0.80910164 -0.88543886 -2.08358097 -1.12602723 -1.11084294  2.78502011  0.34534627 -0.6789794   1.14528131  0.73871201  0.24433404 -0.89471167 -0.08451003  1.1484344  -1.38242006 -0.05781151  0.27648413 -1.21842933  0.74426502  3.27045012  0.24436334  0.89140153  1.24667883  0.02555339  2.33355331 -0.29925111 -0.8086248   0.78214622  2.64396977 -0.28682443 -1.15318561  3.66884255  0.4232865  -0.95701247 -0.43781573 -0.18760024 -2.43493271 -0.28883028  0.530375    2.26260638  0.56227458 -0.04032734  0.82130498 -0.75525081  1.59176052 -0.09170755 -0.91355342  0.73748296 -3.48344135  1.35605443 -0.63757735 -0.2519258  -0.01058087 -1.44115841 -0.18027513 -0.70083886 -0.00815612 -0.91173178 -1.4553839  -0.04956267 -2.21184659 -0.31600627  0.20260186 -3.46880198 -1.65341067 -0.44983116 -0.66370308 -0.16382174  0.28377017 -1.42188191 -1.29707015  1.14461756  0.0202502   1.4068532  -0.31958771  1.5067991  -1.3767879   0.19113295 -2.1098392  -1.52816284 -0.23072506
group  2.15376139  2.2973392  -2.4864192  -2.46266866 -0.2153804   2.59652019  0.74707967  1.58634293  1.01137841 -1.32992911  0.72718215 -0.12472228  2.66703081 -0.4484075  -1.96904516  2.03500414  1.53227425 -2.22076535  1.55259907 -1.40004051  0.45046261 -0.83009797  0.1477318   1.5685823   1.72677314 -0.56299084 -1.09522235 -0.12170257  1.44694757  1.2854892  -2.49592161  0.92146635  0.92433226  0.15806048  1.421731    1.71878433  0.57744539 -2.00206327 -0.33401093  1.59881294 -1.15222943  0.18776608 -1.00597751  0.42956793 -0.67207491 -1.21672988 -0.01192233  0.763668   -0.10180937  0.21508142  3.52795911  0.74868482  1.79305649  0.26985458 -2.64511037 -2.08572507  0.66718596  1.67760563  1.42944098  1.29713273 -0.47745207  2.35810947 -2.4353025   2.36448193 -0.27971271 -1.66646063 -2.87208939 -1.31330395  0.51657683 -1.05219114  0.10096466  1.82283771  3.70486712 -0.10709684  0.31962392  0.07964385  2.45376539 -4.52799749  1.31202209  1.79947841 -0.3136425  -1.56478047  0.83076292  0.96646714 -0.6066888   0.87186337 -1.68073046  1.55403483  1.65538573  1.42163551  0.91723585  0.42578986 -0.61065161  2.658494    0.00139663  3.7118597  -2.31924987 -0.18627782 -1.04240167 -2.05337238
prejudice  0.00366778  0.63525468 -0.09318495  0.34422737 -0.14366759 -0.03740961 -0.52259016  0.05683536 -0.22511223 -0.25194842 -0.07104255 -0.21620251 -0.47201902 -0.06664944 -0.0690238   0.25899544 -0.36841226 -0.08014372  0.29543027  0.43784979 -0.95393592 -0.24328448  0.2235679  -0.21349621  1.37391233 -0.66326207 -0.14697821  0.39529875  0.53786427  0.38257968 -0.67219651  0.05269149  0.34001434 -0.24742192  0.23319288  0.48183021 -0.24565667  0.56581211  0.40964517 -0.13442993 -0.5567413  -0.03478888 -0.11936528  0.07012203  0.18201037  0.0011587   0.18312885  0.52348733  0.17605777  0.015514    0.71028817 -0.00478105 -0.1054732  -0.32557461 -0.15266049 -0.69987327  0.29830533 -0.57108074  0.4288896   0.23055165  0.29725629 -0.45504102 -0.49407929 -0.12459413  0.40011156 -0.38608393 -0.15362772 -0.5200454   0.54320163 -0.0603679  -0.02044551  0.32511905  0.24711508 -0.10640036 -0.29007649 -0.30430421 -0.54128438  0.1525809  -0.06280928 -0.49731314 -0.54308176 -0.0525035  -0.5515945  -0.35341829  0.33972779 -0.04112145 -0.46393263 -0.47620806 -0.07793967 -0.25815114  0.04097247 -0.18160744 -0.14094219 -0.28672159  0.14398749  0.00803478  0.29845709 -0.56422448 -0.37934145 -0.80224913
team  0.75780451 -1.57879817  0.95018893 -1.85089457 -0.63732499  1.64117944 -0.55640203 -2.09602499 -0.05315624 -2.21147966  1.17565131  0.81685519  0.76050764  2.53174424 -1.52892721 -2.06749463  0.71851242 -2.79516935 -0.6761657  -0.73489553  0.26551148 -0.43376744  1.24377239  0.71615738 -0.24725142  0.48293951 -0.60466057  0.18502821  2.177809    0.29321623 -0.9830361  -2.57203412 -1.41149306 -0.53948838 -1.8443836  -0.07585296  1.22118795 -0.94038731  0.20165887  1.77495146 -0.98338151 -1.25839531  0.39732894 -0.08451136 -3.0546453  -0.22892818  1.58933198  0.77547693 -0.50701654 -2.48563504  2.56785846  4.12334347  0.37607068 -1.51158369 -1.18897629 -2.06510997  1.06431997  2.62888551  2.8011899  -0.15847915 -1.72760308  2.67301154  1.41936219 -1.36180019 -3.82329154 -0.46246091 -1.2454375  -1.21299243  1.99147999 -0.62569046  1.76835489  0.94788384  3.39981151 -2.04285288  1.02351379  2.36613989  0.75353646 -2.16393471  0.53525347  1.5030582   3.15612483 -0.00561264 -0.35511255 -0.59597993  0.67759222  1.60778987 -1.08837104 -0.17112802  0.77420366 -1.13397002  0.66346669 -2.60831976  0.16506945  1.45485008  1.07256198  1.63343477 -0.2396594  -1.47465611 -4.84206343 -1.32557154
physics  1.90059972  1.06928325 -0.97947168  0.28306746 -0.50846565  0.28848502 -0.32645211 -0.13773164  0.89460647 -0.3110562  -0.226349    0.22085114 -1.58677697 -0.84364581  0.77385437  0.23534061  0.53331244 -0.53371525  0.63927573 -0.19952902  0.20496799 -0.09401652  0.98957741 -0.41745088 -0.10482463  0.71202683 -0.46572632  0.09918286  0.10989251  0.16036204 -0.61709654  1.3522706   0.9326762  -0.39001983  0.11577509  0.363258    0.91620463  0.51124305  1.02285945  0.02427072 -0.12365494 -0.35689497 -0.2299591  -0.29233074 -0.29663366  0.92742598  0.76199442  1.73698378 -0.39694804 -0.75402999  0.25809389 -0.26403558 -0.83669376 -0.32831502 -0.17370434 -0.08399547 -0.58871239 -0.32021177  0.56546789 -0.74434769 -0.30824035  0.32515833  0.65410435 -0.25490084 -0.03918043  0.06026182  0.19333424 -1.29811072  0.94037223  0.18663418  0.10260465  0.29484549  0.32383072 -0.60664928 -0.37430194 -0.6409201  -0.10497117 -0.42649233  0.1482275   0.52132004  0.08726139  0.62917787 -1.29043424 -0.61581707 -1.44348264  0.2863296   0.29706648 -1.01024878 -0.57982212 -0.75787807 -0.47774842 -0.00727637  0.76260757 -0.1708478   0.4649092   0.26248789  0.09766315 -0.08580223 -0.91339922 -0.10379157
manslaughter -0.79214025 -1.38093746  0.78850418  0.96652818  1.82324076  1.32867455 -0.34007129 -0.38614735  0.3473781  -0.6377421   0.36322844 -0.59109467 -0.2744523   0.17396274  0.078123   -0.6299758  -2.4142549   0.28081685  0.44451082 -0.27874929 -1.85184395 -0.09984956  2.64784908 -0.79582757  1.31602502  0.03563215 -0.02434705 -0.71325099  0.67292774 -0.41166675 -1.46571541 -0.2532849   0.55901003  0.91314107 -0.6956116   0.95111114 -0.2082231   0.54063737 -0.39535621 -1.34801006  0.17880721 -0.86626273  0.57983834  1.33941412  0.68021601 -2.13858056  1.08770847 -0.07598513 -0.19940324  1.43159854  2.11233783  0.52687883 -0.03491302 -0.21446903  0.42029658  0.00237664  0.36775404 -0.7848869   1.28050137 -0.30984059  0.92700928 -0.80218983 -1.71878362 -1.15633619  0.79549843  0.57883948 -1.63381255 -0.46845305 -0.21597625  0.77673358  0.57244092 -0.12095181  0.80687088 -1.53269219 -1.85453892 -0.71070337 -0.47107604 -0.05916412 -1.15879309 -1.02886963 -2.28457928 -0.067122    0.52136177 -0.61155254 -0.8578558   0.94414955 -0.99574637 -0.47103432  0.86927974  0.43141803  0.02894663 -0.8694461  -1.26645601  0.21853209 -0.01458009 -0.7127282   1.39169466  0.14088742 -0.52918422 -0.1161147 
investigation -1.3885833  -0.73908222 -0.72602403  0.1106164   1.54625249  4.30005503 -1.02550733 -2.83503222 -0.6660105  -2.26458025  0.86813784  0.32465857  4.96742249  0.37895864 -3.22140527 -0.56264693 -5.95605421 -0.2855283  -0.97211057  2.15787292  3.87450933  0.3906413   2.37794828 -2.59183073  1.12442017  1.09648883  0.50476021 -0.76527536  2.30969453  0.58787501 -4.1690588  -1.71373093  0.93370414  2.89013863 -1.54550242 -1.23319972  0.00019402 -0.04348197  3.89354348 -0.02381514 -1.62894034  2.1141305   0.67306876  2.36953783  0.68597943 -2.68418241  1.74681091  2.97737789  1.61200511 -0.597372    6.5743351   0.20764868  0.04298962 -0.83131629  2.16884732 -1.6404649   0.7019701  -1.65546727  0.12069241 -1.24701118 -1.23289895 -1.64836574 -0.91134351 -0.07822582  0.5615654   2.08740354  0.59238696 -3.56201267 -1.34538245 -1.21599591  2.97073936  3.15475678  0.61591208 -1.85507751  1.89834762  0.60043901  0.92623001 -1.69144213  1.14096653  0.06178652 -2.29902101 -3.25522017 -1.72123623 -2.42590308  0.21186897  3.74703693 -2.9420805  -0.20233379  5.31002092 -1.71041787  1.02739966  1.05752707  0.14725591  0.80102158 -2.17724609 -2.16248035  2.65996003 -2.84696293  0.84000915 -2.58117151
warning -0.43422282 -1.10462618 -0.27460015 -1.37550664 -1.70435131 -2.50948668 -0.44782546 -1.95086181 -1.53200483  0.35043329 -2.0868752   1.76846159  1.76515996 -0.97946662 -1.30549026  0.12820758 -0.93109894 -1.75775707  2.65853095  0.88255161  1.30712092 -0.4409875   0.36043844 -0.13334386  1.40672243  1.38798666 -0.92078388 -0.73166198  1.06449246  1.56695735 -1.00583863 -2.29693723  0.74303031  1.18914163  0.78643012  0.87682801 -0.04603029  3.24160242  3.0240078   0.17392738 -1.32394779  0.7173928   0.14478442 -2.70817232  0.04411513 -1.44519687  1.42197001 -0.96479726  1.06034064 -1.37420058  1.84237993 -0.24097274  0.96403426 -1.17216957  0.49078456 -1.63893783  3.53995037 -0.75200516 -0.08141351  1.04833412 -0.34910402 -0.69883865 -1.13380957  0.96834862  2.50857115 -0.96931177  0.20661475  0.23051015 -0.49849659  0.69443893  1.55229652 -0.11530867  0.78475499 -0.48168951 -1.52268863 -1.46484649 -0.17185876  0.86686128  0.00550711  1.15365243 -0.15442722 -0.12390817  0.00686806 -0.2447712   1.77937412 -1.2154572  -1.38813472  1.94198644  1.74497664  2.40029502  1.69101942 -0.39115202 -0.22323593  1.07337058  0.64865255  0.242429   -2.46077609 -1.67765641 -0.92594218  1.16359782
recognition  1.30838656 -1.00063431  0.31447902 -0.85770768 -1.12326062  0.15659939 -2.12646294 -0.12986602 -1.31613576 -0.39135137 -0.31876478  0.23141825  0.64195913 -0.82580364  0.77020776  1.17101216  0.10237031 -0.74829984  0.42538857 -0.70118219 -1.35900605  1.00305688 -0.33210137 -0.1165709   0.27312419  0.01961601 -1.45656371 -0.31708109  0.94121885 -0.0660524  -1.39191079 -0.26765198  1.48716557 -0.92432904 -0.48320788  0.47492903 -0.33779067  1.43495226 -0.3627893   1.30039847  0.27377376 -0.80612117  0.04210648 -0.04253332 -0.41251996 -0.84826261  0.79777145  2.02539706 -1.00136757  0.34942356  1.78734303  0.24096557  0.10120154 -0.47838828  0.9642635  -0.55839127  0.4281812  -0.87427413  1.26915848  0.12435488  0.32315934  0.27325007  0.77373803  1.47655046  0.08379868 -1.28153169  0.43247578 -2.08652234  1.25552034 -0.31194273  0.13131703  0.18056062  0.67767042  0.49451995 -0.0031401  -0.01017397 -0.51812232 -0.78355968  0.59196335 -0.91273934  0.68671161 -0.16100268 -1.91856384  0.12909257  0.74782306 -0.94692135 -0.24767527 -0.41919145 -1.04637086  0.36441308  0.70859498 -0.83845669 -0.13297024 -0.22049925  0.90822983  0.35635173  0.0414461   1.21181488 -1.0008204  -1.21476769
liability  1.08665907 -1.42605758 -0.73691434 -0.01624473  0.45062914  1.0656718  -0.93698508 -0.68066603 -0.18664525 -0.27725309  0.71319574 -0.43340066  0.61116058 -0.51749521  0.73078007  0.92683172 -0.38656923  0.16223875 -0.2985304   0.46904033 -0.28999868 -0.43056253  0.48015165 -1.6572665   1.12100649 -1.06987119  0.14646706  0.06806536 -0.17546812  0.75684494 -1.08985758 -0.3185679   1.21543801  0.60004157  0.60996628  0.08182162  0.51159561  1.05850053 -0.81647617  0.16406441 -0.02611352  0.04551035 -0.04850434  0.57477885  0.44549844 -0.49922878  0.36360526  0.99137533  0.14788577  0.06873491  1.27802265 -0.40435487 -0.08936628 -0.92605007  0.5916217  -0.20563248  0.02811008  0.279654    0.06839588 -0.39584562  0.50167495 -0.14298025  0.23185013  1.22536683  0.35768092  0.66474313 -0.01380503 -0.97019082 -0.10402001 -0.2814669   0.87687653  0.04491834 -1.03000689 -1.00671911 -0.50905019  0.3264235  -1.43646216 -0.01243606  0.72073036 -0.38174519 -1.29825056 -0.34329596 -0.25623399 -0.78524768  0.65720832  0.34573808 -1.1078968   0.03319655 -0.3399691   0.50694478  1.02380073 -0.38164973 -0.99465787  0.09684093  0.15109375  1.23487508  0.98700607  0.10829405 -0.59263813  0.1938816 
block  0.57588851 -1.25990462 -0.50963432 -1.31066763  0.40608129  1.28910136  1.1123879   1.14273393  0.92102402  1.11151183 -1.17899001  0.44728869  1.37156188  0.57892168 -1.9814471   0.26825297 -0.18998633  1.20294416  0.89626086 -2.0901444  -1.71349812  0.32176188  0.34582716 -1.12534392 -1.31484389 -0.17460147 -2.35066152 -0.57905394  0.06576386  4.06719208  1.75797391 -0.24064258  1.16792655 -1.05394101 -0.07646674  0.13925658  0.62217599  0.37854701  1.02050281 -0.83106869 -0.99695861 -0.75034815  0.24280728 -0.31844124 -1.55895746 -0.26493379 -0.07483564 -0.3103655   1.49253368 -0.59390491  1.11677372  0.74136221 -0.07072376  0.0749383   0.41457632 -1.48395348  1.12109506 -0.41807204 -1.86465442  0.49680611 -0.05445717 -0.46813494 -0.59453249 -1.20204055 -0.01389605 -1.70921314  1.52473152 -1.69950914 -1.39822686  0.86098111 -0.33074334  1.5971278   0.13136859 -1.79454219 -0.6458317  -0.61505663 -0.5914982  -0.44669807  2.66115689 -0.08065025 -1.01886189  0.86342376  0.07574496 -1.3562789   0.12872306 -0.13502744  0.30434555  1.56413257  0.68539333  1.33318567  0.57895666  0.05901622  0.24026643  0.59421563  0.25713319 -0.16539259  0.26794699 -0.02849651  1.57609069  1.3028394 
size  1.3692708  -1.5584687   0.27519211 -0.43521446  0.17436025  2.29939198 -2.5952034   1.16004634 -1.24848831 -1.65379465  0.70353383 -0.35249826  1.40790272  1.04771769 -0.39638063  2.54310465  1.24880719  0.39788216  0.75665087 -2.11876869 -0.3248598  -1.0570302  -0.63197494 -1.76445746  1.94040358 -1.14767671 -3.03732538  0.06138686 -0.91060734 -0.23586968  0.35209817 -0.06591737  1.72214007 -0.70984167  1.38974786 -0.9446584  -0.28334233 -0.48999676  0.64530849 -0.91488606  1.82814562  2.03397822 -1.73481321 -0.3604731  -2.86282158 -0.67287773  0.06378093  0.64032656 -2.32344532  0.01783159 -1.59871793  0.8742221  -0.51888436 -0.72625136 -0.93630522 -3.37295842 -1.1059612   1.90146136  1.36685634  0.35685506  1.61401677  1.87187767  0.33096391  0.01139278  0.23436378  0.39528707  0.44021475 -2.05318546 -0.32633698 -0.31558052  0.89407814 -0.52902621 -3.42960453 -0.9778837  -0.24495065 -0.29172769 -0.6447441  -0.65233934 -0.12884787 -0.09761085 -1.15959656 -0.01424893 -1.3969456  -3.1888907  -2.27402663 -0.75824797 -1.77045035  0.03716476 -1.70868325  1.23830914  1.89725518 -1.08558083  1.08590972 -0.71662122  0.63207728 -0.41156146 -1.756338   -1.78435242 -1.11368585  2.61424446
activity  0.85548413  0.7792722  -2.4648273   0.35484901  0.29003638  0.97250205 -4.15102291 -0.12263184 -0.07313339 -1.09525931 -0.76587695  1.97873557  1.66376162 -2.7015996   1.32594037  1.95422041 -2.91100955  0.27783257 -0.06634095  0.46423498  0.44936258 -1.60510981 -0.94020766 -0.50128663  0.44908342  0.01048347 -2.34934449 -0.36026576 -0.33338797  0.10754993 -2.58376551  0.70284706 -0.32517695 -1.25281072  1.3750062  -0.84257025  0.39628765  2.16083264  0.81864578  2.04658818  0.66618878  0.96207386 -2.03284669 -0.60145849  0.06863488 -0.27467355  2.25762296 -0.75136805 -0.80261582  0.06652131  1.59630537 -1.37540555 -2.57104206  1.45607281 -0.68066686 -1.25276625  1.2587707   0.66968828  1.98656845 -1.21147752  0.04790221 -1.06187844 -2.07146883  1.13400865  1.36727178 -0.36450523  0.45077205 -3.08047295 -0.92653388  0.64332867  2.29558897 -0.00853296 -1.07809007 -0.87479502 -1.02031088  0.8070581   0.72347164 -1.27177715 -0.36662564  0.17143184 -1.01086044 -0.18776612 -1.38218665 -3.61194229 -0.70490301  0.807329   -0.6434474   1.81524599 -1.52398908  1.08753681  2.26549125  0.42690003 -0.24532492  1.06229115 -0.09810916 -0.43174094 -0.27374113 -2.54660845 -2.47269297 -0.49457136
round  0.88431817  2.42379069 -0.29608461 -0.73744303 -0.54963243 -1.94749486  3.32629824  2.28855848 -0.76783729  0.81773067  3.37302566 -1.89000809  2.11827397  4.09788799 -0.63832372 -1.74785531 -1.58481503 -1.25891662  0.57357323 -1.31680095 -0.31366387 -1.75151062  0.49362639  1.05743659 -1.76851392  0.19747519  0.03924635 -3.78786659  0.58784306  0.05338698  1.49461532 -1.96141779  0.48491508  0.3955802  -1.56451118 -0.96075463 -0.07824226 -1.10932803  0.02887215  0.20813616  0.95860046 -1.23855066  0.54939312 -1.96577728 -3.05762196 -4.24224043 -0.11062951 -0.36240828 -2.5589354   2.26165557  1.25497651  3.8633821  -0.67616463 -0.51490074  1.49235952 -1.53787482  0.04449071  2.83309555 -0.03774898  0.52435696 -1.39636457 -0.28626797 -1.04815984 -0.78064609 -2.46953964 -0.59003228 -0.70306784 -2.39829016 -0.51766527 -1.94647038 -0.508165    2.27621603  3.58246684 -1.9276011   1.80738389  3.22782755 -0.57828903 -0.95067942  0.87203068 -1.19728303 -0.19041497  0.69752961 -1.24874914 -1.7514571   0.78266621 -0.34855944  0.98894209  0.25796598  0.63409609  2.28242826  3.07178402 -0.84954226  1.81991494 -0.5550375   0.48774084  0.73362947 -0.09582169  0.26777646 -2.76988053  1.25139499
infrastructure  3.4548614  -0.12544084 -2.07817316 -1.58980274 -1.06230068  2.0206821  -1.30629349 -2.40536928  1.34715116 -1.02166462 -0.348041    1.06004906  1.34440732 -2.11575747  0.39247319  2.86783504 -0.23627518  0.43411922 -1.15145946 -0.93323809  1.38712049 -1.95517528 -1.29283464 -0.61017185 -0.99528772  0.65555048 -0.99463916  2.19485903 -0.99771535  3.10644317 -0.21898548  0.60232496 -0.3414627  -0.68425345  1.07011127 -1.2723825  -1.49430215 -0.40164158  2.59130788  2.48566508  1.95767152 -0.87459522 -1.54635906  0.87959206  0.83360749 -0.78856385  1.59158158  0.17441133 -1.18868613 -0.42362311  0.62899846 -0.71899801  0.11725246  0.49203607  0.20522843 -0.59434557 -0.1355595   0.76415002  1.47185194 -1.21555459 -1.96302688  1.87793899  0.17455186  2.14058423 -0.07114191  0.12552738 -0.60499543 -3.62984824 -0.31561169 -1.09782553 -0.05433494  0.61805069 -2.60560799 -0.53852671 -1.94328129 -0.76065618 -0.08982583  0.99699312  2.33611774 -1.45523238  1.03368986  0.03055262 -1.22573376 -0.87410176  0.80354697  0.92588556  0.92544335  0.52907711 -1.15513325  0.45765123  0.40912816  0.3443644  -1.70111001  0.51700199  2.72569156  1.66370034 -0.48667243  0.21399345 -2.8069756   0.08354974
preservation  1.18393636  0.03306449 -0.61355418 -0.14913371 -0.19377041  0.47832689  0.09939833 -0.21916726  0.41685784 -0.30298427 -0.03309114 -0.0963558   0.02536518 -0.93751961  0.05725144  0.97103691  0.00428098 -0.028866    0.06381079 -0.13201971 -0.60109085  0.16036345 -0.0235166  -0.41408595  0.84709036  0.13684371 -0.71967626  0.28468385  0.09402395  0.37026978 -0.41068318  0.69090915  0.17206205 -0.37970212  0.49014547  0.01622285 -0.27055907  0.34994352  0.38654295 -0.00122073  0.22429487 -0.22558312 -0.6046831   0.07709184  0.21105541  0.10254093  0.48451853  0.59576523 -0.21936624  0.16320981  0.51613039  0.04453556 -0.0295896   0.18045108  0.16470638 -0.40944701 -0.12781084 -0.01878051 -0.15875411 -0.38364533 -0.13052447  0.6824612  -0.35712111  0.25001642  0.1438254  -0.41144922  0.3442407  -0.82835585  0.40842068  0.15191311 -0.22677752  0.10800362 -0.95041031 -0.30451956 -0.35197693 -0.32519677 -0.40156779 -0.18771373  0.80843055 -0.00608417 -0.18487142 -0.08547373 -0.70310718 -0.07972229  0.04189363 -0.00094253 -0.11957771 -0.02197787 -0.28171301 -0.12201902 -0.26105773  0.00506465 -0.09203435 -0.36261764  0.34688288  0.70351803  0.299128   -0.05883778 -0.11762974 -0.16397808
moon -0.25448427 -0.65905827 -0.35994485 -1.28770876 -0.52621257 -0.16594578 -1.34168613  2.46813726  0.00262312  0.01811356 -0.47737718 -0.10200304 -0.32201248  0.98157775 -0.68356574  0.65793836 -0.72558928 -0.46928757  0.3321816  -1.38140965  1.36927211  0.28454995 -0.99102515  1.19254339 -1.0041362   1.51061416 -1.67777777 -0.26373455 -0.47895828  1.01135194  0.90486151  0.00102354 -1.39907944 -0.82223332 -0.63040125 -1.77708018  0.41945371  0.45899463  3.52321839 -0.9700979   1.19133759  0.3631525  -1.22303832 -0.29174301 -2.20461774 -2.82672548 -1.39286804  0.88799053 -0.06019396 -0.18083638 -0.01726542  1.0303812   0.48184356 -0.07606232  0.2267918  -0.24543799 -0.07883909  1.048648   -0.06765918  0.79859424 -0.81182116 -0.12183382 -0.59701782 -1.89352787  0.49172461  0.28206897  0.59761012 -1.65721166  1.00549674  0.45708641  0.96900111  0.08966793 -0.9814527  -0.42587909 -0.53699255 -1.10327947  0.6597299  -1.19419503  0.13576391 -0.7711122  -0.11068086  1.67432284 -0.38027307 -1.49914169  0.04869168  0.01195348  0.04421461  0.13708974  0.32383323 -0.43567175 -0.97903365 -0.22556953  2.01133084 -0.29347438  2.19059205 -1.22805321 -1.38599265 -0.57265729 -2.98284125  0.96336174
automobile  1.1885159  -0.57482082 -1.16833377 -0.20525792 -0.37812853 -0.02500543  0.04994839 -0.51348758  0.32891354 -0.21169144 -0.30208197 -0.14831179  0.3074795  -0.14338495  0.09744606  0.13508806  0.17433481 -0.39581829 -0.16700037 -0.23049983  0.46586561 -0.33266968 -0.05361324  0.07763647 -0.28119048  0.26900852 -0.61324769  0.27397513 -0.75864291  0.19575395 -0.94213229  0.27755517  0.21170087  0.24378957  0.35680115 -0.87459415  0.12772283  0.04193158  0.33961084 -0.15846388  0.45169419  0.3474848   0.04923293 -0.43266717 -0.05257143  0.05528359  0.13292609 -0.1807581  -0.22146164  0.07971524 -0.34726274 -0.48485652 -0.29032192  0.40432879  0.14157757 -0.28122389  0.06329053  1.06774426  0.50318348 -0.29959965 -0.46004778  0.5840109  -0.18305522  0.57407433  0.00822832  0.1561622  -0.08269139 -0.44138032  0.19633143  0.07376765  0.72835362  0.10183952 -0.3517544  -0.16088846 -0.26729566 -0.33623692 -0.29141632 -0.19060907  0.31688249  0.27238107 -0.20844543 -0.36806801 -0.23918897 -0.52814615  0.21449369  0.35118175 -0.92917401  0.0617959  -0.41425925 -0.33649728  0.52208316  0.1033114  -1.03394389 -0.19407885  0.27132452  0.44533581  0.04191333 -0.0744341  -0.08309273  0.27723521
clothes -0.10493048 -2.59502864  0.52489263  1.10988009  0.48510495 -0.8223989  -1.12252164  0.85976702  0.75648439  2.18383145 -0.5727163  -2.96088195 -1.85946333  1.50745308  1.27052844  0.09221689 -0.15434973  0.2586455   0.99892581 -1.12231147 -2.34589958 -0.73540419  2.13407207  1.15345824  1.7344054  -1.23650467 -0.86804777  0.1248895  -1.03169215  1.43385625 -2.02018428 -2.16476178 -0.91519964  0.03016687 -1.27390349 -1.77391064 -0.29617792 -2.06051278  1.78643692  0.56038207 -0.44053018 -0.42920408 -0.57555062  0.25729907 -0.18132272  0.88213736  0.45761043  0.04388878  0.3638635   0.73275238 -1.23811817 -0.33772415 -0.58585781 -0.44436714  0.36872196 -2.11968112  1.08684337  0.06218123  0.39942393  0.35297003 -1.79656923  0.91874617  0.89670455 -0.78616112 -1.04739213  1.27626097  0.37027943 -1.43338263 -0.06082978 -1.59730959 -1.36471057 -0.85406357  1.05564106  0.87632358 -3.66288543 -3.85811067  2.07141447 -0.34868366  0.92427909  1.33604598  0.65797162 -0.33976445 -0.60716039 -2.22691989  0.10222936  0.7257883   0.48201954  0.26070943 -1.89132178 -2.01709843  1.15074766 -0.14029355  1.52686739  0.70318747  1.08405352  0.17847656 -0.83810776 -0.79922748 -1.57806456  1.21483171
observation  0.10307654  0.08176602 -0.37884769 -0.99432385 -0.640881    0.25261542 -1.53416324  0.2022295  -0.06123223  0.11028568  0.14057733 -0.51810169  0.23553801  0.09534685  0.21496947  0.22491406 -0.04864569 -0.64326906  0.20189255 -0.586312    0.25690147  0.3080844   0.16256325 -0.76554966  0.23717968  0.40975785 -0.47366166 -0.53048396 -0.85930502  0.64470047 -0.58578557 -0.31540921  0.34220502  0.48557934 -0.39390284  0.05116346 -0.39565057 -0.08933283  1.41901052 -0.23350494  0.00136704 -0.62930793  0.11036953 -0.17642723 -0.39723501 -0.89435184  0.1125228   0.78030032  0.39833936 -0.4957765   0.46512771  0.60158569 -0.06262745 -0.56409979  0.21291755  0.22459707  0.44306913  0.4511539  -0.32347509 -0.31323647  0.12366971 -0.08276998  0.13179596 -0.1795404   0.3748565   0.20991604  0.02312308 -0.89359462  0.01658898  0.42143279  0.32748443 -0.12057465  0.5736078   0.01801045  0.03584269 -0.45514566  0.08903988 -0.71475762  0.80842912  0.65886515  0.0312388  -0.44068763 -0.43116674 -0.94370407 -0.02894476  0.6411075  -0.13160378 -0.24134462  0.22766039 -0.4075774  -0.19270319 -0.11578014  0.36352095  0.17032447  0.34286189 -0.74683917  0.19870238 -1.05333889 -1.42789268  0.37004989
metal  1.40078938 -0.2264749  -2.00243163  1.1159513   0.05881708  0.1580936  -0.33874664 -0.36940134  1.50323129  0.63548994 -0.75061464 -0.55278426 -0.13065895  0.70216364 -0.09452213  1.09283483 -0.19281118  0.56841576  0.75044531 -2.51961136 -0.49731681 -1.27458537  1.32053471  0.21872549  0.92246115  0.06811251 -2.72711945 -0.07755686 -1.1214776   1.8106606   0.19124351 -2.15703297 -0.35098657  0.50709534  0.20370173 -1.99430811  1.00779581 -0.02999984  0.7533015  -1.47685361  0.23544431  0.39479348 -0.60966218  1.12442517 -1.12188852 -0.72991598  0.42405605 -1.46110594  0.11806663  1.11867344 -1.64808667  0.2045394  -0.37910077 -0.31465691 -0.48364383 -1.67951953  2.01199102  0.46961159 -2.24742842  2.43148279 -2.02975345  0.51228708 -1.69218087 -2.29146171  0.60417742 -1.19642901  0.58144993 -1.87623525 -0.14142431 -2.01463819 -0.01328825 -1.4449681  -0.4498485  -0.24419551 -1.8091284  -2.93632507  2.40830517 -1.60689163  1.00208449  1.26977992 -0.10139453  0.50394678 -1.48049843 -2.81499219 -0.90223283 -0.14019561  0.59950244  0.73652148 -1.0836606  -0.03037646  0.28835452 -1.21719003  0.23931906  0.05196919  1.53052282 -2.02031136 -1.2660681  -0.55833125 -1.84198475  1.83951008
atmosphere  1.11617315  1.54280484 -0.34273544 -0.10342652 -1.21041131 -0.64484149 -2.85361767  1.9832145   0.38721725 -0.70347774 -1.63366437 -1.77364242  1.11336136  0.57485819 -0.46884131  0.417364   -0.14088903 -0.44745201 -0.53143603 -1.16713965  1.39550889 -1.47985137 -0.93513411  0.12737012  0.01882524  0.32171065 -2.23869658  0.75094765 -0.57903612  1.04138148 -1.40957928 -0.36424965  0.49199298 -0.23907781  0.28062227 -0.01174836 -0.40324187  0.44811779  2.43801475  0.22906706  0.83509272  0.51418996 -1.65864611  0.90167081 -1.11800265 -1.60341585 -0.31123757  0.76148152  0.22024938 -1.05760455 -0.00145139  1.06783664 -1.44010997  0.43702173 -2.04460883 -1.80817235  0.31392848  0.2930944   1.38762867  1.53119016 -1.80029273  0.31984025  0.35895351 -0.13811937  0.7009716  -0.35482672  1.36620772 -2.43643999 -0.63166529 -1.02715874 -0.00007234  0.33069155 -1.09108686 -0.60800332  0.48793718 -0.77555346 -0.20455396 -0.87518865 -0.04239441 -0.18006898 -0.08376187  0.38063917 -2.6390276  -1.63791752  0.35661983 -0.43602115  0.13250436 -0.94716603 -0.55014819 -0.5522806  -0.83259714 -0.00132871  1.68858457  0.98655021  0.45999277 -1.29192662 -0.98668891 -1.58856678 -2.03765559  0.23203002
FBI -0.33925936 -0.85146332 -1.51445496  1.00577986  2.84709764  3.05956769  0.98284173 -1.06951904 -0.30287406 -0.54376036 -1.44661653  1.03121293  0.11810557 -1.28375483 -1.42139912 -1.01543307 -1.58907819 -1.16287696 -0.1189917   0.87434661  0.34867525  1.18083167  1.2522378   0.511531    0.90341252  1.49628019 -0.54643899 -1.00043321  0.74895483  1.42428935  0.54953361  0.6595943   0.84442395  0.2861836  -1.08783674 -0.00355521 -0.09494625 -0.05736697  0.89390087 -0.92449468  0.49520996  1.71255839  0.96246946  2.12055421 -0.49131456 -2.3286469   0.6367684   0.96805722  1.54544723  0.24253736  2.56721878 -2.44477224  0.71183074 -0.99036652  0.99940109  0.80153966  1.4316566  -0.73250377 -0.05624668 -1.00313902 -0.39062816 -0.947061   -1.58504605 -1.61280906  0.63975674  2.89445615 -1.07650435 -0.34808055  1.10166478  1.27437818  1.36497962  2.11006975  1.76781917 -0.26881275 -1.15132535  1.01875663  2.97341728 -1.16381156  0.38669753  1.70686615  0.04250682 -1.84062696  1.7846452   1.50942934 -0.17691287  4.10224533 -1.65582645 -0.1286207   1.4324044  -1.88419688  0.36501881 -0.04974712 -1.11329484 -0.41535875 -0.77653217 -1.29605055  1.08423007 -1.91049385 -0.90984178 -0.25032979
coffee  1.32765365 -0.38859898 -1.81145704  0.88510519 -1.52768481 -0.58269441 -0.33759594  0.18532658  0.29942119  1.73814332 -0.41390651 -2.16643143 -0.86521614  1.07795393  0.93930364  0.57291734  1.58853602  0.20105065  0.6985054  -0.87941521 -1.94504452 -1.60710537  1.84122062  0.35025921  0.6670664  -0.17796263 -1.71516645 -0.45306173 -1.91902125  1.74228644 -1.02298176 -1.37672853  0.57951504  0.32194117 -0.55930698 -0.43889275 -0.03572451 -0.07825863  1.93748713 -1.93245208 -0.41862231 -1.44577312 -1.21843815 -0.42931467  0.24223566  1.60871875  0.93856698 -1.83270645 -0.35936069  1.99794579 -2.18724513 -0.25753781 -0.67913765  0.0600072  -0.17428394 -1.72281611 -0.48701054  1.66928339 -1.35210156  0.70127356 -0.85122234  1.47002852 -0.89658785 -1.31318831 -0.588395    1.67610288  0.22964895 -0.20802538 -0.67584395 -1.76907349 -2.55634236 -0.93355167 -0.43125767  0.17652737 -0.29678553 -2.38799906  2.26396823 -0.14835134  1.10083497  2.24122524  0.12249818 -1.04246044 -1.00854993 -2.43417168 -0.38011625 -0.15070349  1.24448407  1.15695941 -1.28248358 -0.40268907 -0.34782016  0.39396092  0.50025815  0.75316936  1.99659944  0.04643513 -1.76228547 -1.46161509 -1.78096569  0.49917811
development  4.85652733 -0.66891491 -1.32056594 -1.92612243 -0.94830048  1.90471029  0.14429581  0.05920367  1.69068873 -2.49915814 -0.41776696  2.01007843  0.71087992 -2.0307548   0.35890704  2.30684519 -0.37506321 -0.01546317 -1.13216543 -0.18751429  1.16224551  0.71111196 -0.32189283 -1.54847312  0.21282072  0.84146035 -1.37160277  1.18746614  0.74285072  2.63673949 -0.56656528  1.91653597 -1.66027427 -0.71278846  1.51204181 -1.04027355 -0.22061837 -0.10628301  1.51742768  2.20430803  0.34327537 -1.20944929 -1.20764101  0.53862798  1.24669087 -0.68826699  3.15800905  2.93206882 -0.64763457 -0.53871208  2.96516037  1.06767273  0.10803987  2.02394485  1.98974478 -1.14325964 -0.86446482  1.37042165  1.40178347 -1.51183879 -1.48016703  0.26729316 -0.13054603  1.71614075  0.09473477 -1.56540549 -1.29172432 -3.65879083  0.72774696 -0.46079689  0.09362815 -0.20713837 -2.83485174 -0.99829471 -0.48133954  0.28967816 -1.49292135 -0.17132139  1.40606487  0.0094607   0.06963502  0.18994322 -2.90875435 -2.00646019 -1.24515843  1.99610901 -0.07123054  1.57852566  0.03133989  1.61961269  0.88538289  0.83480233 -0.32928115 -1.38699591  0.4853718   1.9388175   0.4428257  -0.35549024 -2.88885999 -0.01953316
