437 80
surface -0.20934784  0.47221422 -0.80684984  0.12181263 -0.17629349 -0.26129627  0.28082043  0.08074479 -0.44670907  0.47590289 -0.53689259  0.53572571 -0.02338673 -0.53775173  0.67467636  0.81398618 -0.11045967 -0.7921136   0.18792464 -0.49299461  0.19357064  0.19901852 -0.00783283  0.34843224  0.09998573 -0.11288705 -1.03790295  0.60473984  0.05981433 -0.31284854 -0.03431295  0.37428337 -0.26802343 -0.14921321  1.10102463 -0.26170722 -0.45131046  0.4605116   0.17858642 -0.28763565 -0.18356648 -0.58106464  0.42256701  0.08426438 -0.32530308 -0.02583867  0.11687871 -0.21499622 -0.40938917  0.16152152 -0.17458123 -0.41635802  0.29305106 -0.14770249  0.06283857 -0.35683575  0.09590055  0.26950499  0.13032675 -0.1991442  -0.08686702  0.05993821  0.04161859  0.68494451 -0.33089384  0.22169578 -0.07642301  0.72077805 -0.19019319  0.20418289  0.47501856 -0.29030836  0.29880154 -0.24473239 -0.42503774  0.55780405  0.2464457   0.21957707 -0.202823   -0.72662789
galaxy -0.87720692 -0.58053786 -0.6149506  -0.68705469  0.16366833 -0.07811648  0.20659365  0.38588029 -0.47832811  0.42402247  0.0410248   0.05597068  0.60378397 -0.88608444 -0.3664645   0.73862022 -0.02331296 -0.77452087  0.65454465  0.21445724 -0.10996711 -0.17187187 -0.17662616 -0.32256147  0.17222561  0.106058   -0.02499179 -0.50243932 -1.27949429  0.13883287 -0.18506414 -0.49688703  0.33836117  0.7145927   0.28680766 -0.00679597  0.19290838  0.83730537 -0.27436778 -0.21797135 -0.09809953 -0.4077329  -0.41415581  0.53536052  0.06335403 -0.85031033  1.03242004  0.01723729 -0.14880274  0.26024914  0.11892647 -0.6011678  -0.42167404  1.26290059  0.17223069 -0.7170161   0.02145445 -0.23805676 -0.84183258 -0.52115571  0.37639832 -0.74529666 -0.56466711  0.30950978 -0.17046002  1.01595545  0.07670627  0.25514141 -0.64339995  0.02173764 -0.66234988 -0.52070206  0.70045871  0.18385629 -0.54056191 -0.35803291  0.18750089  0.8468616   0.39606798  0.09396291
type -0.16045861 -0.05672215  0.76740688 -0.61453336 -0.32316148  0.0442255   0.4444316   0.12031868  0.08884215  0.0325437   0.13851044 -0.26021156 -0.38819605 -0.16909377  0.67054188  0.16185397 -0.05562423  0.49761701  0.37694982 -0.29713687 -0.05128793  0.26733765  0.08645818 -0.29495138  0.32528701 -0.3264482   0.54815388  0.2402596   0.26144698  1.21436918  0.44221318  0.60996187  0.43882909 -0.06630464  0.00485034  0.0110357  -0.9635843   0.30575395  0.0671213   0.35437703 -0.07500377 -0.11870802 -0.29957569  0.14640516 -0.05385322  1.08369803 -0.45298558  0.27022889 -0.3920224   0.16631241 -0.60057706 -0.37214655  0.36280766 -0.1573049  -0.56951261  0.244023    0.2706753  -0.08383097  0.42564666 -0.17870983 -0.44870868  0.356702    0.68173802  0.18079047  0.44831416  0.50127739 -0.58694291 -0.33673531 -0.68880028  0.18252611 -0.09308699 -0.04950239  0.18332791  0.07897248 -0.38188705 -0.13127938  0.68095303  0.0814652   0.21449207 -0.40435329
baby -0.22083175  0.44145304  0.71340239 -0.23501405 -0.43830982 -0.99750781  0.20629895  0.02032596 -0.6617282   0.07037608 -0.04087241 -0.14572527 -0.59852755 -0.02634856 -0.38413578  0.23177578 -0.57632452 -0.08656888  0.54850364 -0.48583204 -0.29127607 -0.67392093 -0.45415574 -0.47319841  0.01238012  0.1579041   0.27503467 -0.6494267  -0.11299098 -0.24118917 -0.37342021  0.01653457  0.19703935  0.20659652  0.67007506  0.15357791  0.12871073  0.40492836 -0.05492203 -0.285712   -0.90875632 -0.27864176 -0.31927767 -0.5665586  -0.32658026  0.59342217 -0.15294699 -0.31082204  0.95075047  0.01310408 -0.10263173 -0.08718101  0.2259118   0.16877094  0.49156269 -0.48611289  0.93197554 -0.49943751  0.68580121  0.58148372 -0.32931882  0.34981069 -0.4306584  -0.5793944  -0.4079929   0.43262765  0.26084444 -0.26497942  0.24032643  0.16312358  0.02807108 -0.46423554  0.22418293 -0.66475165  0.33881015  0.35998735  0.65784311 -0.8684293   0.99246085  0.10726332
boxing -0.01940126 -0.20349294  0.76493084 -0.52354091 -0.07107056 -0.01041226  0.1252525  -0.90608835 -0.03367337 -0.19111437  0.4959307  -0.13399579 -0.43751305 -0.7618627  -0.06591946  0.61441547 -0.32667443 -0.31664953  0.00894321  0.56845868  0.10993014  0.20534681  0.00883949  0.06669155 -0.04138951 -0.37352616 -0.10490732 -0.41348761 -0.11905967 -0.46142921 -0.00602941 -0.3983748  -0.04994459 -0.0730764  -0.53629994 -0.39755282 -0.11953577  0.47699645 -0.07689415 -0.03725913  0.48230505 -0.26313204  0.03867209  0.06707635  0.06550109  0.25123405  0.58444047  0.67228484 -0.03058674  0.39306766  0.08641826 -0.20296314  0.85908723  0.69742447 -0.19476976  0.1363886   0.2109939   0.34604806  0.18920895 -0.31679124  0.81855798  0.2999571  -0.16803531 -0.07624458  0.20681034 -0.21556816  0.4164772   0.50498074 -0.34904137 -0.19677997 -0.02848735 -0.29726297  0.1259515   0.17410672  0.17975417 -0.38401842  0.54105961 -0.31629473  0.22232983 -0.25119209
professor -0.67183125  0.69181198  0.78814     0.58224225 -0.79674745  0.04342455  1.56301951 -0.45176896  0.47208476 -0.25471908  0.30536216  1.05418766 -0.78227174  0.04054488 -0.44847727 -0.86502862  0.26073962 -0.21779622 -0.37075007  0.58871138 -0.17663577  0.66257739 -0.17149344 -0.1841073  -0.61386144  0.00970565  0.78556299 -0.64123768 -0.84882927 -1.44831228 -0.70806408 -1.04841793 -0.30891612 -0.10505342 -0.83786583  0.72020531  0.18201298  1.04192579  0.29010868  0.86307955 -0.71150208 -0.22127214 -0.3582162   0.63571525  0.64948684 -0.39364359  0.11313011  0.2335106  -0.48585954  1.96025348 -0.7191987   0.22855279 -0.01330816 -0.09010695 -0.58599347 -0.26119047  0.46950442 -0.63398743  0.15039253 -0.70821726 -0.02763515 -0.40046605  0.57654494 -0.00801876  0.64280295 -0.45471591 -0.32279074 -0.35408229  0.16637211  0.13551579  0.0249733  -0.76182199  0.22606975 -0.22031339  0.06049985 -0.16287653 -0.57273465  0.31331456  0.7620517   0.51542562
keyboard  0.10717477  0.45066628 -0.2522333   0.09380482  0.29090634  0.12679     0.3071909   0.31802583  0.22329287 -0.01717219 -0.72992647 -0.19942418  0.06494211  0.19505441  0.37714121  0.13175994 -0.55492616 -0.09965757  0.87751555 -0.25181675  0.25589514  0.15996712  0.27895409  0.13637441 -0.14607532 -0.06303404 -0.46578729  0.23623148 -0.03223141 -0.29703835 -0.04759205 -0.97737306 -0.46750242 -0.21592122 -0.37680602  0.1030727   0.16409288  0.51253271  0.12857002  0.47823325  0.2678504  -0.5421319  -0.40637121  0.02281199 -0.3001661   0.93494046  0.45884344 -0.22798836 -0.29867068  0.10015872  0.11343697 -0.1861598  -0.04694562  0.37905878  0.14020063  0.54574233 -0.58941561 -0.39185053  0.32047001 -0.0916163   0.07963448  0.13819729 -0.21076849 -0.38160479  0.66551882 -0.09214267  0.00814882  0.54530782 -0.28293502 -0.51021898  0.54025906 -0.29618695 -0.5668425   0.37718812 -0.21546006  0.00168949 -0.0719538   0.32692078 -0.21939537 -0.09488885
gain -0.76983911  0.77868772  0.03706388  0.03947197  0.04700002 -0.23602121  0.0944505  -0.09384233 -0.07401925  0.49344701  0.0303965  -0.28352833  0.02846555 -0.62855166 -0.18638346 -0.39270496  1.07557964 -0.7368952  -0.25348875 -0.06814074 -0.46083933  0.12326607  0.46027416  0.04457948  0.3393093   0.88422793 -0.40627214  0.1402009   0.19977404  0.99020422 -0.46330348  0.44036132  0.59281802 -0.385535    0.19177623  1.13701987  0.56983197  0.31839842  0.22544709 -0.4611474  -0.44181213 -0.0872121   0.11539839 -0.29067746  0.34040415 -0.13385038 -0.24451199  0.73702639  0.16941419  0.20904239 -0.01098078  0.43765381  0.32301876  0.30091155  0.07334378  0.63857913 -0.64739257 -0.18973517 -0.23536819 -0.31863195 -0.31333169  0.33610845  0.63598859  0.02714294  0.17814417  0.0423716  -0.13831182  0.73095578  0.09986334  0.37426311  0.33448064  0.72934365 -0.47066993  0.25600147  0.06786111  0.14609885  0.59616941  0.14203474 -0.13251445  0.27822307
challenge  0.14104961 -0.0864824   0.22191392  0.2257621  -0.46410584 -0.74733764 -0.27260771 -0.10757776 -0.64933109 -0.0978087   0.57302964  0.47006005  0.02541603 -0.76006567 -0.13398167  0.444902    0.78550547  0.12322229  0.02629343  0.3828657  -0.2024117  -0.27853501  0.78950357 -0.11241776  0.19977857 -0.10873705 -0.06077679  0.64860141  0.50593835  0.33292025  0.33775991 -0.72396719  0.3213526  -0.53771096 -0.08533316  0.17017224  0.61393517 -0.00832258  0.02050168 -0.04123444  0.25797832  0.23375081 -0.69632721 -0.44220027  0.03538008  0.80891585 -0.50233382 -0.39753658 -0.07785124  0.43461692  0.09012339  0.25046578  0.11345531 -0.39490098  0.43749323  0.01121698  0.09663402 -0.49990168  0.09919934  0.25381705 -0.09040586 -0.11442091  0.09338963 -0.22774544  0.31947604 -0.10593766 -0.15878376  0.56616038 -0.18804272  0.44723222  0.27004644  0.38540196  0.00837597  0.84230137 -0.08020371 -0.44078434  0.10128069 -0.04308905  0.24093731 -0.23657867
airport  0.02457387  0.78178346 -0.18070266  0.3616035   0.28260672 -0.04594408  0.02320351 -0.2022911  -0.41049749 -0.11713918  0.06225049 -0.26527011  0.42963099 -0.53357744 -0.74492854 -0.07123704 -0.76361591 -0.0827457  -0.63457686  0.35327131  0.08772215 -0.41241494  0.15368511  0.55680203 -0.40998545  0.33190149  0.05337337 -0.2919541  -0.93785369 -0.38479203 -0.02393577 -0.59492344 -0.20347284 -0.71411288 -0.34486115 -0.07918771 -0.28025872  0.30237702  1.14897478 -0.1538242  -0.41631305 -0.15882377 -0.23999587  0.08508545  0.28094363 -0.80783308 -0.45713657  0.44073483 -0.49536285  0.18769528  0.31593156  0.04868116 -0.09530643  0.07193469 -0.41816944 -0.04615614 -0.3384133   0.14390275 -0.2346843  -0.17554945  0.12146389 -0.52075303  0.35157329  0.42015627  0.36356762  0.04160713 -0.05764669  0.54028445 -0.11807615  0.48654073  0.31135699 -0.21618593 -0.02596866 -0.33386412 -0.9186787  -0.09972975 -0.40789366  0.04109533  0.21443631 -0.71119034
arrival -0.08911977 -0.01913571 -0.1582651  -0.23755065  0.20723084  0.05275032  0.00099681 -0.22406124 -0.13632914  0.16212794 -0.14003459 -0.12845851 -0.05375199 -1.11052823 -0.23919281  0.22394896 -0.38552129 -0.0153449   0.61132091  0.05799107 -0.16223221 -0.44795412  0.07963986  0.18701497  0.30830979  0.11004132 -0.19310336  0.30384403  0.30462626 -0.10053301  0.05954301 -0.64872313 -0.06144983  0.26014772  0.50423145 -0.51797903 -0.43617159 -0.11009669 -0.047461   -0.68252105 -0.54484487 -0.00053786  0.30780101  0.51325357  0.42616951 -0.38460469 -0.69543588 -0.1150457  -0.1706526   0.26527131 -0.03718816 -0.11948367 -0.04317598  0.03974981  0.48138872  0.12617715 -0.12430662 -0.41942191  0.07114705  0.34803662 -0.41661894 -0.35763466  0.16420057 -0.05563845  0.13514698  0.18004771  0.02235893 -0.05429803  0.15223294  0.27980116  0.20134276 -0.08826585  0.28080586 -0.10130748 -0.35662943 -0.15119188  0.1611845  -0.44522083  0.55383176 -0.05883701
Mars -0.62648916 -0.01978009 -0.78264713  0.14694436  0.21429197  0.38924012  0.38867241  0.10812523  0.04652129  0.39576688 -0.50951111  0.15805976  0.02463426 -0.9310596   0.55897081  0.11243702 -0.35107818  0.28589445  0.47317487  0.51614708 -0.22159427  0.07610566  0.52136683  0.10880095 -0.27281195 -0.46607506  0.29933801 -0.23510474 -0.08857369 -0.57026017 -0.17951733  0.4612287  -0.40702236 -0.3356114   0.2907671   0.18775339 -0.39839339 -0.34897724 -0.97086799 -0.16658074 -0.1444815   0.52005041  0.14074039 -0.42615876 -0.28325549  0.78255957  0.01571646 -0.2901392  -0.24260958 -0.20001709  0.43246275 -0.10105139  0.28100711  0.24525423 -0.12066671  0.09522549 -0.3247422   0.98317969 -0.17425437 -0.38896501  0.18101314  0.16460347 -0.36948958  0.10195927 -0.07314226 -0.79084814 -0.32891494  1.18811059 -0.44987702 -0.02925183  0.78876537 -0.3630088  -0.48776948 -0.00342745  0.00280189  0.51999921 -0.02550583  0.13875753 -0.6319167  -1.13035417
media -0.72314292  0.24453445  0.32998687  0.21817797  0.44041583  0.06766458 -0.19416685 -0.00273808 -0.69343823  0.25438195 -0.44607955  0.49373066  0.58360738 -0.41451022 -0.68576151  0.22629249 -0.36469954  0.10717013 -0.00972991 -0.0768616   0.13634634  0.41761601  0.6828047  -0.28787282 -0.3586618  -0.3187778   1.27780688 -0.3732667  -0.90513873 -0.73950064  0.1026694   0.10059388  0.87871599  0.8887499   0.09188304 -0.31843042  0.74257386  0.54964519  0.35313213  0.2320348   0.14880583 -0.28916019 -0.74513245 -0.23669462 -0.21269332 -0.50357652 -0.47148216  0.46085581 -0.54745936  0.00367831 -0.44093114 -0.23169604  0.24277642 -0.47682697 -0.90073961 -0.58253217 -1.12891674  0.46710223  1.10856628  0.01580238  0.18516178  0.76234472  0.93866551 -0.66465664 -0.18514597  0.09778443 -0.66251874 -0.28835088 -0.95955312 -0.09752814 -0.31291813  0.82981789 -0.89880943  0.20039374 -0.61636883  0.23870763 -0.06576854  0.75918841 -0.29414254 -0.41429913
feline  0.70602047 -0.55015361  0.38107577 -0.22601849  0.17833844 -0.28998181 -0.12277344  0.56839287 -0.23306039  0.21895859  0.33786204  0.68761444 -0.41625431  0.83772224 -0.20920339  0.41320115 -0.29674327  0.21750805  1.19577718  0.38270965 -1.16506839  1.02781212 -0.28052866  0.3309015   0.05933142 -0.73514152 -0.03651476  0.75984728 -0.75689    -0.54744303  0.13530189 -0.156932   -0.51082671  0.52936131  0.67395049 -0.23338836 -0.18374182 -0.19724151 -0.55441266 -0.81452322 -0.60404289 -0.55086738  0.16130386  0.18816142 -1.09723997  0.05582835 -0.62437606 -0.40882885 -0.53176844  0.16978331  0.62210149 -0.32083952 -0.75714397 -0.78062195  0.43528625 -0.1036445  -0.17356642  0.3341969  -0.3079679   0.98583257  0.30132455  0.33860397 -0.4844436   0.7957356   0.5299896  -0.12362278  1.01550543  0.03551911  0.05357295 -1.21099508 -0.49740559  0.22064872 -0.00877085  0.51963228  0.69676584  0.61469948 -0.80635333  0.20012763  0.7338379   0.67911136
lobster  0.72946733 -0.09291506  0.1557164   0.20504203 -0.53117871  0.02430029 -0.53602874  0.47860309  0.47221041  0.48804957  0.07289849 -0.34185821  0.39855063  0.71916664  0.06298708  0.60542274 -0.3582803   0.15209162 -0.50193667 -0.12867035  0.54596245  0.2728647   0.08213335 -0.44519809  0.15363213 -1.12102115 -0.42855453  0.08503366  0.77741289  0.1091746  -0.17995052  0.15203065 -0.53392619  0.06479231  0.29933128  0.14458556 -0.09345239 -0.45017511 -0.15823682 -0.11325653  0.64542449 -0.32757735 -0.26925933 -0.37952778  0.44759101  0.60626954  0.56686437 -0.39463374 -0.15544559  0.35635287  0.12595554 -0.69881439 -0.19133399 -0.35795239  0.29032001 -0.43462002 -0.36101934 -0.10288661  0.10566986 -0.27656108  0.69011843  0.27473497 -0.42618698 -0.04260616  0.7097643  -0.20753464 -0.53558493 -0.12103824 -0.18373598 -1.2268002   0.56128234  0.18583614  1.00918245 -0.00052691 -0.13153708  0.06126493 -0.04553358 -0.3531059   0.82511407  0.59501475
terror -0.18472263 -0.36669236  0.27999124  0.46653745  0.09518036 -0.55117869  0.09995856 -0.44461876  0.60443413  0.52717948  0.23219275  0.22277199  0.39472777 -0.31282476 -0.45042509 -0.50366801 -0.67126274  1.07067037 -0.24349089 -0.12481077 -1.40080285  0.63646871  0.16742608 -0.14400539  0.62402225 -0.34041059  1.72605181  0.67657757 -0.45227748  0.17949238  0.02602473  0.27521566  0.48348963 -0.16686815 -0.33068612  0.17935833 -0.7353977   1.15813661 -0.04566006 -0.52126575  0.40649393  0.35553211  0.08291621 -0.52817678  0.56182802  0.12468966 -0.05819991 -0.16319861 -0.16749084  0.05364438 -0.29175475  0.25408435  1.37115908 -0.07253908  0.77005184  0.79936314  0.04261473  0.17934157 -0.04075542 -1.20593703  0.51868284  0.67333972  0.05140866 -0.62461281 -0.30246222  0.12329902  0.02122569  0.0898176  -0.27102217 -0.36118957  0.92251718 -0.37290981  0.13086164  0.92917484 -0.60584533  0.23619285  0.13811623 -0.84689009 -1.38626957 -0.92091131
defeating  0.08593813  0.1656606   0.0727354  -0.1513385  -0.0767554   0.2519981  -0.02693256 -0.04854617 -0.33503556  0.04997068 -0.45049584 -0.59403056  0.27608371 -0.16625163 -0.37679765 -0.04434738 -0.37487468  0.32363328 -0.38735861  0.21676199  0.14162204 -0.08101876 -0.704651    0.05398414  0.43624413 -0.27122802 -0.05752896  0.22072181 -0.0258809   0.1364512   0.18970719 -0.42776561 -0.10577203  0.27369219  0.15320508 -0.03190336  0.16741355  0.01401244 -0.56453586  0.06244622  0.15337977 -0.15221447  0.14050438  0.0686169   0.43485713 -0.36775428 -0.00461575  0.04881687  0.282502   -0.01574871  0.0188609   0.25818914  0.18539332 -0.02920064 -0.16049919 -0.16439173  0.29792434 -0.07966838  0.42298999  0.04893775  0.074619   -0.42662916 -0.07459161  0.06890971  0.21013147 -0.44399303  0.18295534 -0.65325475 -0.13356484  0.10248986  0.32791847  0.16034068  0.23458248  0.2998879  -0.44289869 -0.07545624  0.011079    0.01401999  0.19321334  0.04256375
record  0.63828087  0.56754673  0.85228562  0.05365168  0.26352045 -0.72448665  0.80933869 -0.86607659 -0.22236623  0.41303033  0.36782336 -0.09093952 -0.56656224 -0.58341336 -0.15197958 -0.32068604 -0.25020292 -1.15113497 -0.31841105 -0.62596512  0.56227201  0.16646674  0.40326834  0.22223285 -0.14099932 -0.90529251 -0.69577479  0.67981178  0.4291535   0.56805825  0.04155173  0.55684888  0.27541608 -0.69101274  1.08932841 -0.46515304  0.17071411 -0.09230117 -0.73800856  0.31741095  0.896936   -0.96147811 -1.35055017  0.25771743  0.41371477  0.03938715 -0.8414557   1.31335711  0.01047442 -0.34950992 -0.45256454  0.68595684  0.04716331 -0.17884585  0.00283511 -0.21978827  0.05224873 -0.12705484  0.60546607 -0.64851642 -0.08056992 -0.05406681 -0.08575754 -0.55515712 -0.07891294 -0.60155451 -1.07438707  0.19452791 -0.17053351  0.73452407  0.21048835  0.60793936  0.1028192   0.43550444  0.1928692  -0.43020451  0.20021601 -0.84920317  0.1327765   0.36584941
object  0.11135107  0.41550288  0.01920792 -0.65690041  0.25074756  0.225364   -0.16133057  0.24987802  0.26010665  0.10865574 -0.20768471  0.51319575 -0.41214454  0.18703918 -0.05155735  0.53596258 -0.17149913  0.03574018 -0.21643786  0.22374265 -0.25433823 -0.07852415 -0.29103774  0.55142635  0.13264215  0.06599987  0.04623062  0.05227202  0.61012816  0.34733173  0.56034869 -0.33304679  0.07837583  0.11373802 -0.13948868  0.03248759  0.2900801  -0.01593051  0.0382145   0.41856247 -0.5265801  -0.46566296  0.1640045   0.07010452 -0.60445857  0.8689487  -0.00157978  0.17045933  0.1796919  -0.108272   -0.57558042 -0.1174048   0.39947617 -0.00055249  0.06381074  0.13264596  0.5114578  -0.13100883  0.06210375  0.36935461 -0.50028867  0.18000261 -0.20876329  0.36746806 -0.20642436  0.1931431   0.21592994  0.18633769 -0.24362291 -0.48429286 -0.45498365 -0.21123002 -0.52826387 -0.15566167 -0.40730569 -0.04583588  0.08801919  0.20951779 -0.10662425 -0.5472706 
Arafat  0.372554   -0.79497027 -0.08800666  0.03817609 -0.09020813  0.09531787 -0.20263301  0.79380208 -0.75458395  0.93795067 -0.19423427  0.27564767 -0.33639121 -0.54877973  0.74743521  0.46468559  0.10430595 -0.53029686  0.10332698  1.25629723 -0.59592772 -0.61899781 -0.80088907 -0.33666953  0.26358899  0.53148186 -0.17433178  0.76233983 -0.44838116 -0.60404229 -0.62239158 -0.14270118  0.38966647  0.19095479 -0.98048139 -0.33047053 -0.84912694  0.11972822  0.24261576  0.03508925 -0.31130335 -0.41237044 -0.66249609  0.88175869 -0.70337903 -0.06741004  0.53887558 -0.16031648  0.19862612 -0.03564468  0.58241403 -0.85662138 -0.04293987  0.53611016  0.40407127 -0.16497837  0.44085652  0.32090825 -0.70686007 -0.37028804  0.62552112  0.33617869 -0.50638342  0.11902457 -0.17210349 -0.83092719  0.57377154 -0.61787534  0.96519017  0.61259687  0.02440742  0.59082419 -0.14289156 -0.97399896 -0.83286905  1.08914328  0.17900096  0.21461669  1.08633578  0.34880018
entity  0.02277854  0.43736309  0.09234077 -0.36958671  0.16544886 -0.1699203   0.3184824   0.26874438 -0.36520121  0.15479247  0.27980128  0.1312145  -0.24322717  0.2852999   0.07546055 -0.12330516 -0.53782099 -0.14936469 -0.02644492  0.45150566 -0.14945951  0.46723256 -0.59396988  0.04411619  0.03195794 -0.2530514   0.65509844  0.15370907  0.35688585 -0.40676665 -0.17047046 -0.38160586  0.32566118 -0.6009562  -0.19938964  0.28575531  0.37625241 -0.27918875  0.5976848   0.39642212 -0.09626318 -0.17623273  0.10042404 -0.05499603 -0.06136409  0.51985079  0.17007571 -0.03500761 -0.42315036 -0.1038931  -0.128397    0.39050379  0.1125128  -0.19523679 -0.38734904  0.6914162   0.11015402  0.29118359  0.46481752 -0.43278039 -0.02134594 -0.19327891  0.58294183 -0.32132125  0.15317406  0.07715023 -0.60330796  0.62444478 -0.71744508 -0.84502941 -0.03999156 -0.0354265   0.2884813   0.1243237  -0.35700083 -0.05677359 -0.17487359  0.14402574  0.07019541 -0.56921637
hospital  0.27623257  0.90454137  1.79899454  0.21035898  0.4114854  -0.43349648 -0.35541797 -0.15209335 -0.11556864  0.46870142 -0.5154351   0.72429299 -0.88909841  0.19031158 -0.28409594 -0.67275965 -0.41551599  0.76500434 -0.81008255 -0.42643595  0.86692792 -0.68131459  0.67554545  0.14127186 -0.80914378 -0.01925952 -0.98678362  0.25621948 -1.23383558 -1.06098831  0.57293159  0.07005817  0.80324817  0.95796239 -0.08584279 -0.59790409 -0.18196598  0.93174434  0.71776479 -0.06032746 -0.19921637  0.44586229 -0.58175862 -0.2073355   0.42227328 -0.66696405 -0.29503745  0.18181466 -0.33271497  0.00964022  0.09394198 -0.06388995 -0.17368706  0.09543047 -0.21887612  0.31166965 -0.10356409  0.02069426  0.46464556  0.74647117 -0.23691341 -0.52185744  0.23412943  0.53295469  0.27428743  0.1918036   0.50908923  1.20167112  0.33785409  0.14235997 -0.25745118 -0.56210983 -0.55204296 -0.18570772 -0.45344767  0.46926785 -0.46046564  0.4740724   0.59399462 -0.88251364
Wednesday -0.24033397  0.10168856  0.3666904   0.69923204 -0.0845817  -0.38781035 -0.29677898 -0.08669479  0.01523535  1.35346067  0.2992174   0.58114135  1.21663618 -0.53935039 -0.48671061  0.17413996 -0.04526636 -0.05639605 -0.30231225 -0.05205067  0.68965852 -1.01313925  0.99560249 -0.05002312 -0.08620135 -0.30519184 -0.15606788  1.29139185 -0.34790078 -0.02807568  0.12496209  0.85567999  0.57781339  0.28813142  0.17128739 -0.52729511  0.04041351  0.01382376  0.02269058 -0.5918985  -0.66435993  0.24226302 -0.33504391  0.25539851  1.02324092 -0.85232913 -1.15110183  0.57787561 -0.05181945 -0.24338025  0.29871142  0.15387788 -0.28997165 -0.35431945 -0.67061383 -0.13415071 -0.14579658 -0.16048682  0.68538696 -0.37275082  0.19739965 -0.3762958   0.49938291 -0.59211105 -0.27419722 -0.12842801  0.00711769 -0.71437263  0.32732245  0.48383945  0.35289752 -0.68455166 -0.56735295 -0.16222648  0.1257205  -0.10245068 -1.06809926 -0.30243304 -0.1009453  -0.86483932
line -0.04544446  0.50415707 -0.12338183  0.17491788  0.41724026  0.06031013  0.61170626 -0.45621288 -0.62396771  0.41514605  0.50272447  0.45270002  0.22518085 -0.00871914 -0.08471704  0.78628504  0.15003735  0.43844354  1.06029034  0.29713377  0.34855473  0.77293962  0.74262381 -0.40774685 -0.47692817 -0.65686035 -0.40119883  0.6262905  -0.23318554  0.73740387 -0.6182667   0.16958746  0.61132711 -0.3929618  -0.03472275 -0.12871641  0.16271362  0.32231924  0.46636277  0.42141831 -0.28138691 -0.87556875  0.06390624 -0.51322109  0.69988871 -0.03512035  0.03880877  0.39798141 -0.65740937  0.23037329 -0.1024822  -0.07876009 -1.27072358 -0.49157     0.33155024 -0.1538215   0.1438894  -0.33154637  0.48596355  0.03894408  0.41669652 -0.54598951  0.55312866  0.53613985 -0.50742364 -0.13254181 -1.10398364 -0.26280484 -0.36693275  0.59520257 -0.15513784  0.19498582 -0.1964848  -0.4112376  -0.85114181  0.98404396  0.48484722  0.10434792  0.30065483 -0.09986988
eat -0.84848869  0.36574399 -0.20776677  0.32275552  0.48008806 -0.73345387  0.10108566 -0.25679404  0.7552613  -0.21565045 -0.2603544  -0.23464265 -0.03397006  0.05465912  0.10034744  0.42371029  0.13491912 -0.18400423 -0.58912241 -1.03343368  0.33873463  0.36088219  0.11531602 -0.33691123  0.13448039 -0.18166393 -0.19758244 -0.49415144  0.30532366 -0.27610978 -0.24585563  0.24917106 -0.07028263  0.30101797 -0.43912148  0.19541034 -0.16713491  0.12331337  0.62606698  0.22318935  0.20688045 -0.6725058  -0.15000439 -0.40348649 -1.25111556  0.56891346  0.13057524  0.26991233  0.16472307 -0.0702709   0.0291466  -0.16222155  0.38096744 -0.34344897 -0.23482433  0.08698589  0.69959438  0.01377573 -0.22554886  0.49732026  0.10690045  0.72035021 -0.88816458  0.30510351 -0.18476509  0.07435162 -0.67107832 -0.07353777  0.25515544 -0.12750453 -0.64000261  0.06393306 -0.80295932 -0.33415157  0.11485007  0.70807391 -0.04242624 -0.29073644  0.25780722  0.09610942
decoration  0.02251995 -0.20430851  0.06388242  1.03458512 -0.2376253  -0.1066865   0.44121319 -0.35260305  0.51269215  0.43257105 -0.04061343 -0.53272158  0.69238222 -0.57935196  0.15839985 -0.08270349 -0.14101714 -0.0819121  -0.77155292  0.37347582 -0.74926883  0.20091558 -0.01488516  0.29640454  0.20369293  0.40952334 -0.41760167  0.23745705  0.10886401  1.10435534  0.20191354  0.2154388  -0.4269807  -0.32428819  0.23310028 -0.03802195 -0.20591347 -0.3911162   0.8382448  -0.84491241  0.53106636  0.30842403 -0.46799201 -0.44243273  0.37290698 -0.53501743  0.92424047  0.36305684  0.08309174 -0.19687356  0.96058249  0.44578537  0.05717957 -1.59746087 -0.57894373  0.57234126 -0.19462621 -0.0326357  -0.58924067 -0.43872318  0.19904345 -0.72152722 -0.08621174  0.96462476  0.13406019 -1.36228609  0.7111246   0.25004348 -0.81919146 -0.13633692 -0.03161074  0.73113209  1.80381918  0.96085668  0.64171165 -1.2786063   0.39932862  1.04002392 -0.54988968  0.71470052
school -0.49028611  0.12651888  1.66297424  0.58355933  0.4781788  -0.27059919  0.60602766 -0.35559756 -0.51904011  0.20199989  1.12544143  0.695557   -0.274883    0.7005325   0.28635636 -0.65973842 -0.27867851 -0.77651626  0.10061739 -0.26065457  0.4227064   0.07975497  0.88170254  0.22194959 -0.71237236  0.14471707  0.07616201  0.65892512 -0.77758545 -0.64817363 -0.40291813  0.82498252 -0.23762669  0.13755715 -0.23497865 -1.17156327  0.43198085  0.57479346  0.31609789  0.71080828 -0.27275154 -0.39315045 -0.92889142 -0.58005893  1.08295655 -0.00748827 -1.0544349   0.2929993  -0.4593311   0.37442869 -0.11030272  0.20886844 -0.21306637  0.64136279 -0.45009631 -0.409244   -0.27281153  0.26797077 -0.10791527  0.59389859 -0.3352026   0.03005817  0.06144856  0.56819206 -0.28546295  0.47236055 -0.73083961  1.32516813  0.65837228 -0.15655653 -0.45833868 -0.60845041 -0.4259631   0.15603364  0.49811372 -0.35237375 -0.38397491  0.54905349  1.47876775  0.04764014
kilometer -0.09202223 -0.18844661  1.04906976 -0.5449335  -0.37525833  0.55756366 -0.73901677  0.49417844  1.20949805 -0.42358163  0.06347125 -0.34114739  0.44332105  0.91237843  0.41379112 -0.13034961 -0.78881419  1.49152708 -0.09846549  0.04246822 -0.23677582  0.14157373 -0.18351653  0.30234426  1.05045581 -0.63406277 -1.32499313 -0.60771459 -0.88542157  0.23444821  0.07260549 -0.08581629 -0.06631431 -0.42210042 -0.57056975  0.16616422  0.12745646 -0.35237083  0.44208872 -0.44663912 -0.41076154 -0.18603174  0.34379873 -0.68325436  0.45317134  1.288589    0.78118145  0.65122199  1.81643522 -0.79949009 -0.18974623 -1.11301792 -0.27229801 -1.28540826 -0.99706852 -0.78139061  0.49793634 -0.33281979 -0.21326876 -0.45916015  0.1337541  -0.0824233  -0.59830153 -0.28030723  1.46854818  0.09658246 -0.68938124  0.50476599  0.07892656  0.9030323  -0.55064249 -0.64385712  0.27224833  0.32168928 -1.90379083 -0.32681024 -1.01613152 -0.32036453  0.68864954  0.4611764 
Maradona -0.37865004 -1.25931334 -1.33630228  0.24480768 -0.09309267 -0.40383142 -0.28425589 -0.42431051  0.4573887  -0.13645965  0.51507187  0.26957107 -0.973562    0.00076737 -0.02869975 -0.39332673 -0.18045825 -0.76255929 -0.16708279  1.50918067  0.36245346  0.73109341  0.18497866  0.31109852 -0.25206339 -0.034767    0.11297403  0.53009391  0.26624173  0.4077346  -0.19374934 -0.34493083  0.01410124  0.4753812   0.03324694 -0.34782702 -0.0203109  -0.15345788  0.32436249 -0.51159483 -0.73909491  1.06536889  0.56231093  0.08045981  0.12631366 -0.20139495  0.45735374 -1.38520789  0.33867514  1.02900755  0.13438541  0.73835409 -0.16900095  0.91097355  0.55849963 -0.02115764 -0.14605349  0.11289439 -0.72564161  0.18008973  0.07171714 -0.23425218 -0.4505353   0.90942949 -0.33715764  0.12463786  0.44157279 -0.03217806  0.28896043  0.43794662  0.13125856 -0.20367564  0.01056501 -0.578906    0.6255489  -0.90991831 -0.3134988  -0.74658853 -0.16674533 -0.39851341
organism  0.18939848  0.41850224 -0.17709947 -1.08500659  0.47138083 -0.69515866 -0.38934869  0.10741451 -1.57574964 -0.5160318  -0.62821054  0.30780363  0.30468252  0.77717769  0.94855469 -0.64642262 -0.03831425  0.04175654 -0.64184642 -0.6243239  -0.08419079  0.88379592 -0.66522747 -0.46243596 -0.97743607 -0.23203412  0.46132791 -0.6193648   1.16386819  0.78164041  0.31712914  0.44162428 -1.1773448   0.28306395  1.1796931  -0.66588873 -0.23849787 -0.1527539  -0.01533055 -1.49030781  0.01513201 -0.36291122  0.00810623  1.02367234  0.67030621  1.11071432  0.68236244 -1.05349803 -0.33215788 -0.43380225  0.89646471 -0.07980029 -1.07372105  0.47406116  0.17331582 -0.01551434  0.11517231 -0.94620889  0.19911872  0.29990947 -0.5179379  -0.65354562  0.38790822  0.18879375 -0.37069589 -0.48329785 -0.09400687  0.59999096  0.13067977  0.33594775 -0.15177077  0.390737    0.30894321 -1.07377172 -0.80550641  0.53003806 -0.02033611  0.34121591 -0.29922548 -0.71945149
plan -0.17364985 -0.42300823 -0.01818553  0.35365081 -0.79298943 -0.88847792 -0.03803974 -0.0782218  -0.98260266  0.6269716   1.22386396  1.18912125  0.11764458  0.10363738 -0.20559087 -0.48443627  0.01805834 -0.21996433  0.45153022  0.25442332  0.30755514 -0.25164965  0.06366107  0.07561702 -0.38640195 -0.01460138 -0.18088032  0.59450436  0.03619009  0.35250336  1.05422938  0.89946377  0.33838618 -0.12732068  0.2930935   0.48705804  0.21772601 -0.04055011  0.77857649  0.19960201 -0.44141132  0.07662484 -0.38187265 -0.63462162 -0.63583565  0.07973348 -0.65775621  0.04763906 -0.4586331   0.28228939  0.02908049  0.12980159 -0.1566966  -0.02500185 -0.89953935  0.27628425 -0.66024888 -0.5387187   0.75307512  0.69864261  0.05228888 -0.76717257 -0.2126914  -0.41785905 -0.09176395  0.53438896 -1.10408449  0.49402153 -0.37478149  0.36170757 -0.60240918 -0.04960208 -0.08105908  0.63333094 -0.35134944 -0.36319491 -0.71997303 -0.55225831 -0.19202365  0.11407719
mouth -0.16473436 -0.26655358  0.12845643  0.1497692   0.12774831 -0.48410708  0.1206736  -0.43838578  0.18321958  0.51249355  0.54155004  0.48971248 -0.17885105  0.32163617  0.48807979  0.11295573 -0.18523458  0.00243745  0.19090599  0.42321199  0.58131057  0.26471317  0.28531674  0.51795542  0.40928477  0.34742159  0.21650182 -0.42222789  0.34077632 -0.1974944  -0.61741847  0.20756337  0.03388757 -0.1723468   0.59926832 -0.28019193 -0.61541116  0.48271728  0.63279575  0.00323436  0.05325094 -0.40164968 -0.72731054  0.24420442  0.22159    -0.02647723  0.67948675 -0.39295545  0.75428748  0.23431811  0.01247787  0.08020044 -0.23482826 -0.30660492  0.93317688  0.38569742 -0.01791145 -0.58638793  0.82382143  0.04162025  0.12544926  0.94685209 -0.56282192  0.61618328 -0.09936929 -0.03164898 -0.83414871  0.08898797  0.36824965 -0.35237503  0.16248967 -0.27816573 -0.19078739 -0.33463642 -0.42522714  0.51195353  0.5070653  -0.58833826  1.0523752  -0.28308892
Palestinian -0.36451906 -0.48059589 -0.00247627  0.76570857  0.1582102  -0.15187731 -0.33062613  0.38295192 -0.71769792  0.19760147 -0.43270689  0.94626516  0.27209061 -0.50225765 -0.39652455 -0.34917033 -0.78185618 -0.39367408 -0.51020378  0.29149354 -0.72322738  0.15099716 -0.57668573  0.01636843  0.19020709  0.173531    0.11706524 -0.2491571  -0.83065736  0.34226903 -0.12424919 -0.07323023 -0.85922939 -0.30057681 -0.77623433  0.02867353  0.9871906   0.10177061 -0.31775868 -0.12449116 -0.02640826 -0.11862524 -0.02874433 -0.49059004  0.71110737  0.21093875 -0.0007389  -0.00356064 -0.55765331 -0.04581715 -0.87203258  0.88854837  0.79787219  0.95252204  0.18394528  0.36024874 -0.26928893 -0.96096414  0.34802547  1.45101213  0.15179455 -0.20786834  1.24559569 -0.56430477 -0.30179054 -0.93624055 -0.13330474 -0.65693367 -0.27706009  0.14851277 -0.21820591 -0.15288499 -0.8515898  -0.45006984  0.04778308  0.06281413 -0.14782813  0.36569431 -0.09199826 -0.58477509
evidence -0.98831975  0.58105481  0.53456122 -0.30758804 -0.27249175  0.51748741 -0.39463758  0.90561295  0.2216365  -0.29823035 -0.26271704  0.50542557 -0.38648719 -0.34359765 -0.4353599   1.27617884  1.06441641  0.66522408  0.04010116 -0.08444004  0.03476425 -1.31529641  0.69357163 -0.10773925 -0.15105721 -0.41408139  0.01627851  0.5082826   1.22555399  0.25669128  0.47566423  0.54400539  0.81996548  0.17915836  0.27582136  0.65834904 -0.1447614  -0.24332999  0.3100374   1.15507936 -0.17416906  0.3960917  -0.22646417  0.20079029  0.33933434 -0.21018842 -0.80619681  0.56384814 -0.48237339  0.10641661  0.0433816   0.78771913  1.11364126 -0.74879968  0.26638287 -0.50327885 -0.50604218  0.22916305  0.99666905 -0.97917539 -0.87440932  0.55821002  0.25628114 -0.96623927 -0.00187592  0.76337957 -0.73467916  0.47234395 -0.38491288  0.21135587  0.0896217   0.43523389  0.74673784  0.02653314 -0.52107126  0.33148134  0.10194173 -0.0438687  -0.02239895  0.36533192
competition  0.02082615 -0.24411801  0.38034186  0.06015141 -0.18869831 -1.0150547  -0.20402274  0.07107857 -0.72392881 -0.12369803  0.27261889 -0.48888701 -0.10855642 -0.60453182 -0.20643491  0.60854596  0.41974446 -0.33002341 -0.46418732 -0.37809652 -0.20254453 -0.44773751  0.29932672 -0.13947129  0.33812609 -0.24924546  0.06842691  0.1069374   0.15413749  0.11148997  0.08712231 -0.24176791  0.13966857 -0.20966902 -0.21412422  0.34632212  0.07450102  0.27563211 -0.02363151  0.05351985  0.08544887 -0.11632487 -0.43025017 -0.31301928 -0.04574788 -0.21121442 -0.69674724  0.27508104 -0.18309073  0.56212318 -0.38926566 -0.3893953   0.07357286 -0.56491107 -0.02019998 -0.66232932 -0.63446259  0.18510549  0.30544972 -0.22982076 -0.19974877 -0.44128436  0.26710865  0.01797856 -0.06908506 -0.13759142 -0.24983931  0.37441581 -0.35445851  0.15683667  0.30844969  0.425192   -0.14569816  0.21669129 -0.16463596  0.29552543 -0.02812596 -0.43913737  0.43621659  0.1364938 
number  0.49352223  0.53701389  0.85925841 -0.23962551  0.57983518 -0.11689286  0.77458048 -0.05899014 -0.52403003 -0.03056414  0.96638381 -0.97433531 -0.80799103 -0.42382187 -0.22267798 -0.29251236 -0.49026203  0.38149089 -0.26482379 -0.23243104 -0.19680868  0.48380661  0.65071917 -0.19331124  0.25795564  0.84899753  0.10000091 -0.40910721  0.17023487  0.40188438  0.20683247  0.52862465  1.03932273  0.1417014  -0.15731916 -0.40168408  0.49350548 -0.01708278  0.21346596  0.25719246 -0.11031723 -0.39355356 -0.76943779  0.02737486  0.29242808  0.53867763 -0.44813591  1.21419072 -0.54963559 -0.13668106 -0.71988165  0.79849857  0.37772751 -0.03029431  0.42768592 -0.76981044  0.02910367 -0.49686974  0.58639205 -0.10451784 -1.18763411 -0.5676589   0.80276036 -0.70005572 -0.43025589  0.6631285  -0.37736961 -0.18515626 -0.62355286  0.75145668 -0.04240006  0.071199    0.24319635  0.34410125  0.01034737 -0.17107582  0.14616272 -0.73809344 -0.62083769 -0.36711192
sprint  0.02143893  0.48576346  0.22741373  0.00984237  0.11703753 -0.10600974  0.34322959 -0.15998511 -0.30164045  0.67093021  0.08286612 -0.06851234  0.2116212   0.7770074   0.03696904  0.45996261 -0.01508414 -0.2488205   0.06589787  0.58849001  0.1342238   0.87150025 -0.12561412 -0.39160901  0.24138084 -0.47732231  0.17635342 -0.00965667 -0.20038603 -0.18128546 -0.48454347 -0.03768182  0.47872925 -0.46908462 -0.40597439 -0.41069546  0.24777547  0.25140816 -0.06073255 -0.00045858  0.29171574  0.51052636  0.01170021 -0.11837994  0.24062018  0.49011368  0.43147108  0.47945598  0.33861685  0.69961119  0.51192826 -0.51900649  0.74563372  0.3384347  -0.54998934 -0.10197382  0.31360698 -0.40807259 -0.23508076 -0.67416555  0.35812217 -0.32854515 -0.21282111 -0.26343742  0.26003331 -0.19745094  0.63298935  1.12666905 -0.49698898 -0.46596944 -0.20035784  0.02951043  0.534612   -0.09573076  0.65120327  0.22505972  0.13802609 -0.25089723  0.53193814 -0.22340228
payment -0.10451116  0.01784949 -0.04490355 -0.36584216 -0.14297549 -0.75739372  1.04031658 -0.24347608 -0.09066236  0.45662367 -0.05382791  0.55561787 -0.41478363 -0.11175916  0.60575521 -0.33604649  0.74119216 -0.49624515  0.71158308 -0.44872549  0.4708834   0.6000908   0.44875813 -0.46251649  0.5457657   0.15957494  0.11439143  0.35472995  0.43763471  0.22319055  0.33049941  0.23601682 -0.15705749 -0.15917151  0.14916852  0.60614312  0.13073158  0.20920593  0.11211413  0.17873496 -0.19742265 -0.66040611 -0.35670587  0.3262755  -0.15755638 -0.33276013 -0.06871416  0.39484718  0.32012522  0.78136456  0.35072127  0.12312528  0.17273819 -0.76613593 -0.12587929  0.2422709  -0.42152333 -0.44312474  0.31896168 -0.55754536 -0.31879961 -0.53322673  0.394297    0.24746576  0.15956539 -0.07098444 -0.6194098   0.35081875 -0.14977469 -0.38702741  0.37390757 -0.07356669 -0.19144043  0.40301332 -0.0665069  -0.15531854  0.28051937 -0.19027445 -0.56004232  0.53264701
discovery  0.25392467 -0.32609239  0.45727634 -0.55148143 -0.49516401  0.52440089 -0.00836967 -0.21750954 -0.30109608 -0.19528063 -0.22630413  0.09404084 -0.21259488  0.04683475 -0.19362319  0.31354505 -0.59770036  0.21682951  0.33988786 -0.10883972 -0.52169859 -0.04333587  0.18272901  0.23905736  0.03676026  0.11397189  0.10664511  0.63638133  0.33259982 -0.20309849  0.51542866 -0.6866588   0.443169   -0.10020052  1.06875253 -0.00550188  0.06708954 -0.02182149 -0.36355379 -0.54942328 -0.78335476  0.23810373  0.3490957  -0.16517201  0.12040685  0.06437774 -0.82210028 -0.21523118 -0.46482763  0.4502393  -0.11428359 -0.45146072  0.40360448 -0.68080997  0.20934251 -0.51951361  0.12098975 -0.21908154  0.02444196 -0.53041607 -0.07660978 -0.22469309  0.33916727 -0.34721899  0.14655392  0.08705847 -0.24548861  0.0697173  -0.40821052 -0.1118909  -0.02206501  0.51142168  0.77220428  0.23733324 -0.43888232  0.09094255  0.07842806 -0.430659   -0.31971729  0.03816509
woman -0.13715363  1.16687202  1.64026475 -0.17571642  0.40915883  0.31392205  0.07030042 -0.33221188 -0.34133661 -0.73754603  0.30006748  0.38081467 -0.22458653 -0.25835901 -0.34771922  0.0735927  -0.35997698  0.49095127  0.30635017  0.46549618 -0.1972063  -1.09337151  0.08436909  0.40226722 -0.15799509 -0.02319595 -0.02610502  0.49788356 -0.74328393  0.15779512 -0.12475064  0.02322973  0.99062109  0.63064206 -0.45535919 -0.21062291  0.89150327 -0.40421885  0.19133671  0.08229545 -0.3965427   0.03707024 -0.47879422 -0.6046747   0.33445707  1.18706024  0.05183269 -0.00614573 -0.10962662 -0.40299189 -0.46915078  0.55388463  0.4152528  -0.27003816 -0.40432775  0.21812981  1.26938403 -1.05252504  0.03387089  0.57924843 -0.89795953  0.05699794  0.38554415 -0.77410221 -0.77025938  0.01019603  0.43358171  0.14948337  0.09116013  0.08319058  0.47116262 -0.39792341 -0.0908825  -0.33253023 -0.23649549  0.30343974  0.10556055 -0.3268525   1.14593136 -0.46157911
place -0.24593535  0.5478791   0.94802868  0.3614862   0.21658434 -0.50426942 -0.23440909 -0.91779888 -0.03467128  0.38047656  0.69478261  0.19436251  0.29195118  0.13047683  0.31534246  0.50323397  0.03894018 -0.49768746 -0.22655056 -0.06323893 -0.16939722 -0.51035827  1.01749039 -0.35911962 -0.37018919  0.45914039 -0.14510351  0.49976128 -0.33886668  1.14326692  0.14249796  0.05053103  0.7562598  -0.41618636  0.18310979 -1.09928131 -0.79605401  0.89346337  1.02768421 -0.10884365  0.31638014  0.08743134 -0.24725518 -0.79668105  0.66046512  0.11446399 -0.41867527  0.17070834 -0.51582986  0.44185239 -0.00337496  0.31795573 -0.39223027 -0.11435879  0.50497115  0.56961912  0.06904349 -0.49600175  0.35357329  0.1497606  -0.57977223 -0.43301043  0.0469     -0.00962995 -0.23367982  0.69740343 -0.48386809  0.20860246  0.57647872  1.31400013 -0.12164135  0.43324625 -0.43011144 -0.14593416 -0.29360357  0.09261959 -0.4269129  -0.41416758  0.11369416 -0.04068725
medal -0.18513265  0.6273315   0.21039835  0.47757125  0.30920678 -0.47910306 -0.69496959  0.15139392  0.16904008  0.23391055  0.40746903 -0.77647066 -1.3580519   0.03715912 -0.46989429  0.44432086 -0.06173307 -0.28183979  0.12550673  0.31167746  0.333749   -0.04747335  0.12372722  0.64577615  0.44614935 -1.55107045 -0.09900306 -0.35314932  0.72248161 -0.43872291  0.12413648 -0.83057672  0.63578451 -0.35359541 -0.33353037 -0.33799133 -0.74321032  0.97442079 -0.17923358 -0.60889566 -0.1006116  -0.4034127  -0.13264543  0.27795804  0.24146113  0.16396743 -1.25823975  0.61821526  0.44077     0.06875212 -0.00765655  0.68752861  0.17430413  0.42929268 -0.19279197 -0.35584512  0.66711783 -1.03613651 -0.94329143 -0.43371189  1.02457261  1.03312588  0.21690166 -0.87350333  0.40157336 -0.10659482  0.64300239  0.5189544  -0.55616391  0.54157841  0.60895985  0.24970704  0.97186577 -0.74783146 -0.12803891  0.56166697 -0.49976727 -1.25029612  0.12372343 -0.04504786
party -0.24461496 -0.31684607  0.19180293  0.7718631   0.03820037 -0.67307961  0.80668354 -0.39260057 -1.06336606  1.05092549 -0.05760221  0.26960483  0.97922003 -0.65441966 -0.38728362 -0.26263902 -0.29551804  0.10075578  0.19745976  0.89790362  0.45320109  0.45586985  0.47627917  0.30509645 -0.14423111 -0.00084543 -0.79371512  0.29590556 -0.43713292  0.08975651  0.36846915 -0.23488197  0.99118537 -0.32999557 -0.3450366  -1.31041932 -0.04349571 -0.02614601  0.49490875  0.3119297  -0.11346909  0.7867738  -0.15360683 -0.44661099  0.00828292 -0.05037998 -0.23069647  0.33121189 -1.09564304  0.49420014 -0.46526372  0.60694361  0.52105838 -0.64733958 -0.07545212  0.08708435 -0.64156914 -0.28085163 -0.18749709  0.88156807  0.98627114  0.16234432  0.08455639 -0.97754765 -0.39847836 -0.57628423 -0.68892646 -0.08629741 -0.20895796  0.6726861  -0.23491     0.82685155 -0.50539458  0.32355434 -0.04081939 -0.15379071  0.48168659 -0.28566074  0.89734387 -0.43038809
crew  0.10220139 -0.49297947 -0.37184727  0.93251771  0.25295722  0.91249168  1.1067121  -0.62815595 -0.17786492 -0.5654676  -0.45271835 -0.86669612 -0.1145373   0.13392062 -1.0599786   0.10252439 -1.38482857  0.18045564  0.40700805  0.28108871 -0.08130224 -0.05594418  1.06817305  0.5661214   0.18936168 -0.56350785 -0.45381227 -0.09149262 -0.81148589  0.51740313  0.14344867  0.00852381  0.58199477 -0.19584776 -0.21656789 -0.70270073 -0.21302184 -0.65792263  0.73542905  0.12312723 -0.90552104 -0.28526437  0.63652474 -0.27251035  0.37096566 -0.51701802 -1.12244654  0.48197466 -0.14905901  0.56053603  0.14858334 -0.09718612  0.96722472 -0.21366896  0.3141045   0.37081325 -0.51288867  0.06296861 -0.25232711  0.20979376  0.3490552  -0.77472293 -0.31976825 -0.59480357 -0.6057021   0.50629228  0.26017311  0.2720809   0.32910997 -0.46175906 -0.16726975 -0.03907215  0.12890682 -0.00335455  0.20335642 -0.05986682  0.18933538 -0.34600836 -0.19031887  0.47002023
motto  0.33687037 -1.11653686 -0.82375073  0.31628472  0.01006801 -0.37427959 -0.1329499  -0.36870912 -0.55276555 -0.62497306 -0.21156742  0.2067237  -0.62422687 -0.48217291 -0.08053648  0.4981032   0.3281098  -0.310029    0.66514826  0.02409689  0.58625507 -0.06603804  0.6099925   0.02234846  1.21372581 -0.50919753  0.84754121 -0.06838325  0.0704177  -0.06997827 -0.01896101 -0.05785106 -0.18532559 -0.4585309   0.68349963  0.58938938  0.14152227  0.47307438 -0.61610115 -0.47375357  0.55878842  0.3540172  -0.19652587  0.36430794 -0.18595517 -0.21914835  0.61229837  0.06512042  0.31842312  0.09700438 -0.27897424 -0.13165763 -0.43624026  0.33409154  0.17726129 -0.44672868 -0.27891788 -0.06341725  0.04655756  0.1675604   0.11787381  0.1308867   0.47815871  0.06336368 -0.13125113 -0.11899822 -0.2099745   0.66468984 -0.15686877 -0.14044312 -0.7603091   0.2758027   0.58651859 -0.06794719 -0.59513855 -0.41731387 -0.56806308 -0.04074433  0.01616313  0.11708598
library -0.10459324  0.26167536  0.08110261 -0.07799104 -0.0573477  -0.05625785  0.10761894  0.11675475 -0.34186456 -0.08332153 -0.12564072 -0.21510586  0.02633356 -0.0532087  -0.51334339 -0.2829501  -0.34029275 -0.19827101  0.71555024 -0.00794344 -0.31139514  0.5174737   0.51781392  0.44564354 -0.35286236 -0.41097385  0.18489549 -0.07227643  0.42452395  0.06994578 -0.42281589  0.04818391 -0.00504969 -0.32226288 -0.09143631  0.05030686  0.54577124  0.48785278 -0.15986945 -0.21482541 -0.35033205  0.01520441 -0.27438718 -0.03641408  0.19945279 -0.03033626 -0.03937621  0.12893271 -0.51618779  0.58224225 -0.48700511 -0.4493365   0.08228111  0.16473126 -0.08915118  0.35543174 -0.87183535  0.16748503 -0.01788864 -0.43208838  0.23164049 -0.01102512 -0.03484944 -0.29488158  0.42643934  0.50395483 -0.10708696  0.80610895 -0.13870302 -0.5593158   0.44818863 -0.09307483 -0.32340023  0.0679023  -0.01528394  0.04651498  0.03572273  0.26783168  0.31077814  0.53612328
gender -0.28479788 -0.72350103  0.29225498  0.81046772  0.28643736 -0.13760993  0.31865162  0.93449187  0.87373739  0.11747245  0.0565604  -0.13480216  0.21987322 -0.83668631 -0.15650274  0.60363364 -0.31420875  0.52967745  0.05947319 -0.14507528 -0.04216786  0.31810182 -0.62965065  0.00773713  0.53219885  0.59704095  0.24574366  0.2684944   0.61580503 -0.5485478   0.13287202  0.40690649 -0.09793362 -0.0153      0.09295392  0.27613199 -0.34179169  0.7539162   0.29070348  0.37039751 -0.77174801  0.01480563  0.18226884 -0.21548161  0.00368898  0.5343675   0.03011893  0.30205661 -0.22611605  0.67999631  0.70347822  0.35218436 -0.07007179  0.36841321 -0.0902258   0.52202594  0.06174617 -0.16106635  0.50607067 -0.60105932  0.65139115  0.4107483  -0.24222355  0.72924972  0.72349375 -0.35957333  0.24409729  0.009297   -0.33436796  0.21539921  0.05116587 -0.51094997  0.26500329  0.42606738 -0.49013901  0.74995285  1.22790956  0.21690339  0.78132671 -0.22887398
scientist -0.53719485  0.99958158  0.26234061  0.38268483  0.31882098 -0.07053039  0.67560613  0.00666362 -0.40873826 -0.36401749  0.38023368  0.30049115  0.06985074 -0.55017138 -0.36422494 -0.79325426 -0.38732654  0.18331333  0.05385201  0.70021188 -0.8775481   0.07823762 -0.5135541  -0.54691601 -0.68225914  0.11891321  0.03405448 -0.31453353 -0.69515997 -0.47263768 -0.35981679 -0.71966743 -0.38606015 -0.77023804 -0.59500194  1.08848488 -0.06496557 -0.07084517  0.30452776  0.09748089 -0.11891204 -0.33677155  0.0175443   0.0283554   0.17597836 -0.6184625   0.51623327 -0.07379069 -1.27430737  0.26618519 -0.37768382 -0.3824279   0.30438221 -0.13053086  0.03139598 -0.27037945  0.81939363 -0.236858    0.44538656 -0.42709112  0.29683891 -0.02698275  0.72220784 -0.61580116  0.25752169 -0.09464511  0.12814507 -0.26363835 -0.56079155  0.19876626  0.36290717  0.32740408  0.95501983  0.05124923 -0.14671472 -0.06269407  0.3556478  -0.32942832  0.23990385  0.44728965
attitude -0.83763242  0.23537241 -0.20706667 -0.35029644  0.54554784 -0.53998458 -0.14159527 -0.04934622 -0.28826272  0.1199688   0.33772144  0.38345677 -0.31916717  0.11247281  0.77158368  0.56271935  0.0943974   0.55659711 -0.1207569   0.90133715 -0.36159351  0.05675391 -0.69646192 -0.2113177  -0.2164648   0.90455365  0.45226461  0.46788377  0.52524948  0.42248291 -0.09260626 -0.3743715   0.14810251 -0.00634349  0.54556084  0.48086113 -0.13659295 -0.00599491 -0.42550883  0.05683868  0.62702352 -0.29210019 -0.44984922 -0.06459944  0.23313305  0.6647473   0.21125454 -0.18948373  0.08729157  0.46547458  0.35015059 -0.47829863 -0.26194236 -0.19128689 -0.06417328 -0.20825928 -0.38038981 -0.10063791  0.37597483  0.19746217  0.0266757   0.1186596   0.11731587 -0.00018896  0.30797303  0.23357503  0.27201179  0.60878515  0.30643892 -0.24677132  0.42903233  0.21497631 -0.21568765 -0.54707098 -0.36394843 -0.38946834  1.02293897  0.00049762  0.01169898 -0.02858572
avenue  1.17558551  0.44420242  0.04635376 -0.25876901 -0.583722   -0.17816429  0.30991536  0.4633655   0.01669154  0.37992597  0.0958634  -0.0747498  -0.131962    0.37859452  0.09115677 -0.42962953  0.26378915 -0.5510937  -0.15511417  0.60859728  0.90090096  0.89628959 -0.10182562  0.40210408  0.28287628  0.01218116  0.27750808  0.29345429  0.51615119 -0.12560174  0.04013787  0.25777191  0.2326699  -0.61384773 -0.84124923 -0.35528776 -0.19437112  0.65175325  0.03330786  0.61336476 -0.55596519 -0.1621578   0.66915107  0.13818036 -0.2082445  -0.62466311  0.34715068 -0.70133138 -0.37842569  0.9598918   0.1359551   0.49448609 -0.67232794  0.22752339 -0.05212998  0.20340961  0.07447235  0.06991021 -1.15880513  0.40742815 -0.54751194 -0.62040395 -1.04601955  0.52748913  0.37146261 -0.13871729 -0.10784299  0.49024317 -0.49340343 -0.45245999  0.05875927  0.31118387 -0.45752886  0.73025829  0.22186022 -0.28072727 -0.47645563  0.7301724  -0.17771411 -0.66760981
drought  0.66102827  0.07064166 -0.18221223  0.16271563 -0.71325797 -0.62125075 -0.53690022  0.13928303 -0.23017481  0.23730084  0.26876026 -0.49741447 -0.5799849  -0.50177461 -0.08170151 -0.35216993 -0.22124168 -0.45751894 -0.08894902 -0.07435151 -0.00154303  0.41823912 -0.69922024 -0.14463578 -0.24165773  0.14082     0.41150883  0.33304706  0.25005397  0.17918304 -0.20655918 -0.39954638  0.52898616 -0.37187144 -0.39150262  0.04410115  0.27384776  0.79263878  0.01652176 -0.14164549  0.94402575 -0.07172915  0.12636361 -0.36138976 -0.29017523 -0.26015663 -0.10016778 -0.03178654 -0.03860185  0.32445544 -0.19996941 -0.01241183  0.2336942  -0.01097938  0.43909046 -0.15921147  0.61601257  0.01483765 -0.01161031  0.10548279  0.04794894 -0.37017134  0.4684304  -0.04059619  0.57735485 -0.73753697  0.07182507  0.30018657 -0.07244119 -0.33212039  0.17990364  0.16987443  0.21722455 -0.12187513  0.09543015  0.19487186 -0.01247688  0.29838452  0.24428144  0.40440717
midday  0.90019095  0.5068028  -0.12875536  0.63602632  0.62314361  0.16933113 -0.04114105  0.3331638  -0.20960961  0.24874656 -0.12231455 -0.98139268  0.70644021 -0.09415893 -0.00121579  0.19950566 -0.05830406 -0.3900193  -0.42458993 -0.48772442 -0.06731021 -0.73488796  0.25747427  0.2303735  -0.061055   -0.13427413  0.46770424  0.10443032 -0.36343524 -0.58149838  0.59734148 -0.30238974 -0.15422058 -0.42144078  0.86231881 -0.22034799 -0.29452062  0.89169985 -0.12636131 -0.83383745  0.26783082  0.46048093 -0.10119572  0.51148289  0.2019226  -0.25901878 -0.0341877   1.4280839   0.75992    -0.09396938  0.53040415 -0.77504689 -0.61450016 -0.39493412 -0.46424454  0.54753911 -0.06280158  0.77841061  0.07090387 -0.06405176  0.44639984 -0.24992295  0.9258312   0.36514843 -0.08592628 -0.3246246  -0.20375632 -0.90608031  0.33957139 -0.66402125  0.10416652 -0.56381643  0.1677331   0.10538376 -0.50152814 -0.0501987  -0.32948658  0.84010601  0.63397419 -0.67935467
listing  0.50387198 -0.23753166 -0.48506832 -0.02637862  0.26988226 -0.67526644  0.31752422  0.13142699 -0.37800306  0.11926875  0.21850339  0.25715008 -0.3290993  -0.03356983 -0.3498345  -0.3378669  -0.0858651   0.0598582   0.3193388   0.05751824  0.90169615  0.45928013  0.21009174  0.00011961 -0.31824017  0.19966972  0.46421152  0.05566356  0.29267961 -0.05672688 -0.29139754  0.46081814  0.06201515  0.30726025  0.23558134 -0.08901754 -0.24664551  1.00653422 -0.27267295 -0.56077993 -0.51295364 -0.28790647  0.31331852  0.26299679  0.45902842 -0.37947878 -0.39899522 -0.25334206  0.0175721   0.50430042  0.04649273 -0.28759724 -0.05364895  0.14395167  0.19606172  0.33901188  0.0485061  -0.56836957  0.08713026 -0.51443505 -0.60069275 -0.06115161 -0.11332755 -0.15411258 -0.36375344 -0.22531158  0.69117421  0.73616576 -0.36780646 -0.44905564 -0.03898181 -0.36120975  0.57746828 -0.05224565  0.00461453 -0.12299839  0.1414188   0.27380028 -0.04234459  0.69554651
music -0.47390786  0.45077094  0.13118021  0.37616709  0.27946079  0.76212746  0.42084497 -0.208756    0.13712212  0.05319221 -0.026331   -0.79450488  0.05737712  0.60338652 -0.41247246  0.24821901 -0.35560116  0.11650728 -0.06064644 -0.92687416  0.50499338  0.32482588  0.07804475  0.20067441  0.11746854 -0.25353292  0.97501731  0.30772525 -0.31545693 -0.73095787 -0.9155972  -0.34174222  0.45787078 -0.27145326  0.39665705 -0.67213988  0.52879494 -0.01056966  0.37699765  0.49966091 -0.6175071  -1.02433693 -1.2096293  -0.48537841 -0.84041506  0.11089606 -0.96598077  0.36242113 -0.77434075  0.86237532 -0.63790405 -1.07436991  0.15697376 -0.46272326 -0.35534012  0.30491397  0.07996828  0.494874    0.67215067 -0.46263927 -0.06028804 -0.29648188 -0.16498131 -0.75060803 -0.66167676 -0.04199708 -0.4698689   0.5934726  -0.52525878 -0.16473131  0.39824489  0.42219019 -0.03178136 -0.11417118 -0.02219796  0.47710103  0.67627001 -0.69917405  0.51448238  0.72413766
phone  0.52200383 -0.05854881  0.34383419 -0.57492721  1.24419308 -0.88162947  0.89522338 -0.62363416 -0.15317032  0.46599296  1.26089597  0.08866177  0.23932904  0.15705426 -0.73920798 -0.46591604 -0.29080462  1.14201117  0.39707345 -0.43997198  1.01037562  0.12581123  0.52877724  0.14764053  0.46223214  0.22846135  1.24183321 -0.80728048  0.04137084  0.70315063 -0.29848641  0.27267793  1.33805859 -0.17800096 -0.72221339  0.12138653  0.43121511  0.1431949   0.53195745  0.44333479 -0.46579993 -0.0762692   0.31937242  0.43616399 -0.24544771 -0.22607791 -0.92321718  0.13319933  0.49932435 -0.19384894 -0.58732516 -0.78356171 -0.80894756  0.20243303 -0.2473062  -0.06055307 -1.07311404 -1.26310062  1.37552834 -0.325398    0.60300016  0.4584589  -0.12281811 -1.09386039 -0.25805444  0.09599657 -0.38685942  0.39302385  0.31210354 -0.28425843 -0.19930202 -0.8117547  -0.03751516 -0.19307151 -0.1260924   0.31799462  0.58983958 -0.65452564  0.04742277 -0.45815146
paper -0.14891529  0.11005819  0.2377032   1.51695013  0.91872585 -0.36945873  0.06863499  0.11140513  0.26787114  0.19872501  0.19676222  0.53435326  0.22201931  0.54707235  0.39954442  0.12431812 -0.17625426  0.39208382  0.68094563 -0.19608445 -0.13042867 -0.43970007  0.36439481  0.06475905 -0.05870119 -0.04138842  0.35971379  0.18856834  0.20091882 -0.14880203 -0.01739173  0.49002999  0.59375578  0.11468265  0.82218242  0.26702756 -0.34324062 -0.2861762  -0.12853789 -0.24407801 -0.41226777 -0.38039687  0.35596168 -0.01369339  0.13073815 -0.02438053  0.06345521 -0.53657615 -0.56497514  0.09043968 -0.54006362 -0.18372573 -0.05902366 -0.68990046  0.1694051  -0.44140044 -0.29669532 -0.14685188  0.57921749 -0.12922858  0.30225766  0.14267355  0.58209693 -0.76815414 -0.55323052 -0.12048893 -0.6692459   0.26528394 -0.32534018 -0.2471108   0.97474849 -0.62813026  0.24940786 -0.20450409 -0.20893969 -0.15289785 -0.7283591   0.23998339  0.18411441 -0.12761246
importance -0.19900453  0.02737987 -0.47022355  0.10934986 -0.16703904 -0.22869731 -0.19940631  0.40773046 -0.24413885 -0.08146138  0.15965271  0.44091856 -0.39361131 -0.19625229 -0.06917094  0.49086109 -0.12417574 -0.09482576  0.12775686  0.33123988 -0.07140559  0.400188   -0.30354005  0.23011106 -0.37198138  0.32242239 -0.27879786  0.13522255  0.8326124  -0.3884396   0.18479002 -0.62735069  0.27944183 -0.81248403  0.59459472  0.05041586 -0.17005552  0.61860287  0.07340783  0.18706071 -0.24209204  0.10629267 -0.17457846  0.0272359   0.21689287  0.62911385 -0.19988194  0.04774472  0.28943756  0.55544704 -0.34043035 -0.32133767  0.24433115  0.51075006  0.05204353 -0.36674264 -0.75737703  0.07175703  0.08706774 -0.22263578 -0.93808639  0.02966341 -0.08155324  0.24795857  0.00971441  0.60262942 -0.15423834  0.04175147 -0.50108308  0.14172594  0.15293421  0.7281357  -0.03148485  0.23567447 -0.69283015 -0.44552594  0.55818397  0.30656227 -0.64502752  0.14002374
nature -0.44979689 -0.59271908 -0.21926603 -0.22871472  0.12389386  0.17724556  0.25437787  0.37429258 -0.39123821 -0.1111706   0.23962604 -0.05429922 -0.69722092 -0.48223048  0.23044707  0.5527705  -0.14975818  0.31142586 -0.14055565 -0.19978946 -0.50930345  0.45759124 -0.11745915 -0.06600267 -0.20533323 -0.06180798 -0.04678085  0.70186722  0.39022598  0.30969381 -0.21582092 -0.38607165  0.62011385  0.09911889  0.72486514  0.12477518 -0.56144369  0.71555531  0.25349668  0.09901303  0.11794874  0.31111559 -0.50819087 -0.43650812  0.67020345  0.84454322  0.09965054  0.01824464  0.00077416  0.33201352 -0.10866844 -0.03365434  0.28274345  0.19601157  0.29130733 -0.14972863 -0.20977293 -0.17345993  0.00231536 -0.01676791 -0.05721109  0.76913261  0.03102491  0.29677382  0.02961329  0.20414388 -0.26193008  0.51875925 -0.39145324  0.18817741  0.04804101 -0.09043259 -0.06463954 -0.30698851 -0.54279304  0.00665525  0.44538903  0.30558133  0.17497467 -0.4540205 
group -0.34895203  0.04079957  0.69736326  0.68376333  0.45115989  0.08047868  1.07951605 -0.52601993 -0.68831199  0.05078986  0.43738192  0.41280392  0.05336706 -0.10388356 -0.31092894 -0.56558532 -0.66420525 -0.09581599 -0.16593724  0.17797178 -0.5106355   0.26512983 -0.12906978 -0.06244662 -0.52692825  0.3343094   0.4315148   0.68096232 -0.36634094  0.1013585  -0.1131335   0.42664045  1.31812394  0.39946121 -0.02185083 -0.06132486  0.52169883  0.41469389  0.24717483  0.10456127  0.15042076  0.38294059 -0.37006229 -0.25765133  0.18904108  0.19044018 -0.44635308  0.20641515 -1.11905718  0.13196546 -0.55580682  0.89916265  0.68398559 -0.11734623 -0.70103508 -0.36431691 -0.72448426 -0.1979354   0.50292218  0.08249297  0.29518563 -0.15043071  0.96498919 -1.15538645 -0.65880334 -0.11805479 -0.13269715  0.60916084 -0.67893988  0.363217    0.85044307  0.14501667 -0.27065513  0.21101411  0.08110068  0.2287764  -0.29644901 -0.58399439  0.0661369  -0.3291963 
prejudice -0.40526605 -0.83059561 -0.05663061  0.02984204  0.07951953  0.21127476  0.2018933   0.31500241  0.22574218  0.03841854 -0.28540105  0.23264226 -0.30785468 -0.39538366 -0.23251054  0.48866731  0.72211754  0.52335232 -0.18920028  0.20127988 -0.08365273 -0.04339992  0.38147077 -0.14816821  0.23094     0.55522597  0.41886431 -0.18025512  0.79082072  0.22875145 -0.13679801  0.04394239 -0.16081864  0.15068504 -0.41480199  0.28406221 -0.06261277  0.93887252  0.14668661 -0.1774669   0.5881117   0.57359695  0.78898633 -0.08338773 -0.45885414  0.31799445 -0.2221756  -0.10370673  0.97256517 -0.40428871 -0.67376345  0.68492448  0.48625991  0.32321063 -0.10864808  0.58370674 -0.20208529 -0.34725395 -0.22248907  0.1722528  -0.61552727  0.05054528 -0.42960668  0.57543594  0.45435071 -0.52272689  0.04180997 -0.13944849  0.29735532 -0.12435606  0.47856644 -0.02980992  0.21462974  0.21400775 -0.31575656 -0.07495189  0.82585275 -0.19353262 -0.22179723  0.36405158
team -0.75692862  0.2323042   1.11644638  0.32242495 -0.38174409  0.2962001  -0.04090396 -0.44250685 -1.0037607  -0.02909422  0.73829353  0.26493007 -0.22336006  0.06276094 -0.73205721  0.13275175 -0.15337671 -0.44787797  0.08966719  0.1794349   0.41638926  0.04161566  0.96157372 -0.25902137 -0.85529399 -0.96449167 -0.15343696  0.60425901 -0.70636809 -0.44364202  0.00482109 -0.35688335  0.34696427 -0.55603397 -0.0673317  -0.5347597   0.23816323 -0.10614389 -0.26127583  0.39326406 -0.03433505  0.43984136 -0.71694446 -0.43346921  0.16266778  0.52526259 -0.64294732  0.75895345 -0.83173043  0.49854046  0.07056703  0.2923196   0.09866057 -0.34132898 -0.73683435 -0.08991878  0.11092958 -0.52001464  0.30664122  0.14629021 -0.14558858 -0.39395112 -0.18432675 -0.56130672  0.18011475 -0.07616037 -0.25094488  0.62797189 -0.15294087  0.50856274  0.3557044   0.65759444 -0.32099098  0.44940484  0.30287886  0.2395438  -0.03134005 -0.90892214  0.72553915  0.01434132
physics  0.24470145  0.34642014  0.2440732   0.52412063 -0.23282515 -0.16512041  0.03189346 -0.11394719  0.08385867 -0.32725397  0.28570294  0.2533294  -0.12392677  0.72176242  0.05720793  0.22438413 -0.12590358  0.08618116 -0.86779642 -0.43604833 -0.00172565  0.46596271 -0.09291779 -0.73474073 -0.39865756 -0.14313146  0.47110781 -0.49320388 -0.11261496 -0.56940103 -0.55526435  0.08405378  0.02938776  0.31998003 -0.27269965  0.4344573  -0.01667322  0.92158663 -0.03884345  0.27696928 -0.51263165 -0.04656834 -0.10914515 -0.12693498 -0.05815403 -0.07290755  0.64391136 -0.28615063 -0.00552109  0.67583179  0.30130926  0.04218381  0.1692706   0.27587157 -0.22574762 -0.41680986  0.60363734 -0.15134197 -0.03839315 -1.06423306  0.20440678 -0.26630232 -0.09745753 -0.2658225   0.78244275 -0.32747048  0.21857049 -0.05678326 -0.42170906 -0.26975542 -0.0630863  -0.44214013  0.60408175  0.48160899  0.25669634  0.13342431  0.64684874  0.40035895  0.6292575   0.0368048 
manslaughter  1.09978795 -0.02577429  0.29479283 -0.37633166 -0.77422583 -0.39663047 -0.00706777 -0.4269129  -0.03276823  0.04941946 -1.53843093  0.98145664 -0.56296164 -0.58243555 -0.50195873  0.59345353 -0.14271143 -0.20529735 -0.66312563  0.25005051 -0.2367833   0.07599869  0.94909394 -0.18850954  0.88562125  0.5847494  -0.22831482 -0.70039868  0.86106199 -0.74936485 -0.11150498  0.1261566   0.41729754  0.43018723  0.3992824  -0.47519559  0.32273039  0.56474781 -0.32372752  0.52674454 -0.28995746 -0.25492832 -0.43217775  0.25661433 -0.578628   -0.68301046 -0.46889824  0.53949785  1.26260936  0.40142649  0.0361371   0.17429826  0.16146964  0.69391465  0.35226277  1.14198303  0.5451777  -0.26816678 -0.11201394 -1.07777262 -0.51889509 -0.42786327 -0.91258895 -0.13851871  0.76262546 -0.68033499  0.53306615 -0.25812581  0.01634033 -0.23397473  0.01075398 -0.63841325 -0.95276606  0.18741505 -0.46506768  0.23776685  0.70755005  0.56533378 -0.31866288 -0.14740303
investigation -0.50396192 -0.65782624  0.35395724 -0.54618788 -0.1156586   0.01044539 -0.28854984  0.65512383 -0.59452194 -0.08611897  0.20043781  1.12693906 -1.18894219  0.44345325 -0.52150452  0.39097115 -1.00011885  0.1089606   0.01237318  0.21139057 -0.06201892 -0.83500481  0.5339309  -0.04503579 -0.82763827 -0.37089318  1.3144505   0.74387145 -0.26792493  0.26362324  0.89393169  0.12515724  0.46664941 -0.69637102  0.26287615  0.07305375  0.35862949  0.43410164  0.30885199 -0.09834874 -0.30727416  0.91211224 -0.27962619  0.3403908   0.3071368  -0.61034262 -0.35181955  0.59201026 -0.39294773 -0.44028166 -0.04066653  0.49550185  0.39252764 -0.20734414  0.47669446  0.78277767  0.12846774 -0.53119028  1.77233696 -0.44981429 -0.44585514 -1.21896899  0.24210805 -0.17623904 -0.44852155 -0.43983489 -0.55319518  0.36305565  0.38761017  0.03534152 -0.37457082  0.29796731 -0.52041858 -0.25201392 -0.54710126  0.66088814 -0.03280153  0.92577231 -0.17156067 -0.43309563
warning -0.08749087  0.31688708  0.31502014  0.24703461 -0.39347571  0.27101082 -0.5639562   0.06059314  0.29798642  0.10113034  0.15215044  1.1474663  -0.50042033  0.52117395 -0.28398174  0.63242519  0.78044182  0.00563785  0.44731104  0.24286708  0.32734251 -0.36332193  0.17074403  0.23408848  0.88495862 -1.22585285  0.24990304  0.85505122 -0.12197843  0.27461901  0.37723151  0.70370096  1.05537224 -0.06943066  0.77644289  0.02906929  0.38492584  0.43447915 -0.12410675  0.65991211  0.33665258 -0.64334011 -0.15846458  0.25278306  0.64766049 -0.50951529 -0.51211274  0.82620668  0.31833544 -0.05038686 -0.27203757  0.39462212  0.09341221 -0.19764915  0.5883649  -1.01609409 -0.26840478  0.44000638  0.24766228 -0.26431671 -0.23541188  0.12347087 -0.01187811 -1.13430095 -0.97094935  0.08975008 -0.0130173   0.11874658  0.43420541 -0.33389887 -0.02760289 -0.25014251  0.22549437  0.11120217 -0.43202001 -0.06214412  0.07862473 -0.0856037  -0.97405213 -0.1017189 
recognition -0.20813996 -0.09184092  0.40935409 -0.60109174 -1.05313492 -0.87660998 -0.06671304 -0.06301701 -0.40879738  0.11459097  0.40285891  0.18371344 -0.26287147 -0.12298499 -0.31122765 -0.03783403 -0.43377328 -0.67291498  0.30159828  0.07701242 -0.00204933  0.18862726  0.02862231  0.75483537  0.30473337 -1.0529871   0.20126395  0.12128647  0.32701731  0.00411065  0.50837338  0.2291631   0.41299438 -0.08298808  0.01103213  0.13443826  0.34365177  0.26508278 -0.2875385   0.42597932  0.30429083 -0.12292871  0.59582281  0.02630684 -0.27596724  0.10960515 -0.16914789  0.05537919  0.15842871  0.44580406 -0.13637367  0.18538606  0.24282756  1.06053102  0.39840049 -0.13171916 -0.60532516 -0.06915457  0.16610479 -0.68898869 -0.60958225  0.71429276  0.33151042 -0.14187407  0.11899549  0.12469524 -0.37323061  0.72149307 -0.07040448 -0.11897261  0.21918106  0.54499882 -0.37272748 -0.1122207  -0.48792082 -0.22290312  0.12324969  0.4240602  -0.02135483  0.39221451
liability -0.11914046 -0.39433047 -0.21736839  0.12326224 -0.3603754  -0.88124537  0.77751744  0.27028742  0.19179621  0.36297327  0.158952    0.8373183  -0.08503455 -0.06275931  0.55835396 -0.14211464  0.27563494 -0.23575878 -0.82717115  0.42766058 -0.11734104  0.68348914  0.37548459  0.03528289  0.28651148  0.16353303  0.27603418 -0.14880919  0.35049734 -0.02346781  0.31778949 -0.32758427  0.06369627 -0.18964733  0.41571134  0.46458948  0.14766459 -0.48523223  0.44012135  0.05177435 -0.22350031 -0.36853915  0.47115648 -0.52776134 -0.24027503  0.07079197 -0.68039709 -0.09726565  0.30555215  0.67413163  0.29383096 -0.0991666  -0.23442546  0.47723246  0.11022867  0.27078938  0.08885445 -0.06414631  0.2472398  -0.50846875  0.3161929  -0.39731729  0.35199806 -0.52451682 -0.03351015 -0.28543073  0.05477244  0.55246866 -0.56359625 -0.36785772 -0.25145757 -0.17033336 -0.11019045  0.12984535 -0.21993728 -0.03499089  0.69042039  0.68636072 -0.34926692 -0.08713603
block  0.13950987  1.12480295 -0.12590334  0.01863369 -0.1590099  -0.48325065 -0.30007207 -0.08685973  0.1754265   0.57897508  0.1731497   0.46687901  0.20619687 -0.12182106  0.45779455  0.41622499  0.20368421  0.01025332  0.23753396  0.01100282  0.33746517 -0.17980866  0.48320165  0.30914614  0.31336328  0.16062549 -0.24207371 -0.27011895  0.7088486   0.37702429  0.07390353 -0.57900268  0.05507249 -0.08571775 -0.37535     0.08245663  0.08019437  0.54647458  0.86042261 -0.08425512 -0.51867115  0.09947447 -0.13933901 -0.35760194 -0.26981089 -0.32469088 -0.32386154 -0.27153671  0.18762656  0.17168662  0.17953712 -0.19170526  0.4381614   0.44484532 -0.47504714 -0.5732342  -0.60287082 -0.20256114  0.53509527  0.03563391 -0.17965086 -0.17996943 -0.0382152   0.39519933 -0.24175528 -0.14091347 -0.30528301  0.36798698 -0.13505292 -0.22329479 -0.39970732  0.14376725 -0.13071108 -0.25765514 -0.74695832  0.07449581  0.22248437 -0.13631906  0.10556163 -0.18145789
size  0.27286345  0.2750769  -0.30842522 -0.14139701  0.13919558  0.01059963  0.57749939  0.00310167 -0.03411715  0.29005376  0.5309422  -0.4168525  -0.33466402 -0.67329001  0.20726772  0.38709554 -0.66175514 -0.55822849  0.12391613 -0.38872769 -0.11555158  0.56005836  0.32982555 -0.06672719 -0.13055931  0.89076805 -0.1374023   0.12626828  0.38999104  0.65698165 -0.25959569  0.1058315   0.27750123  0.04808207  0.86895895 -0.00726812 -0.06055129  0.37512198 -0.0596668  -0.37600759 -0.39110368  0.05542916  0.33411029 -0.05631347  0.17444202  1.00371134 -0.22906719  0.60235953 -0.45047772  0.46089864 -0.55128729 -0.16247673  0.35690695  0.10465405  0.35630488 -0.08357244 -0.21892311 -0.01843292  0.01231485  0.31845513 -0.58733588  0.04472915  0.46255335  0.21305405  0.33409998  0.19207905 -0.27660713  0.16922706 -0.29293808  0.27428204  0.01655933  0.64185768 -0.12980776 -0.12420581 -0.28009897  0.18523769  0.47171021 -0.12533189  0.06711838 -0.36870128
activity  0.42328954 -0.24985512  0.68582487 -0.72541928 -0.33565745 -0.12296396  0.18668668  0.71371812 -0.36959785  0.04112779  0.67246699 -0.37449875 -0.18434006 -1.04165888  0.21354933  0.3204214  -0.0065085   0.56582963 -0.42461517 -0.29006767 -0.34598148  0.08488794  0.47762936  0.059205   -0.75158626 -0.00454232  0.65555608  0.36490732  0.95338917  0.04146612 -0.39807147  0.27393585 -0.04116131  0.08977867  0.68773061  0.39854068 -0.03233154  0.87200797  0.23157455 -0.19098787 -0.50238037 -0.02822095 -0.5024302  -0.77359664 -0.4624252  -0.82608038 -0.47478524 -0.20964912 -0.12955722  0.6566987  -0.85195369  0.82244778  0.68906468 -0.45200476 -0.81177342  0.33572504 -0.34395814 -0.19494648 -0.24822414 -0.34914082 -0.04794261 -0.3614679   0.57376915  0.21014619 -0.02358115  0.52214718 -0.29441863  0.00958845 -0.89409661 -0.18503809 -0.41922474  0.07549109 -0.08412771 -0.09343563 -0.30683222  0.0301805  -0.07155317  0.63650608  0.35303578  0.13923152
round  0.45250958  0.79151869  0.48405829 -0.10624331 -0.19347423 -0.93424356 -0.25446934 -0.94983387  0.38499224  0.01555975  0.05164458  0.01361641  0.13748598 -0.13000344 -0.01679426  0.74334472 -0.3558768  -0.86307526  0.91674328  0.73740387  0.34189895 -0.48143029  0.46415418 -0.13842553  0.40086985 -0.11080882 -0.35773477  0.30316791 -0.02880989  0.11014396  0.27686703  0.22254972  0.7505368  -0.83619583 -0.59578407 -1.1496383  -0.75027871  0.26783797 -0.03071432 -0.65069258  0.01069194 -0.56446391 -0.5704416  -0.08250801  0.30722639  0.11448297 -0.78655052  0.84281552  0.00955153 -0.37368524 -0.07289432  0.29570302 -0.17489696 -0.59167737  0.4001402   0.54629523 -0.04352041 -0.66969538 -0.06932493 -0.40483767 -0.155862   -0.33847132 -0.15837502 -0.16854401  0.04262364  0.03158602 -0.90857553 -0.47097868 -0.25773764  0.78007829  0.62327921  0.3414534   0.10005295  0.28688833 -0.21354716 -0.12935667  0.26403353 -0.72417021  0.3119871   0.55771601
infrastructure -0.00755577 -0.17881361 -0.24878973 -0.34831116 -0.01437914 -0.35126042  0.22835919 -0.22838798 -0.26447678  0.84063673  0.31459978  0.45542902 -0.39292082  0.14145067 -0.36612093 -0.26823759 -0.22364977 -0.22916599 -0.87195945 -0.23858809 -0.20600303  0.69710135  0.61035621 -0.07541254 -0.77742577 -0.06432055  0.40829116  0.1275122  -0.06328511 -0.50876987 -0.35394454  0.11938125  0.00296924 -0.4852137   0.10606235  0.22598043 -0.314881    0.39208174  0.41832137  0.0151674   0.20005734 -0.13255078  0.10608956 -0.67410022 -1.18317723  0.12685852  0.06515987 -0.18942228 -0.61577088  0.57827389 -0.06186242 -0.05281818 -0.5593822   0.86175036 -0.04186266  0.00418036 -0.93146515 -0.42116636  0.38431329 -0.49937391  0.56586862 -0.02619806  0.08619995  0.27561328  0.36041397  0.66573304 -0.48818523  0.30297756 -0.85559076 -1.34174502  0.05100736  0.03030599 -0.1845102  -0.06943125 -0.41672492  0.37702751  0.39147967 -0.51174271 -0.33182114 -0.48265743
preservation  0.86542523 -0.16017383  0.02122059  0.02468741 -0.00017592 -0.13225867  0.02352247 -0.34540883 -0.49890208  0.0343734  -0.11576249  0.39551848 -0.48559499  0.30670869  0.55651498 -0.18575414 -0.44084579  0.41013569 -0.1338001  -0.39421779 -0.36746329  0.70286113 -0.59120053 -0.19185759  0.33876395  0.37251568  0.33998871 -0.26461962  0.54743278  0.06928342  0.09351923 -0.58408195 -0.27225682 -0.0329494   0.47258168  0.05124246  0.10598088  0.81447524 -0.40992087 -0.15872402 -0.02592474 -0.20793635 -0.33059961 -0.36934304  0.16105846  0.04148688 -0.00013451  0.1064261  -0.33380526  0.46524543  0.0551163  -0.39637464  0.5324167   0.88882124 -0.18477994 -0.38157544 -0.42217022 -0.29126978 -0.16109456  0.25100332 -0.13342562 -0.08032645 -0.29469952  0.11358875  0.87915564 -0.28303063  0.29768565  0.76088375  0.09778166 -0.30133653 -0.33365986 -0.20068303  0.31697249 -0.10511026 -0.65803117 -0.44878969  0.30408058  0.40446776 -0.57789242 -0.12439036
moon  0.06312466  0.19310614 -0.89075124  0.24533436 -0.29703084  0.01012032 -0.08521587 -0.34007609  0.29615262  0.54927498 -0.68051207  0.37874076  0.17164463 -0.54994607 -0.04072499  0.27338025 -0.68930286 -0.63886058  0.60645145 -0.01187744 -0.55341452 -0.18604255  0.54890615  0.16735065  0.21510592 -0.29645884 -0.18485534  0.18116751 -0.10444248 -0.03067501 -0.22604202 -0.10319579 -0.67232949 -0.711088    0.28684902 -0.30504528 -0.18241635  0.22626749  0.20078573 -0.45605901 -0.00914547 -0.21427616  0.19364935 -0.37057048 -0.14221947  0.07779611  0.66820765  0.65297264 -0.480398    0.07513528  0.47876778 -0.12541482  0.02441984  0.59374791  0.10450384 -0.05814306  0.24552844  0.43119872  0.44602701  0.42211679  0.3996976  -0.33711267 -0.11554167  0.05469231 -0.183963   -0.10296097 -0.51322174  0.74006391 -0.01020148 -0.43908522  0.7805444  -0.05238989  0.10231885  0.36924106 -0.30056569 -0.006736    0.06842431 -0.30303797 -0.67004025 -1.20473814
automobile -0.31781077  0.28331068 -0.4339602  -0.04475701  0.11870305  0.36697441 -0.15375018  0.27325091  0.32221669  0.55519563  0.20932144 -0.03722493  0.2577045   0.32663369 -0.33442813  0.27862951 -0.51978201  0.37587127 -0.72732258 -0.55920953 -0.66638601  0.27709064 -0.28769839  0.62137419  0.57294589 -0.2165565   0.51242423 -0.2878454  -0.79085869 -0.69206578  0.50844353 -0.29916328 -0.49740365  0.70406711  0.42895538 -0.02699898  0.00804662  0.63879871  0.58598447 -0.18302923  0.86576909 -0.20246349 -0.0555536  -0.25674707  0.06214666 -0.30451953 -0.08639662 -0.18556443 -0.46766406  0.56027234 -0.30980474  0.33856571  0.63228422 -0.60914016  0.46582505  0.16628666  0.16876824  0.10104086 -0.19734024 -0.44017285  0.26143363  0.18946663 -0.15468803 -0.21573867 -0.09451377 -0.23586336  0.48481342  0.85066217 -0.98478204 -0.63370568  0.37983039  0.28494477 -0.42978847  0.41481441  0.03298454 -0.39035833  0.26860684  0.6692825   0.11893456  0.42831331
clothes  0.02998525  0.07971212  0.33142465 -0.02293497  0.40193415 -0.1899738   0.57557482 -0.22458416 -0.04161067  0.287884   -0.72635072  0.10444215 -0.41777223 -0.14232728  0.19150609  0.23754197 -0.11575221 -0.14019173 -0.01223406 -0.5798322  -0.00868548  0.08874856 -0.21930648  0.07853764  0.08463611 -0.41164374  0.40162158 -0.92112255 -0.22478141 -0.1019201  -0.42498636  0.22338742  0.59538728  0.35625809  0.64109027 -0.17904526 -0.16146666 -0.00992312  0.49009052  0.28790253  0.15790209  0.0234184  -0.58720219 -0.8774575  -0.32874587  0.05037558 -0.28702655 -0.31159005  0.14097399  0.20835724  0.04639381 -0.25495544 -0.00920792 -0.20979773  0.43669727 -0.38430843  0.05196559 -0.75701785  0.33820811 -0.42377898  0.45916563  1.19064641 -0.46741587  0.12528063 -0.48186231  0.08074526 -0.08286575 -0.09028873  0.23853433 -0.11693478 -0.76725519 -0.9470827   0.63751543 -0.31291297  0.36580935  0.31325597  0.22148488 -0.45082948  0.49481231 -0.12415168
observation -0.43791887 -0.28119242 -0.50152534  0.20658427  0.52947104 -0.12506858 -0.35205969  0.1081171   0.14330079  0.31433576  0.02224605  0.24309584 -1.37959695 -0.58214885  0.78736252 -0.78195381 -0.14382119 -0.40584117  0.27874422  0.38201684  0.42677099 -0.17301235 -0.43067932  0.33819425 -0.14541943 -0.37223354  0.41939226  0.07541405  0.3939805  -0.16610515  0.46367621 -0.96386784 -0.23540619 -0.88748866  0.07849789 -0.37906265  0.25344467  0.8177951   0.50279188 -0.21892738  0.13036713 -0.10202765  0.49012417  1.05010188  0.05272299 -0.39876616 -0.52063304 -0.44102365 -0.18367267 -0.07510942 -0.4435164  -0.21721536  0.43801057 -0.0623118   0.23006028 -0.138933    0.23998165  0.29897282  0.13577975 -0.30537194  0.09485501  0.35890701  0.27208626  0.0842341  -0.02200633  0.21467258 -0.10373784  0.33458862  0.41877943 -0.10318054 -0.95348698  0.00350478  0.54919052  0.18708311 -0.76944625 -0.38392651 -0.00892232 -0.43338302 -0.40587583 -0.1741154 
metal -0.28504962  0.22694004  0.22526409  0.12739879  0.22151281 -0.36688858  0.39905089 -0.85285074 -0.32206804  0.2915037  -0.02296079  0.30413452 -0.58959842  0.25137132  0.50907922  0.13027319 -0.27960393  0.32071933 -0.49070442 -0.6911329  -0.28370556  0.28139141  0.16897638  0.15780263 -0.26006553 -0.76315904 -0.44455719  0.43382621 -0.19141698 -0.30366427  0.43100423  0.04045209 -0.03651327 -0.06959172  0.01111223 -0.05645481 -0.46735114  0.26392534 -0.4728218  -0.02275997 -0.39465553 -0.55725133  0.47430277  0.0023111  -0.45135352 -0.46805024  0.52152556  0.57115757  0.31363678  0.19917952  0.01922256 -0.4608677   1.23014879 -0.30966112  0.38393509 -0.66991878  0.63059288 -0.67611051 -0.12393785 -0.04582177 -0.11395751  0.18802628 -0.14635754 -0.15857379  0.03584199  0.04884114 -0.09477323  0.24486548 -0.83570969 -0.77051002  0.63533998 -0.6592977   0.3216666  -0.53457439 -0.11945428  0.74665868  0.6413188  -0.25075778 -0.49334446 -0.17271167
atmosphere  0.1221589  -0.13013911 -0.38976714 -0.34069937  0.12243597 -0.22841235  0.1445297   0.30889821 -0.26422372  0.56982207  0.13830303  0.01092954 -0.23098254 -0.28712752  0.26786894  0.71505737 -0.19036959 -0.35836798 -0.08378419 -0.08659369  0.4156208  -0.22324435  0.22492662 -0.13147755 -0.39100385  0.01712423 -0.0786631   0.05427974  0.2688019   0.29768685  0.43584505 -0.88095689 -0.22298415 -0.64771533  0.65382743 -0.15037325 -0.46827543  0.56492031  0.40190917  0.37735862  0.23624739  0.32821596 -0.29614601 -0.03548374  0.14091328  0.13060889  0.29021505 -0.06179353 -0.24598986 -0.08679463 -0.26707262 -0.10808626  0.23191328 -0.57701814 -0.19290842  0.11316073  0.38616067 -0.10147561  0.29465827  0.07518183  0.33254316 -0.21249634  0.17015274  0.26287538 -0.1749303  -0.29157063 -0.38081539 -0.12125984 -0.2900216  -0.0115566   0.45153514  0.17789505  0.2417258  -0.18102214 -0.4882355   0.27348655  0.31768489  0.14636102  0.08492231 -0.20680758
FBI  0.45545679 -0.63866615 -0.30720118  0.11591047  0.28906292  0.74428988  0.41052905  0.73322487 -0.44914794 -0.15253492 -0.02417431  1.28345275 -0.10803987  0.83511949 -0.02159882 -0.16387314 -1.06008625 -0.36399871  0.07452198 -0.11727522  0.60361421  0.123336   -0.15281709  0.29411453 -0.23949161 -0.20821127  0.77992582  0.21218923 -0.11069407 -0.54393387  0.12553483 -0.18661626 -0.05331817 -0.2756812  -0.39242926 -0.28078952  0.50552964 -0.03568467 -0.15460789 -0.09862855 -0.50821042 -0.35506308 -0.32676122  0.03693714  0.42491323 -0.70384562 -0.49998227 -0.36778283 -0.83091569 -0.17141087 -0.3464756  -0.09374607  0.50487953 -0.89076006 -0.31888396  0.68903911  0.06982666 -0.25088727  0.23249371 -0.08158333 -0.41627154 -0.56099975  0.1407665   0.28093106 -0.81748593 -0.59296882  0.66573846 -0.03050029 -0.0469388  -0.13910472 -0.0202388   0.20426163  0.44357812 -0.1906288   0.41978925  0.35070381 -0.84409046  0.0215348  -0.52794623 -0.17537944
coffee -0.15080069 -0.42129689  0.40758407  0.50078416 -0.04697624 -0.34518182  0.43766874 -0.90865874 -0.17482482  0.48817673 -0.68144774 -0.7374959  -0.00201933 -0.06886269  0.57659954  0.18805797 -0.33977824  0.04930124  0.16652766 -0.19344212  0.07167892  1.01018631  0.79496479 -0.3833245  -0.27008918 -0.61352587 -0.12884833 -0.70157957 -0.01580311 -0.12120947 -0.74871033  0.13004626  0.444774    0.82832974  0.44259799  0.35075453 -0.30221987  0.84632444  0.46371785 -0.71734619  0.31614268 -0.4460032   0.29241008 -0.50404149 -0.35117918  0.40723056  0.2799781   0.12646994 -0.1391083   0.47120112 -0.11143738 -0.49998271  0.49346024 -0.36227158 -0.13127944 -0.21338531  0.62401485 -0.58310068  0.18915202  0.02125347  0.1128947  -0.03267938 -0.2191548  -0.43170226  0.44270661 -0.74641204 -0.18419383  0.24142528  0.16011928 -0.66778576 -0.16019198 -0.49683669 -0.69937968  0.18053874 -0.28605983 -0.0943037   0.16688038 -0.03012182  0.68357658 -0.29072574
development -0.35409993 -0.201106    0.51004821 -0.0290693  -0.56665421  0.13518149 -0.09317208  0.4314211  -0.79589272  0.32336977  0.08245137  0.56302875 -0.66230273  0.07369927  0.12825353  0.11175767  0.25790197  0.2450524   0.09554759 -0.37172386 -0.51138163  0.5970301   0.6831733  -0.48410594 -0.71696508  0.34016138  0.95333159  0.80856323  0.32483545 -0.63665366 -0.30199775 -0.4470731   0.0239603  -0.64983392  0.60962403  0.19447777 -0.2867887   0.59903705  0.25740093 -0.24355367 -0.20122628 -0.39692879 -0.70870674 -0.96891403 -0.61647558 -0.52063173 -0.6402396   0.35363048 -0.51613706  0.21164118 -0.33914152  0.23760843  0.05307159  0.45396161 -0.82043535  0.12178826 -0.63030648 -0.70251656  0.29650575 -0.25954726  0.50819415 -0.30366206  0.78816903 -0.12354139 -0.26134616  0.71541715 -0.8062638   0.42266238 -1.22430444 -0.49827844  0.2423255   0.0042866   0.22427341  0.12579061 -0.78278232  0.22773381 -0.29931918 -0.32256538  0.45930091  0.36434853
benchmark  0.30088174  0.10606673 -1.12028933 -1.35591745 -0.49578285 -0.6095562   0.58593059  0.04956726 -0.37941504  0.48170221  0.09355098  0.38313997  0.85864747  0.10826164  0.01467964 -0.50289172 -0.89294159 -0.44856057 -0.1491195   0.21508236 -0.04234076  0.60433435  0.36298347  0.43802112 -1.69417405  0.68922704 -0.24353062 -0.52552074  0.04974189  0.03511149  0.35156325  0.54785413 -1.07579398 -0.49884734  0.21812755  0.21355221  0.73903537 -0.4783724  -0.75950539 -1.22392559 -1.09756875 -0.9287582   0.13489737 -0.18317869  0.83633763  0.30151212 -0.58447349 -0.24182028 -0.75698233  0.5283277   0.23158717 -0.11632883  0.55086952 -0.28484327  0.54685795 -0.44620124  0.02228212  0.35395193  0.4150376  -0.51951671  0.28137192 -0.62258476  0.23363906 -0.15960428 -0.81978524 -0.32015407  1.20667183  0.1914304  -0.97686553 -0.248364   -0.96567279  0.38189781  1.00473964  0.1229182   0.33903137 -0.47085133 -0.41177231 -0.30600309  0.0265733   0.72302109
recommendation -0.10732371  0.01471154 -0.21405251 -0.35227168  0.17665221 -0.0396655   0.37227139 -0.33625132 -0.13207056  0.13718715 -0.36301088  0.21375769  0.09914147  0.22374371 -0.28136319  0.35038447 -0.29233831  0.01766624  0.51778674  0.30296946 -0.16758218  0.19666617  0.23309165 -0.29569197  0.13535321 -0.34262544  0.24516124  0.56246668  0.2417597   0.38015249  0.30143315 -0.55445802 -0.22349289  0.04563452  0.56029856  0.23610042  0.18026438 -0.16543186  0.2422374  -0.48545259 -0.22800049  0.23730515  0.07602934  0.24690621  0.43889499  0.28072765 -0.2057443   0.32597187  0.3432689   0.3029539   0.08615762 -0.29690099 -0.14174271 -0.25082666 -0.27854821  0.13142572 -0.14158374  0.05247572  0.32535303 -0.38292825 -0.08382547  0.13740022 -0.26943767 -0.48534119  0.44011721 -0.11574338 -0.15665878  0.51740342 -0.32789361 -0.5002678  -0.01718082 -0.14927445  0.14209844  0.19922124 -0.4551979  -0.17324644  0.58905888 -0.38031033 -0.17121325  0.19727214
hypertension  0.02927025 -1.3489964   0.02369342 -0.10761923 -0.23160593  0.38281882 -0.35969773  0.35312527  0.01698078  0.47543782  0.32408422 -0.29835197 -0.97682452 -0.87839472 -0.1078266  -0.19545251 -0.16123524  0.19404623  0.12406567  0.0572831   0.46425062  0.59913224 -0.11691493 -0.71896821 -0.35507905 -0.66115755 -0.24312179  0.38169155 -0.60648215  0.37097904 -1.1390537   0.23407854 -0.4154475   0.88998121 -0.26838666 -0.11573741 -0.25099587  0.25617126 -0.09533405  0.80237353  0.47236854 -0.96716177  0.42379594 -0.6091702  -0.87675697 -0.12657508  0.31603643  0.15168333 -0.58899713 -0.26293784  0.55053514  0.58576649  0.39574638  0.47989392  0.30549532 -0.46568993 -0.22211885  0.31041986 -0.87700731 -0.38840985 -0.10192314  0.57846498 -0.38316822  0.91805303 -0.08029065 -0.76567054  0.48694986  0.19473608  0.35525647 -0.7370376   0.5190441  -0.44625178 -0.19843486  0.06653366 -0.5602529  -0.60987246 -0.46528229 -0.11801825 -0.63691014 -0.45502296
practice -0.21623743 -0.30086645  0.51934814  0.23311356  0.0217174  -0.53574234  0.4925735  -0.41404051 -0.41378558  0.29316574 -0.16179925  0.56085765 -0.07453811  0.10995394 -0.23377413 -0.01574739 -0.00523195 -0.76438946 -0.0189041  -0.29414472  0.46613717  0.23372242  0.46803838 -0.15891114 -0.1205413  -0.34707516  0.22644466  0.39241612  0.27503493 -0.75124037  0.19538683 -0.05504166  0.74841309  0.35097635 -0.08439624 -0.9391405  -0.77182674  0.40420631  0.17783982 -0.30348572 -0.27913928 -0.07142299 -0.40457055 -0.28319272  0.12531589 -0.12182957 -0.27376842  0.37595141 -0.23951209  0.06276978  0.01202406 -0.18102828 -0.34723246 -0.21441545  0.20096409  0.319839    0.1248554  -0.59161329 -0.03834118 -0.38059369 -0.26939505 -0.04349916 -0.12565437 -0.36416072  0.08719654  0.35892934 -0.3629849   0.70157242 -0.19689497  0.37692535  0.69910192 -0.36628106 -0.05857322  0.24919975  0.24851799 -0.02681948 -0.39596111  0.22253042  0.56042016 -0.0515012 
planet  0.01359245 -0.08665848 -0.30925623 -0.07518063  0.37758058  0.05880809 -0.09855925 -0.01348418 -0.15291229 -0.13615859  0.14832693 -0.07211608  0.90106821 -0.85573417  0.15804869  0.85377771  0.1479781  -0.05123384  0.1049663  -0.15460142  0.12404129  0.02434015  0.55285728 -0.51133645 -0.36792392 -0.52515215 -0.15808915 -0.09066398  0.00772891 -0.06647733 -0.20242268 -0.25549698  0.27742836 -0.19610924  0.87316585  0.026289   -0.54306161  0.1038814  -0.18074873 -0.48787782  0.33079609 -0.3858006  -0.14263877 -0.27867028  0.03764698  0.71970469  0.06038629 -0.32553422 -0.11329553  0.03354742  0.19627261 -0.70758605  0.11556961  0.07591353 -0.36671436 -0.10938851 -0.03086895 -0.39894447  0.29922652 -0.00368869  0.53939015  0.29658684 -0.06006192  0.46071458  0.05490911 -0.19967207 -0.18489704  0.44230127 -0.74245441 -0.03740402  0.1590707   0.29088899  0.07864654 -0.19414732 -0.96905541  0.54413426 -0.29672268  0.1996084   0.05106172 -0.51434541
mammal  0.08222686 -0.14385055  0.49390343 -0.09086151 -0.11820304  0.11131395 -0.29264528  0.48541677  0.10543083 -0.55632216 -0.51725006 -0.43692443 -0.22170123  0.40385339  0.31797194 -0.70174301  0.57498342  0.09352495  0.21184877  0.95503795 -0.73817271  1.00837183 -0.19116175  0.7604847  -0.88709009 -0.66270638 -0.29483709 -0.43538198  0.83583069  0.323769   -0.59848952 -0.41208872  0.29092228  0.43191028 -0.9063189  -0.49277908 -1.3119272   0.05025214  0.88942754 -0.3122367  -0.47704834 -0.77604628  0.97709835  0.40076709 -0.82750785  0.05224958 -0.15922038  0.86129874 -0.22338955 -0.62450141  0.27699345 -0.43479609  0.07219166 -0.08760795  0.7990855  -0.58759081  0.32205808  0.37042952  0.62366104 -0.18174505  0.23198147  0.3240183   0.54436827  0.23426554  0.95218611 -1.00603437 -0.13608263 -0.65982682 -0.77498734  0.64918989  0.86499882 -0.31958193  1.23674512  0.48321766 -0.58455825 -0.53504205 -0.45092085 -0.40784109  0.56224722 -0.62988031
magician  0.98856193  0.50999695  0.41345704  0.4720431   0.68519676 -1.03487635  1.14722407 -0.08696113 -0.23774159 -0.51463127 -0.21178597  0.26903868 -0.74319488  0.3049795   0.4948127   0.23076129  0.6102646   0.5055722   0.13878497  0.7800467   0.26166654  0.89708757 -0.9126839   0.12519927  0.03173825 -0.748541   -0.32911813  0.64173204  0.83284438 -1.24265623 -0.58226216 -0.16511011 -0.36180481  0.58760017 -0.02840781 -0.35824007 -0.05842517  0.3106488  -0.01178288  0.23661065 -0.04355047  0.04380597  0.35875976 -0.05873814  0.34401527  0.85276467  0.94575185  0.02717194  0.25525677 -0.80219162  0.13980341 -0.24408787 -0.69433248 -0.60675353  0.69547677 -0.56243443  0.64857602  0.81136012  0.7382099   0.85013771 -0.19156319 -0.31147644  0.45589721  0.55485511  0.14184743 -0.62621391  0.99777687  0.64886636 -0.1420202   0.40521455 -0.44521528  0.67869377  0.24552745 -0.65055728 -0.45104891  1.1163497   0.08919007 -0.52054423  0.54666156  0.28537735
seafood  0.15968569  0.56976485 -0.00197271 -0.33307034 -0.01703297 -0.20722464 -0.04627087  0.11906831  0.45410895 -0.15179148 -0.12328435 -0.24025998 -0.11501574 -0.2398074  -0.03764454  0.16969828 -0.10298865 -0.27752215  0.00954936 -0.38027686 -0.23868263  0.78149056 -0.27242923  0.02714171 -0.03230946 -0.10415994  0.10767911 -0.35898283 -0.19336163 -1.03359389 -0.39618495 -0.46189699 -0.21406141  0.00806874 -0.28985491 -0.16781151  0.12767223  0.56137228  0.26156053  0.25729188  0.5770188  -0.48136166  0.09814425  0.07406715 -0.10425577  0.15021315 -0.22857006 -0.24519747 -0.01302689 -0.17603907 -0.20849277 -0.20406193 -0.4365443   0.06794864 -0.73262298 -0.23344645 -0.01311427  0.17646593  0.27154219 -0.26849535  0.08029291  0.29511696 -0.05317782 -0.2425669   0.94661576 -0.52932566 -0.43807265  0.01578796 -0.69585478 -0.79431611 -0.34514388 -0.08435221 -0.10689849 -0.14046925 -0.28901628  0.16053015  0.32452983  0.10540318  0.16069885  0.57513875
Brazil -0.3311342  -0.30891114  0.03939726 -0.50082088 -0.66143548 -0.11492628 -0.83358371 -0.20114775  0.14244357 -0.06780536  0.28678575 -0.33673164  0.32447916  0.38748407  0.12533414  0.7593388   0.40839523 -0.22201657 -0.8388772   0.51026624  0.29643983 -0.07992249  0.36959782 -0.28508359 -0.48721451  0.6724782  -0.19122007  0.38680714 -0.30108264 -0.38514292 -0.23516308 -0.55688208  0.1703465   0.00652276 -0.37650275  0.02468598  0.21052045 -0.14584994 -0.43136573 -0.17321552  0.34931329  0.18062134 -0.22533903 -0.80523837 -0.42423451  0.03002083 -0.27715918 -0.02843495  0.15308908 -0.0343675  -0.39743614  0.0359768  -0.16645119  0.37461656 -0.14246121 -0.53166842 -0.22161207  0.50550961 -0.4432084  -0.05940903  0.3643823   0.46643448  0.04352944 -0.05119634 -0.18677625 -0.43424764  0.19004102 -0.29667199  0.06315061  0.2176373   0.82219321 -0.01419789 -0.70808887 -0.42019674 -0.57890856  0.09728383  0.2041904  -0.42124397  0.53803539 -0.37955973
interview -0.33973733  1.06892335 -0.0194981  -0.23024809  0.22057208 -0.43000144 -0.17880289 -0.36266923 -0.22771885  0.01802412 -0.0248656   0.5895645   0.59791076  0.30324042 -1.47397387 -0.32306427 -0.31211594  0.26851732  0.50754464 -0.21592355  1.0429374  -0.78333014  0.09401396  0.65027559  0.05456768  0.29200444  1.54786396  0.68121248  1.15438604  0.07986326  0.71468467  1.00431144  0.44870728  0.49001691 -0.62571084 -0.28218389  0.47721165  0.64434838 -0.34703457 -0.54740727 -0.03497371 -0.18525657  0.05327885  0.46933448  0.84831059 -0.78318149 -0.35197222 -0.11030443  0.65855157 -0.03212035 -0.61551732 -0.74421382 -0.77702636 -0.87489355 -0.38112602  0.23074333 -0.1452456  -0.61586964  0.9069044  -0.26352262  0.83383167 -0.19844502  0.79094565 -0.85871768 -0.67107165 -0.11187327  0.15113685 -0.40079203  0.47732618  0.27181682  0.66943359 -0.03770835 -0.11809286 -0.58671457 -0.00020313 -0.2540268  -0.47403485  0.29525381  0.03993335 -0.16234556
problem -0.10677889 -0.38976151  0.96397376 -0.08100436 -0.21530786 -1.14012218 -0.00154422 -0.22929968 -0.71615845 -0.06812523  0.90478218  0.12973389 -0.06826347 -0.65224099 -0.45466757  0.16741055  0.44006282  1.07323575 -0.29613066  0.02339569  0.51725858 -0.26528895  0.38029426  0.20578153 -0.37970316  0.43090889  0.22101964  0.13407019  0.01699136  0.32106009  0.58790666  0.09645143  0.44739652 -0.30546963  0.29291421  0.08956145 -0.07566659  0.09604564  0.30646056 -0.05389099  0.3226755  -0.46306691 -0.12757273 -0.41509533 -0.33740219  0.91181684 -0.15544584 -0.45018715 -0.70853603  0.41174227 -0.53049064 -0.84039187  0.21318889 -0.66814148  0.66236186 -0.15334475  0.72168279 -0.64418459 -0.08057766  0.03795315 -0.76301926  0.11567032  0.10640617  0.4107078  -0.23750699  0.85689652 -0.15799537  0.64275694 -0.48348507  0.68099654  0.84907287  0.2269742   0.07413068  0.36323655 -0.65363479 -0.20163743 -0.2370277   0.23638535 -0.75229573 -0.33387703
dividend  0.17144182 -0.67745519 -0.91007793 -0.57249397  0.81086707 -1.03684652  1.2054882   0.10030194  0.09666321  0.68466562  0.24077556  0.33685827 -0.11791603  0.57390171  0.37127867 -0.34094816 -0.10020813 -0.54773384 -0.03476155  0.42735738 -0.14810708  0.05893873  0.57362086 -0.25976661  0.71117026  0.29691654 -1.06970716 -0.23407063 -0.59488934  0.35002542  0.19598877  0.56626683  0.06717375 -0.63176584  0.02144626  0.69415402 -0.71229005  0.01930299  0.63068068 -0.89288807 -1.21298337 -0.02011459 -0.23823351  0.99237812 -0.0689566  -0.649997    0.19748747 -0.05841122  0.32165149  0.80251157  0.30319127  0.32689893 -0.88946241  0.22460018 -0.08797322  0.42277819 -0.68960553  0.03667724  0.96247411 -0.84608972 -0.82235688 -0.41361538  0.28114372 -0.68862015  0.69488823 -0.1700142  -0.51538074  0.16374213 -0.34044123  0.20941027  0.58740479  0.7478981   0.1219641   0.0574989   0.61791718 -0.05579749  1.3372972  -0.04472645 -0.45796609  0.85513508
possession  0.26159456 -0.0242732   1.07696974  0.00130454 -0.03616107  0.17009632  0.06831169 -0.56000686  0.66364557  0.21912211 -0.37122944  0.39343685 -0.42564932 -0.38426429  0.47608525  0.94193667 -0.57164598 -0.15151455 -0.60446101  0.06938246 -0.14156336  0.15197021  0.46797365 -0.50616199 -0.08688419 -0.29136109 -0.05083318  0.48602462  0.45864904 -0.14437978 -0.02610682 -0.64677238 -0.07929814 -0.33238706  0.03590147  0.02901851 -1.01700246  0.20928742  0.2462323  -0.29328057 -0.24671213  0.06349128  0.29419434 -0.54547077  0.39509493  0.36775962 -0.13541007  0.17622003  0.72137451  0.28032559 -0.05299474  0.2248932   0.69355208 -0.36903164  0.16435793  1.12939143 -0.63258308 -1.02806997 -0.11587158 -0.74610144 -0.35495397 -0.25908911  0.521514   -0.16843903  0.11043892  0.19433826 -0.19129202 -0.85038817 -0.4061563  -0.66562331  0.10800397  0.07451706  0.36095011  0.34883961  0.09261426  0.4928501   0.34126765  0.18661194  0.96271253  0.0721928 
word  0.00943927 -0.66695648  0.8880474   0.46021765  0.93845141 -0.41837895  0.18738043  0.28134197  0.11593187 -0.16917682  0.31739718  0.43643445  0.0961424   0.31981662  0.24765038  0.5115062   0.15612134  0.81463271  0.82009584  0.18070374  0.43562883 -0.80840963  0.83519423 -0.15995505  0.41556889 -0.42320964  0.56599641 -0.41682607  0.66716176  0.30483943  0.38839138  0.45393166  0.74904549 -0.37584257  0.02551392  0.1871528  -0.48072329  0.02785096 -0.06193518  0.40950871  0.37246639 -0.55133641 -0.23553967  0.50323665  0.17740126  0.92673469 -0.26054513  0.08031107 -0.22557147  0.29842067 -0.01819207  0.1898113   0.53198886 -0.23314101  0.39875764 -0.10498855  0.4630045  -0.334943    0.75336218 -0.85732311 -0.18856466  0.22665402  0.04321973  0.09415025 -0.27119139 -0.09385604 -0.92843735  0.50148189  0.29029095  0.32443714  0.08442062  0.25946829  0.17160839  0.14542902 -0.53399587  0.15746148 -0.05184756  0.13378772 -0.25315851 -0.13787118
luxury -0.17002097  0.24942559  0.64132047  0.67117268  0.53390837 -0.81412518  0.48731956 -0.05269799 -0.23932284  0.23424622  0.07361069 -0.80493999 -0.02006046  0.52623445  0.1201499   0.25373289 -0.30286294 -0.18623528  0.26811868 -0.4192597   0.16861138  0.89880461  0.0365224  -0.99126464 -0.13344893 -0.87563968 -0.23075514 -1.0622493  -0.35563433  0.15172581 -0.80349809 -1.2143302   0.1505947   0.98162627  0.21024157 -0.33762562  0.2217163   0.30990615  0.07795185 -0.04306932  0.07332076 -0.00437856 -0.13244115 -0.09038942 -0.03838304 -0.1212905  -0.46083346  0.07156292 -0.2051957   0.41855043 -0.81564569  0.30851516  0.10304438  0.39076757  0.15484306  0.5311963  -0.21680556  0.26688311  0.08684857 -0.74423522 -0.69394803 -0.31166726  0.33430058  0.08314031 -0.10509452  0.28325319 -0.09809704  0.95266581 -0.76379156 -0.39404988  0.26762441  0.14476283 -0.09429131 -0.36870223 -0.40938616 -0.03275491  0.21386051 -0.19577441  0.13874155 -0.02789444
bishop  0.41483527  0.13661054 -0.47175166 -0.19234741  0.36783028  0.04356534 -0.10755672 -0.10489224 -0.52016759  0.20867437  0.16204268  0.89050657 -0.05739669  0.52640277  0.07343408 -0.3053818  -0.03890077  0.20872335 -0.12669492  0.42148328 -0.38766778  0.06160813 -0.24753779  0.62342155  0.05040631 -0.30636021  0.45548868  0.30593616  0.20357211 -0.57783365 -0.6876421  -0.44202814 -0.02764157  0.06858939 -0.64049906 -0.35352513 -0.40190905  0.34753561 -0.24700586 -0.10594672 -0.48563752  0.2382444  -0.00261962 -0.27420539 -0.16333373  0.29731634  0.46608007  0.45130548  0.13648501  0.4888674  -0.54539526  0.3217181   0.86817551 -0.0315905  -0.26933986 -0.2650342   0.21000549 -0.39296815 -0.47719365  0.77273232 -0.5564537  -0.57775706 -0.17892168 -0.87774622  1.04792547  0.1575034  -0.00237268  0.25958407  0.031455   -0.34199846  0.80817211  0.05356463  0.62833869 -0.03720504  0.82353199 -0.20528078 -0.53641284 -0.2374783   1.06103015  0.18398803
holy  0.76991343 -0.28048247 -0.20339908 -0.19928554  0.36441153 -0.02373987  0.41879067  0.30011672  0.78718376  0.45723274  0.41159758 -0.39890987  0.83537114  0.42051488  0.5699209   0.86866587 -1.12324619 -0.434017    0.30863854  0.07999153  1.03194571  0.52136385  0.40026912 -0.28517449 -0.27622783  0.65208548  0.12157298  0.19844911 -0.07333741  0.23408458  0.64620286 -0.08894974  1.10611403 -0.00602424 -0.19599494  0.14956385 -1.00933409  0.74923873 -0.5895797   0.08599162  0.10603662 -0.24779606  0.06506012  0.49404836  0.32707256  0.597363    0.02004148 -0.00205243  0.05814254 -0.52258497 -0.9756192   0.39381635 -0.03120644  0.73733288 -0.65407985  0.1612184  -0.63674808 -0.54551202 -0.60000503 -0.14458841 -0.72513449 -0.2958023  -1.38813972  0.51111758 -0.46874961  0.65273136  0.18953291 -0.04636187 -1.67606235 -0.10089439  0.25958011 -0.46350449  1.63720989  0.20714061 -1.00062644  1.03743887  0.40263087 -0.56642568  0.83265185 -0.92015588
brother -0.45374119  0.22692849  0.84173226  0.55321509  0.12317713 -0.34391159  0.04867689  0.05111815 -0.02414656 -0.1820008  -0.41522399  0.90186834 -0.45084539 -0.40249997 -0.51142097 -0.44271272 -0.733652   -0.16477279  0.61424965  0.75305486  0.01511958 -0.8228634  -0.44192943 -0.147122    0.3721      0.85652864  0.56087559  0.13369066 -0.62833297  0.06680117 -0.62194043  0.04909392  0.00668778  0.82856512  0.13688353  0.58588588 -0.1125058  -0.56020337  0.01017267  0.37850696 -0.11963062 -0.19225183 -0.01919311 -0.0738209   0.13380037  1.17856169  0.33136809  0.10485289  0.19586822  0.34762862 -0.08841098 -0.10961108 -0.3382647   0.32694542  0.35046667 -0.23760036 -0.11531398 -0.16337703  0.1482591   0.79591668  0.13760304  0.67777526  0.45911616 -0.4605028   0.14299507 -0.24779746  0.40239066 -0.23300219  1.23415685  0.45586872  0.71214092  0.39033356 -0.03478774 -0.1560545   0.2303904   0.33080512  0.53020692 -1.21401882  1.37603962 -0.33487117
rook 0.0 0.0 0.0 0.0 0.0 0.0 0.0 0.0 0.0 0.0 0.0 0.0 0.0 0.0 0.0 0.0 0.0 0.0 0.0 0.0 0.0 0.0 0.0 0.0 0.0 0.0 0.0 0.0 0.0 0.0 0.0 0.0 0.0 0.0 0.0 0.0 0.0 0.0 0.0 0.0 0.0 0.0 0.0 0.0 0.0 0.0 0.0 0.0 0.0 0.0 0.0 0.0 0.0 0.0 0.0 0.0 0.0 0.0 0.0 0.0 0.0 0.0 0.0 0.0 0.0 0.0 0.0 0.0 0.0 0.0 0.0 0.0 0.0 0.0 0.0 0.0 0.0 0.0 0.0 0.0 
tournament -0.13776988  0.67218566  0.57854676  0.24422997 -0.08719514  0.10111643 -0.9710353  -0.32619172  0.24684371 -0.22677012 -0.70068336 -0.18399161  0.17466994 -0.14226413 -0.50206149  0.55727363 -0.56142598 -0.65637958 -0.30352655  0.4580633   0.0210284   0.17219982  0.99982285  0.04370417  0.27993846 -0.92822117  0.24517068  0.42118677 -0.28453025 -1.01432967  0.48579714  0.02269947  0.45075226 -1.07998443 -0.24441229 -1.2610985  -0.03515774  0.09957418 -0.64660203 -0.45007747  0.37302539  0.3084479  -0.29065681 -0.21291076 -0.03446783  0.44585484  0.18850155  0.85769069 -0.75372803  0.09020225 -0.3828761   0.22550035 -0.59396762  0.5656333  -0.22649762  0.90276933  0.27530164 -0.29124707  0.19317192 -0.44464433  0.02426838 -0.3178671  -0.11313172 -0.77178431  0.61900353 -0.18033162 -0.63487637  0.21125685  0.08893864  0.7688657   0.9603194   0.24227777 -0.2742697  -0.10426246  0.13066396 -0.07773722 -0.20873597  0.11051603 -0.17585802 -0.0152834 
victory -0.2472879   1.30306149  0.72544205  0.11211003 -0.97189426 -0.93742585 -0.40088278 -0.90143901  0.19013926  1.21449721  0.15682685  0.54929125  0.52440619  0.10366349 -0.5828585  -0.06578487  0.3640064  -0.08150983 -0.10333814  0.71032047  0.15739754 -0.35960951  0.89739466  0.33506805 -0.10883744 -0.4924342  -0.03286165  0.88541299 -0.21704704  1.03366256  0.73063254 -0.21056347  0.12977442 -0.72678816 -0.56167209 -0.36724329  0.27293679  0.31528577 -0.15662459 -0.91406786  0.1546807   0.41999719  0.28562239 -0.37419966  0.61298835  0.74798268 -0.72405791  0.27908438  0.44705772  0.22937103 -0.01114331  0.46568519  0.0087316   0.15959455 -0.1418782  -0.16244727  0.38137987 -0.46501899 -0.6951108   0.0323514   0.1254383  -0.2784926   0.14961791 -0.72993696  0.24377963 -0.29920092  0.11427821 -0.16713363 -0.27074015  1.19280171  0.87072772  0.34096605 -0.01355679 -0.29745787 -0.07746139 -0.22682805  0.42264795 -0.87978601 -0.0020565   0.42069179
